{"layers":[{"nodes":[{"weights":[0.7371250456378675,-0.8943424230476764,0.06340638303172819,-0.7663434971983851,-0.14659859665195896,-0.4628231419747646,0.5373976073919402,0.33192172804091147,-0.3624016220713715,-0.40707022552659966,0.4607443238141542,-0.9346860822959329,-0.2065334693639702,0.3808408096365805,-0.8408469683860242,0.38567275684535973,0.5715420757739564,0.8011602966949116,0.11595307590021742,0.3568961860555011,0.34805311765195013,0.3204769126812148,0.8115589113812574,-0.9115905378026672,-0.652259122996798,0.07093652457945687,0.49020374892790297,-0.8834668004632085,0.6457747201085833,0.4668157141558247,0.38476533604918783,-0.6720487382953779,-0.6351490757391276,0.006507276246466187,-0.9944090085876973,-0.17420139448168478,-0.2638695679665443,-0.7944363753195486,-0.38259676634346074,-0.29190191414003114,0.16960461124616877,-0.7999927113223213,0.7400727904220733,0.11994105816665053,0.392346437782258,0.1532368665534991,0.9309211685226154,-0.46129532007907237,-0.9098921223016823,0.328711470982909,0.9284567315960512,-0.6308898047254106,-0.8923585568283277,0.11598355733181887,0.3551926850417719,-0.19278187240086497,-0.0037927885481425783,0.91909101536623,-0.45196981475457143,-0.45676255673891,-0.7888970376164904,0.8826358959562431,-0.2624855776335364,-0.42984899317618264,0.7405740875554278,0.4692867793368676,-0.2275319307166379,-0.554739538648072,-0.5561395552244011,0.183968737087168,0.726317820420685,0.3307449255239667,-0.38900498907938297,0.08020940669226521,-0.582274372096933,0.8549440325070279,-0.776000213123957,0.6408871618406715,0.4125984487093227,-0.6523038443450075,0.6742459411675727,-0.2766967816170407,-0.2550146848320236,-0.38053191613361914,-0.6718498992963924,0.13251345853620577,0.39574798373037057,0.41939590520831294,0.6933766261248326,0.9026346702556349,0.5794343191040674,-0.21202671174811927,-0.14568910931478032,-0.5274980174103586,-0.3583735090312447,-0.5233226374338921,-1.0148777065045824,0.36056204658997026,-0.05181067625273212,-0.37363038074987576,0.4192708351479176,-0.47040864179731035,0.32849735717785017,-0.41819836710695735,-0.9715535287299395,-0.884759611290978,-0.6255563759537012,0.8210137069891664,0.9089218322489158,0.8902145300878623,-0.347205436183343,-0.8853564412156794,-0.1873270410629133,0.45265194545695486,0.5845390447958878,-0.08645098064159852,-0.05119250287073179,-0.11694531632415134,0.3852097501237465,1.0050263094401153,-0.45729137772848055,-0.23506821530027913,0.04925726268061418,1.0207905374729815,1.1458634507093728,1.428272157441105,1.2660049482976194,-0.29841891498538253,0.9942967096808742,-2.2733850041225567,0.23471857204765795,1.113049688762181,0.1673860885704732,1.1286951880194522,-0.9161984770956824,-0.1767475214304773,-0.008738059206404986,-0.7190408861188273,0.8649157049117117,0.2490460499408469,0.4862155825599017,0.8974014923442089,0.3341105122007194,0.8503649665769515,-0.27307708330334035,-0.22828184929227768,-1.0506355751647138,0.9120839792219518,-1.8534626969766286,-0.6439674733994443,-2.112855181967662,0.16291433621862533,1.1603977010799897,0.921886449137038,0.6099242851631036,0.5625964628416092,-1.3176843111914263,-2.977134309891323,0.20412692223930962,0.5261885081265324,-1.1211061061501273,1.1034572106322111,-0.7706054124323118,-1.1852370988987937,-0.8363488751981162,-0.6533332673206765,-0.7150096274459213,-0.351771004477737,-0.07362024624714314,-0.4376762089537287,0.5203596376454536,-0.046506810951095476,0.38352373368890136,-0.8795076584299538,0.20710104165204718,1.2258092742498277,1.103748198084501,1.1001808052181472,1.1823144906344603,1.6602294813574614,0.9070075482715577,2.0994564706178,2.484146951954746,1.4193522199316881,1.9738636393512283,1.8819898180464278,0.4131525127047146,1.1094132023653887,0.9901793688956857,0.7899964597788928,-0.19915942819630794,-0.49829623060269235,-1.3026476021543365,-1.285164362080558,-0.5870981600139489,0.11244925833159097,-0.9440717039885084,-0.8307535308487802,0.14851760232915273,-0.6601133774641781,-1.2712763105552076,-0.005061141083535215,-0.5281370721318759,2.388776434090416,2.1208969015709287,0.6487339506704258,0.5908290964192091,0.09991438090871607,1.6673347164793886,-0.20758107209853682,1.765048575398647,2.555855733389515,1.7276603482077593,0.4062508225282,0.13852849670697745,2.1020691964056986,0.01866574028841744,1.2641163454698483,-0.17268591913526685,-1.2308105219215335,-0.6525623468070736,0.037628934701337546,0.32235950444252703,-0.5080665400866827,0.5041619058817802,-0.4318839376968403,0.7778033988048438,-0.5608305279026002,-0.3821694612067752,-2.0482500499394405,-0.9722112693695056,0.5545890039859064,0.8306010972879871,0.15873817170868498,-0.6530534281345033,1.1961315626150906,3.127474452923447,0.7486908113805412,1.3025120735288482,1.7057769102029905,3.1126027725375964,0.5379159158764434,3.0356925399177155,1.2828426667026678,0.2965464813408419,-1.1205425124515562,-0.5999526558733453,0.14093554910722203,0.4439701059362078,-0.850415370988436,-0.9177527774795534,0.16252124045631383,-0.025631891879608855,0.3388173385153919,0.4333789768077822,1.020111063262048,-0.45709086360919254,-2.0569830617435914,0.9120697058695112,0.6695944392984445,-0.5316979664843914,0.6296102297345206,-0.44814362609614444,1.005814339814907,0.9536850624827015,0.8933206071547104,1.2574728479922312,1.573050563697914,2.566150753398484,1.4385117825965987,1.4338911678823567,0.2244361985450753,1.3726555329790693,-0.731302251203304,0.5674057394364581,1.160019224834354,0.7055597234306116,-0.6684337656885744,0.8141334355533495,0.7359656744939449,0.415312111117065,0.8098302352862623,0.9816601737834706,0.4427364910864907,0.041186958407958274,0.9655558287297412,0.5391450223500284,-2.1017540146483045,1.189316441969335,0.9812624856533669,0.3647930734474498,0.758922999465743,1.4173352210633756,0.41428949970485585,2.518415927492927,-0.9264873743224962,0.23112972963230163,-0.27915848492133233,-0.3185011907135096,2.2174552502552882,0.5502336944273969,0.9795067048159979,-0.2644426498439706,1.9321899770761013,1.5899856886088972,0.9925502245068526,0.11326117031272893,-0.3749766766906742,-0.07991071189854937,0.7490453232536453,0.10480801402819526,0.6136735670450544,2.3994266388928893,1.5929963190212377,1.2769874465060511,1.259966388548586,-0.5114688789963493,0.7987041592521339,2.0659868352038475,0.45815175929659424,0.4592250672273214,2.062657012909256,2.9907522762646126,0.5488517137195403,1.490283584462932,1.7894059475742041,3.183693544953552,2.1556280654326363,2.598061092792302,0.9373631562237482,0.6084133364747357,2.723427582884725,1.748141031090398,2.0814754491146426,-0.47752405147361626,0.566592326470384,0.6771005557812466,-0.22351302958765853,0.5796807273710431,0.38888896769319636,0.4536752029930367,1.035840836477691,0.7298720675857101,0.21040011972180514,-1.1683492914759976,-1.9910185484254295,-1.4043379712802242,-1.0964948951629656,-2.7163624601653154,-0.2753303638905905,0.6596882190132912,0.985948294010486,0.9672571006612857,0.8353985795216108,0.16873533512388533,0.40220317986023474,-0.06720785714676432,1.2619821130002864,0.9395138071892996,1.7085777782013423,-0.21176454930870628,-0.23837683495316792,-0.0855277624397586,-0.3906947544361788,0.9568697351552284,-0.4257399796779715,-0.7036974026513265,0.9999493952924507,0.6218226240358431,0.6168879936715818,1.2609183195321656,-0.6656186167007228,-0.9390693520447813,-2.040783405219079,-2.864047046408884,-2.4759738218204737,-2.5199348411740177,-1.1967292128751108,-0.501809024594709,0.2028025418669551,-0.33181982927521614,-1.750406695624336,-0.2655434093505051,0.8020253886283311,-1.2975252924536194,0.41182780364427396,0.5588332135662799,0.6578181682245631,-0.6878901549208597,-0.45241686011157695,1.2384675172391568,0.4680702970130275,0.35399259593856147,-0.9337367495247842,-0.36000338301851165,-0.08227909325974285,-0.07546400493573736,0.20094931118102127,-0.7038256712653637,-1.957165369982294,0.7254755782456228,-0.6809475296960319,-2.3344546120008083,-1.542301688735322,-2.116736388547019,-1.2184730750970516,-1.0147042738787424,0.3309130802903836,0.4464498817247301,0.7905191553832055,0.3897072872391841,-0.7627379855248968,-0.6061352365219542,-0.2329227251124645,0.5924109376806017,0.6173934246788908,0.4379077239494627,0.012740898717783262,-0.8655335628200125,0.9830183053882608,-0.6377947883754715,0.2887961151365992,-0.5224553414535865,0.6199341205059336,1.126489392078743,0.03491548291513592,-0.34017342679520685,-1.3202692789940014,-2.541834345130885,-0.7616644062014952,-1.4623080878536168,-1.5191349551916904,-1.772431734771887,-0.17593406598511924,-1.0355429924606305,0.14291995272101563,-0.8059261790996424,-0.7786587950575963,0.4090245956201669,-0.6923294131955653,-1.4178501955914973,-2.3036381202491194,-1.56941983218927,-1.0095345079554034,0.2602433698875409,0.31487818730866235,-0.8907646227599988,-0.361429696938617,0.612098347922923,0.5320677716564397,1.0230877136936845,-0.6518721950164958,-0.7567913282580343,-1.6855700018470432,0.07503886707538421,-0.33402433178792174,-1.5192302085090281,-0.8622836919535238,0.1847876157957178,-2.2840106392913384,-2.0401698861564377,-1.017204814010764,-2.7951522470552552,0.2614021492017282,0.33036063369367,-0.8189958391922649,-0.508081670223807,-0.3194817397049172,-1.3624257752755062,-1.2288986181733599,-1.525525481505316,-0.8639398733102281,-0.6303746908352578,-0.24452266700944555,-0.3847675548265394,0.5927788854613604,0.481194792784037,-0.11156839260791146,-0.33113790968097717,-0.023634819523229943,0.48066010058973224,-0.9837135416590362,-0.07864584112210714,-0.8970567212191805,-1.3218759636803161,-0.5426869437790909,-0.9539752162805488,-0.3712252529165721,-1.2449964145888506,0.5396204974724434,-1.4083496797315995,-0.7522964863080552,-2.614367923072464,-0.6163243317319952,-1.5198840502970994,0.3453713553909296,-2.0429694384223147,-1.2143025689607367,-0.8460091673003467,-1.2325633096719428,-2.0302218250723825,0.17089688653823099,-0.5746125115200287,0.053297100409090144,0.6452656977171842,0.6280450308743721,-0.3294004400960253,-0.39880783591805613,-1.116859833625697,-0.174348927550388,-0.9358788464706669,0.6623152754223207,-0.3641503626957872,-1.3889346968019265,0.9342155480312255,-0.0017684137186636277,-0.6795160934564523,-1.048196997675949,-1.9554262985846056,-1.4692169578492122,-1.2952329080632201,-1.5158995493861114,0.7802432220383116,1.1537678981123882,-2.43530930601261,-0.8668588461856822,0.24684919163641722,-0.616306454086392,-1.7756306311153318,-0.05470723682306996,0.4291309487934817,0.5745035426571382,0.2987050012645045,0.3792569782941708,1.0562965949196268,-0.195361753004652,-1.354776003774498,-0.48003347095975496,-0.08942531203884724,0.05551410709741264,-1.3885431127032877,-1.3511850260175096,-1.6398179757154154,-1.9483589260224912,0.16052695484702315,-0.5891211932234043,-0.2373569380593872,-2.1726452081634653,-0.8951911215741009,0.9410812898438865,0.1563843675974822,0.6770852621971393,-0.2612674449398666,-1.3576931028507389,-1.9258733599696358,-0.508163352156159,-0.6392198640211816,-0.07611640660408521,0.5962478857392568,0.198296761210832,0.6032431120833541,0.06619370888976962,-0.476315189946009,0.7731619205014544,-1.50632821612053,-1.182277658699198,1.749580199596,0.9508043275161486,-0.7841685614196642,-1.8542340438437854,-0.201563622027116,-0.2383252930419219,-0.0664295935004097,-0.6781833373898521,-1.7192725718518715,-1.397608245168851,0.6797707403038818,-0.3977147381327197,-1.2648420569089611,-0.06436315773548677,-0.44420284855142167,0.09580934571633828,-1.154913092988783,-0.9714399454265479,-0.2729176188168177,0.4555777278560694,0.8926299284697676,0.7137173750249289,-0.9973776014215754,-0.7672834434840755,-0.45263228498347113,0.3765222366032184,-0.8915985420702663,-0.1839187853467125,1.6884631329879622,1.5489594568570597,2.521585257771799,1.7397587191741255,0.9790487223409311,-1.2231985878979845,-1.3394639459009325,0.18699673048673304,0.6611121980725878,1.054415623469928,0.6423384207052005,0.3084257316770147,-1.3318280756786667,-0.3122804495408448,-1.0130067045446314,1.4618018593453501,-0.6539629758333478,1.440367330869163,1.1534512646057389,-1.006253278583673,-0.8867029159319945,-0.7367219730414747,-0.03116301530340637,0.9385437041135716,0.5441670523307083,-0.5789491818476716,0.17399286802157826,-0.9355461708682369,2.347486065000555,0.6175685767722424,1.9584599777759735,1.845351644414992,1.141306901652694,1.0504768531436646,0.9626966591831077,1.5562952191667412,2.244169230452319,1.6747328855680501,-0.1336940124834321,1.599207667409009,-0.82685059211577,0.5234011888374831,0.28006583148458664,1.0073177343136053,0.1170772803459017,1.439970862636408,-0.6662920420980255,0.2520021752748484,0.7730034657704506,0.6333961913514812,-0.6819091689138119,0.2449484837751683,-0.5289402830101724,0.6663566314756233,-0.6736998329584756,0.6236885029138152,1.293669582494227,0.9391204350971417,0.054771521012779455,0.6676193149880579,0.3568534109702359,1.6242304550294786,2.765005899218442,0.9597306799069553,1.9116303527320375,1.411989060543036,1.213084585923818,1.3151400724101283,1.4048716321634716,0.9557072253800646,0.6796524527819654,1.4838847172799168,1.1587423063027409,1.3763370366620442,-0.7862855924200933,0.3876034112069652,0.42188392185634827,-0.4187234058890148,-0.4428550429777589,0.012816312564481791,-0.8644623346927776,-0.1508355519117065,-0.11433018730072939,-0.9621939220323713,0.270042377628081,1.0603247015305777,1.2747363443053952,-0.36591505430121835,0.910651042190048,2.3886122935725345,0.026091745864543856,0.6955894788896767,-0.6305396525650735,-1.6343932535002832,-1.0264843953644682,-1.760079634913545,-0.3401556429428791,0.4015251930847696,-0.7215499049585469,1.2423846961482694,-0.2846396504779876,0.2284113145489129,-0.8311624721477153,-0.7088255011696296,-0.6338271824314843,-0.022156588675019684,-0.6614172105773308,-0.4266575875985401,0.31300701745368853,0.8362675537861054,0.5008052101369633,0.678478097994374,-0.13613274805221706,0.7323697871673126,1.351422601750551,1.8110838812787193,1.421512864019694,0.9615525480265441,2.4747535798230165,-0.27217222551422693,-0.27819661899762066,-0.6549108806553446,-0.20490320949457416,0.3786890035114319,0.49728419608425156,0.41478791600591486,-0.4368446265880176,0.5290972097406152,-0.6202724063874907,-0.32386704456923165,-0.5396753843278345,-0.10723961057155762,-0.5559513619126331,0.6172328065380395,0.2949273437615174,-0.8987660901839445,-0.7170251097175964,-0.8078754585852049,-0.5593288035225593,-0.384389313409464,-0.1746117629866141,0.15611532827137217,0.43034106778902614,0.12988302355399803,0.7719290100819777,0.38510057524172825,-0.17918179294089995,0.7044158446266021,2.0841251544510757,1.1104554739621932,0.40749522429571733,1.4529899091444733,1.7421667514422698,1.1735663291283773,0.9612546610044023,0.8940497553076631,0.6658077538227845,-0.20792194719169893,-0.9855236705899952,-0.550593987429354,-0.7805630852360483,0.5723707741296549,-0.6703866850068674,-0.47912666919092484,-0.16911418728585614,-0.524373248363291,0.885620440025702,-0.9590688629067254,-0.8806379241993517,-0.42408047694167456,0.9170643500934776,-0.20236302508962228,-0.9429718235202619,0.42501731479790295,0.5734892029503303,0.5527052490800829,0.5373696833817496,-0.5073878892403653,0.5189655034702777,0.24873438285486288,-0.6199301050696541,-0.7174411134219257,0.48880978003206554,-0.4149245561290718,-0.4826343331810152,0.29469665086823627,0.34050004908848086,0.4331610980629117,-0.6191714112515245,0.12667221451871535],"bias":-1.1267591032081725,"activity":0.9999993044236128,"zValue":14.178524305500172},{"weights":[-0.11184214318443564,-0.8546811223134259,0.26094984683767697,-0.40554231709203314,-0.6306425373145261,-0.8763649028164675,-0.3950279477607661,-0.8669145529114912,0.7193786849924382,0.41091225326943404,-0.7450334195170072,-0.5081107812224883,-0.18059058159240182,-0.6051178178732615,0.4723670368230044,-0.5734559490371516,-0.20894700837931612,0.6321822683064804,-0.6896968690796363,-0.7752516843952204,-0.552430328516833,0.04641035157213613,0.7050607813909586,-0.7716770811218283,-0.2988851291833732,-0.8471690225395614,0.5699331939548777,0.6400268321995943,-0.1994018162826472,-0.9261506719744821,-0.07303087474921188,0.5399095087701422,0.25725748522982705,0.17859488032185844,0.3458331197270925,0.7172616955061142,0.5381620857338186,0.8372107779600162,-0.2730146818920268,-0.8293422555427915,-0.21284988009048708,-0.35534780406467664,0.783116020647991,-0.9023751137063194,-0.732841365638358,-0.08230862710143906,0.9891238201796323,0.6603226494820923,0.44421621458517946,0.7369323152386386,-0.4305351624721318,0.15859354681404833,-0.25444368847670473,-0.3748449136149925,-0.060388932782474924,0.20059262254353571,-0.9899270792824226,-0.8218423551516816,0.9399351797032622,-0.7047913657097764,0.29086902341179427,0.1550029088716889,0.1448229224625226,0.2251323760854829,-0.9058167768830746,0.3897842581239262,0.9661718798257055,0.8538741904745879,-0.11954379038474433,-0.6172360898868015,-0.1533147902863338,-0.8011206488202428,-0.22183065725736084,-0.01533130557552412,-0.7168151454593366,-0.28858714938581453,-0.3198968856256457,-0.10477575813646334,0.46628412833022664,0.26177788481691555,0.7525729093937967,0.6409801741268364,0.24826972338995557,0.6729600906386124,0.981203244932273,-0.2737994704238713,0.449964487618713,-0.37926172053435847,0.4626166009592865,-0.4399188200230587,0.7175294328824198,0.41525591628402775,-0.605620594298212,0.5943057477825475,-0.5472755975331314,0.7822282936512853,-0.7509859043920305,0.1456676570648758,0.03699065772858142,0.43365857624123394,0.5529247688114715,0.963152869086289,0.3695888286182386,0.09557361549064175,0.8255955746658532,-0.12454182491911665,0.17284527627646615,0.6755749421048524,0.19779558485823404,0.739778093309071,0.7391046767725928,-0.729836195827152,-0.4394569489851934,0.4052062794221989,-0.08033110460241,0.02479563880645016,0.9381093170476104,-0.16344502660689797,-0.21609647088028044,0.7209036615149266,0.3081395454125446,0.4316710571555362,1.4101512842708166,-0.2609564245019776,-0.16224367953204735,0.08065703107657718,1.0825532015339865,-0.527444145464222,0.6963781363612703,-2.135033669200881,-1.5236723750930983,-0.30720302325603427,-0.983128049819388,0.5370240493955376,-0.28855722914798637,1.1284133980398554,-0.2040832877603051,0.4832593980803347,-0.7926007217219165,0.3192969420938212,0.9536047378495685,-0.5432417291184857,-0.21697257257935892,0.9621973203392048,-0.2347847338590777,0.5381895329192393,-1.2014591942110633,0.5459552982637286,0.04970693207724418,0.4300894472226191,-2.416112363974418,0.11583463083942445,1.0786423277671158,-0.8814499299790156,0.956954782346652,-0.3925048182433603,1.059965232417287,1.3786454012043237,-2.197918298117724,-2.0198987843017955,-1.0313608693496907,0.37090476330314803,-0.3437839016115413,0.21352699315150828,0.38532996498497923,-0.4796202635090051,-0.11106570691332097,-0.6258933418372324,-0.9138514748701896,0.4298904211528307,0.022570701522572973,0.5262633947329282,-0.14190339788290515,-0.8927499450440151,-0.21242286543454036,0.5603522204069787,-0.6757890389886093,0.018473847319027962,-1.7076967620802064,-0.29343435179991545,-0.5658362548430312,-0.011387757835315902,-0.7585600228424618,-1.5760646991567222,-1.7212408215120338,0.4535051736193447,-0.5706247591198956,-2.3061303627377123,-0.9332206320367354,-0.2549178566170287,0.4934700179797533,-0.15444887867776025,-2.28477287193283,-1.399939641607889,-1.1325961652785799,-0.43937305591216647,0.010029535184339276,0.293761394752063,0.5130149909573516,0.23425858991016482,-0.6778748110414533,-0.5123875301125894,-0.8556385384704116,-0.009398222974003062,-0.5281544653565168,-1.610846942763135,-0.6958774130417635,1.2908025533365302,-1.8876875500051773,-2.795502277802089,-1.2472187843479619,-1.018802203328284,-0.7791687853579647,-0.7037740421914646,-0.18391766759290132,-2.4466683495482924,-2.9450611065899834,-1.3298094847214519,-1.4449033856432039,-0.56936417175873,-1.8732085102184746,-2.0337378383444613,-0.7905380415535238,0.6610411599721773,0.13186777663839172,0.39954822250740873,-0.35534047697737015,0.29484425842471085,-0.9915378794915327,-0.542290642294762,-0.11781840104623956,0.32012860377835944,1.1438717506593958,-0.20883625422434737,2.015932422449626,-0.40764280306475653,-1.7458605607749964,-1.032201055508567,-1.859943942780593,-1.2903560366201121,-2.0309858479419836,-0.9643003092393223,0.1307075652994188,0.9076909217824067,0.794661425333386,-1.4513608758797034,-0.15675566160060078,-1.6091655443565847,0.07006031973653243,-0.9362072752721503,0.454424595017101,0.09376220417900281,-0.02170655794196749,-0.5635800217431218,0.6757872304119551,-0.6990975417473645,-0.7591469614584764,0.24466028164120093,-0.09809933072415787,1.0990680529431684,0.5966914923426917,2.294062640667741,0.9821047771002542,1.3046710252726572,-1.5153168275484545,-0.7353825025814913,0.46634113451293363,-2.736484827470263,-1.4234678882122105,-0.2289058623778538,0.8457334210353465,0.4425143881408011,-0.45717903748847943,1.3374841127437271,1.0211474175566375,-0.020877464031601702,-0.7720146925978015,-0.2877921556888385,0.24460502992839347,-0.000272985543842123,0.2600443749872454,-0.3860962014265781,0.5482429282963491,0.2245817000766217,0.8005191961897977,0.44149298326999964,0.8358358068483775,-0.26797006111550076,-0.1867803464516458,0.19070049681137136,0.48444562856119444,-0.8495474766072523,0.32989391460021156,0.6880645889937206,2.045490587320003,1.0810850523704625,-1.2894078051991216,0.5267896946030131,0.1919740151103358,1.7673807476664798,1.8877577871274673,1.709123261745881,1.0615356951004922,1.0321071440193077,0.8661754636814518,0.16679708294469658,0.06374666425093245,0.2800055902156418,-0.21352352008502873,0.908404138960521,-0.5429926932937057,-0.45758407786830263,0.6773434557077269,0.18335273592915413,-0.7035410181933084,0.25735561447139843,0.37584760934368977,-0.9188383273995193,1.161067811527158,0.4309058572347283,0.7417268407733659,2.600277303648711,0.6644529335911938,2.4836934874884236,0.9808997268500342,0.2113990843356198,-0.5591878710657259,0.39183034187880583,1.9302225325214692,2.5756457255336924,2.2630385150362997,0.23985662882739325,-0.6233045743841215,0.13859209782830412,0.9760419953610621,0.43137367490131584,0.8327136461739917,0.9843301620173813,-0.058059113629761586,-0.05721302864231476,1.0601879191960237,0.08158973381913613,-0.6831178836656112,-0.06508395736804225,0.28353890405490345,-0.36894712346944536,0.9430452914852422,-0.8956300109357833,-1.8353600650792887,-0.6889042911700807,-0.6105230849073318,0.13127639410153988,1.6856513711966834,-0.3886410306059604,-0.18473974016839143,-0.43560968324232385,0.8669308442464392,1.4929241887963185,-0.311216720607951,0.5434097285542322,0.216388505704103,-0.3224352372247048,-0.1399013671333468,0.10020720833182538,-0.8885554841444203,0.8022016955953128,0.9138501987918901,-0.33167195562098983,0.7291517818105382,-0.77209223491443,1.1413338695978086,-0.10374364683196417,0.8270021269029064,0.12582965345122146,-0.8458749338290367,-1.4645609431238913,1.9922029961386307,0.8236430896813436,-0.4018722413427157,2.0004995803133085,2.823758144882227,0.16351797547996866,0.19669192421929557,-0.7011049599572633,1.1160491026316417,1.318991418086036,-0.44964516572164054,-0.949800526148823,0.21369137075037611,1.128366604779463,-0.1571103879265144,-0.14604926012088004,-0.3516706077653997,0.5035967370054987,0.9502062001166653,0.17504540883783878,-0.46476275463348893,0.6442097680051404,1.3307200159176016,0.3548099760421138,-0.5758911550250457,0.1486868687602169,-0.09626830813329232,-0.38786783018230464,0.5125373324358578,0.8801929544243702,2.0406283737572117,0.5688376877162449,1.9084459829019744,-0.023086954231068955,-0.5575357354290802,-0.46945865079849924,-1.2441077570265655,-0.037690324422151485,-0.049984619805200414,-0.518281973785273,0.30969800135792364,-0.4165898552271454,-0.5089653435527702,-0.8880844213405745,-0.9877408002119652,0.6579840777980878,0.09809320362947258,1.0511373322548085,-0.3170696096348346,-0.714377465005715,0.02547799967792315,-0.3186152477761873,-1.0006187807591826,1.429198635297927,-0.21175463266503722,0.814119406125413,-0.009420403374772018,1.417936828840919,2.922445697281516,2.9809539524163817,-0.3817720786971202,0.0009618962523068439,-1.348092185521967,-0.5328912458903082,-1.2773547579215958,-2.61439459767916,-1.4947384931804786,-1.2132395517001364,-0.044395836455916396,0.46283617333647914,0.8876935624491895,0.9072617254557958,-0.23884806406009407,0.7648955587844954,-0.8060050998252452,0.7875938165433664,0.26262827992892535,-0.9227922388795863,0.5100568703007955,0.3245520422288359,0.42068447149893423,1.9403366752000815,0.2932560378059476,0.12534225894711698,-1.9639699178075571,-1.1581037861347607,3.718288285043555,1.37169584248207,0.34953285644873455,1.3482079825197713,-1.7223692864317557,-0.6111438568657052,-1.208860530328263,-1.4841127632690285,-1.8732119682252906,-0.8567484221605547,-1.4953579294155817,-0.5964692576854704,0.6584955115800406,0.8040293729725319,0.760338817601347,0.7942084103839984,0.3769645044013869,-1.2905590469560366,0.3352290171744656,-0.6251813222254885,-0.44158827328561384,2.2919963580834724,0.8724130963548924,3.124250762327172,4.161676286171674,1.7601456749416093,2.877137730603413,3.2234706086564753,2.963039667489448,-0.859870348169067,-1.516093341112583,0.7989281360234753,-1.2614841569381847,-0.8886213084735598,-0.7359826587255544,-1.4534355480992613,-1.4662400232506336,-0.36856352106073337,0.0523399180818152,0.26053893861036465,0.8184499462360615,0.8095135969600668,-0.4562037496534792,0.3995879128866765,-0.5206924677836425,0.14571233182716561,-1.6340460195903732,-1.3565171449974618,-0.12495633018387918,-0.15037698119769183,1.2554889951625483,1.1690468216724117,1.2415402651399634,2.7121358104805284,4.071523152185304,4.195275950475819,1.487810333195914,-0.9837124081890468,-2.010504587180265,-0.3010966352969612,-1.8038416235480048,-1.6553345953256429,-1.1086179588358527,-0.5457858060383154,0.20753048935082571,0.959349872928036,-0.15163154069573145,-0.5843175794199976,0.2721720240595361,0.6981228718179558,-0.9083966666872629,-0.7889249590886056,0.848275163124985,0.4544262418234179,-0.4719735011536905,-1.2981413451374393,-0.8912246839415155,-0.33375695476464096,0.22879817689711063,0.3347794733118009,-0.3700703256442147,2.375836310622391,1.0636299729884084,-0.6007256930852787,-0.18230386854225172,-0.24539008864303227,0.22491298421070036,-1.368851863210547,-1.0843082001694293,0.7061823626158674,-0.9945258635579852,-0.33750506843191425,0.8619719461839132,0.6724650408283195,-1.2200789387031483,0.6678275350526651,0.7467155086720246,0.08085785413188946,0.6503036224729182,0.9512639046445347,-0.4347581282871415,-0.7098973326256045,-1.5953081826072655,-1.6730785773204158,-1.1490275032330204,0.11952970129340693,-0.5379022435193922,0.07871673818425799,0.4158122400085593,0.9620775651791126,-1.8052261264831158,0.3533285527193398,-1.3792041867729588,-1.3492015511351263,-0.26014488538875885,-0.6436553341391654,0.5862511409359489,0.5126120223983243,1.0826073015674402,0.9356827402139436,-1.110969863942727,-0.20259854381564543,-0.49444204243300366,0.7352758472052743,1.0084070790441115,0.3394988832674523,-0.6804131689837569,0.8074462794329615,0.18542541542494434,-0.24745888366019844,-0.5797721613830321,-2.6956937896168114,-0.6236269979239677,1.6205214871176905,1.3635555264201125,1.8125346327011016,-0.9256736030611973,-1.3098310329386778,-0.911761403148799,0.5144995272896739,0.25314030470987614,0.6388028056572748,-0.42642075011208563,1.037289281362993,1.387764800408378,-0.19772879111887012,-0.15750985388537603,-0.6751334203992697,0.48295959104025415,-0.8369219021287837,-0.3402716420939622,0.5711012261181823,-0.9338469509191983,0.2592250346905618,0.06774444597288554,-0.9997616222190655,0.3625893409155323,0.48528019726516114,-1.110428537661007,-1.8672629644933993,-0.9488031723155335,1.0178278077814198,0.7484158788929409,-0.8542284075868611,-0.15432105291951778,-0.01013213573746135,1.40767980331614,-0.38835539866922775,0.13610869370284617,-1.118271835584485,-0.9578196854389642,-0.796994850983223,0.34134423302211475,-1.5230798586413778,-1.1488231801064666,0.2500652635144366,1.1686516796755084,-0.11162755003242884,0.060028232434765016,0.46893677959034713,0.0140869192045115,0.7113413707595111,-0.7465106696532375,0.20279537368411615,0.9157305050235014,-0.9447601404103605,-1.290097829055013,0.05571761986866816,-0.6095400847226896,-1.2930938564729844,0.546774199048408,-0.3887681351997405,-0.5658107842269506,-0.29224706845911286,0.9299479841403089,0.8297175002336393,-0.5921998170485124,-2.4775991706797647,-0.8962352762757643,-1.2019346430042097,0.30055590695123696,1.178340350136189,-0.3506626710869107,0.08639650295746981,1.1238129408726782,0.5047918959047157,0.1045369387158273,-0.368777073398362,0.8961715932967602,0.035061209570766305,-0.12207290652391878,0.9999423139999872,0.03984047652414491,0.530590059947087,-0.5874006656663561,-0.5578911458526112,-1.024438528442578,-1.66722324248787,-1.5937703817058975,-2.97014484476248,-0.1779344892620516,0.3065824383110646,0.30099443183825564,-0.24980412681566957,0.3437152675577288,2.2559903993092485,2.2106443973324406,-0.21599481747102475,0.900160684158629,0.8331116708266649,1.5630533675085536,-0.0801002621893166,0.547749468990454,-0.3846744697088529,-0.8947490112776746,-0.6002753074802782,0.8194553280460175,-0.5963021475225583,-0.47281479236193436,-0.3097196323269378,-0.3850288735804326,-0.10660549310053563,0.07573829354286993,0.43071087463595564,-0.5492682540573567,-1.4109741947130245,-2.9103968373014464,-2.481918474367656,-0.8172081610780677,-0.9910085253746955,-1.2525942894799833,-1.5603923676811942,0.6294418157114647,0.8316941000187861,0.5401652431738552,-0.31036838936704925,0.38953374787282136,0.6016467677132026,-0.06279248721516204,-0.8800444776848616,-0.9593106702715952,-0.5148257427454938,0.7790948962072423,0.046932672439321976,0.10901930230577817,0.9239487993645437,0.10236599847020278,0.9459063094471056,-0.1265158639458952,-0.20776829286515416,-0.5411934607420682,0.811783258462198,-0.8321040271354245,0.3079057320124127,-0.8725530167037849,-0.7090732645624962,0.6088554913213704,-0.5223858949546544,0.5081623193965887,0.7189723214094145,-1.1732938500911492,-0.29173397272594614,0.012762958279530164,-1.3412450469542607,-0.4156786868892147,-0.6014765660387744,0.28948210636962207,-0.23470348384390458,0.5288393376697815,0.19927256416646988,-0.5366290420726143,0.404762526354824,0.355016037246227,0.9298379306097462,-0.8884834692053474,0.564303711037804,-0.22131969534830365,0.3439209884178398,-0.3318812721784843,-0.1273746493093326,0.2737799491335509,0.2950013456123755,-0.4933274052476657,-0.3859620721993863,0.7704331567836085,0.9575536436772197,-0.0989893952563996,1.1211274608727892,-0.3459242694915756,0.7182790621868281,-0.1577649703418928,0.5215336530170457,-0.1620362136679668,-0.9045451814995109,0.2550958422852696,-0.43456242034353404,-0.33602270538888235,-0.2840923475495605,0.4500681842560783,-0.22984696182510067,0.9584638734913278,0.19517088235152835],"bias":-3.8223971993482255,"activity":0.9998656196088486,"zValue":8.914701650268997},{"weights":[-0.8737323617516704,0.060147752744342586,-0.008609297238225455,-0.7942707236058908,-0.6129501942738154,0.9055182420301948,-0.1060518714403278,-0.8656953431893646,-0.6329518435119925,-0.8947332016332759,-0.4577280006994533,-0.6566166932993189,-0.06771336804632311,-0.5837247034302675,0.0504917715364992,0.595106012627538,0.2387387385876214,0.8678031334199003,-0.5074761061269357,0.32370260934196704,0.5144487223854646,-0.5371718781553634,0.260478217160923,-0.15658958933185918,-0.5408287781641508,0.23740975623038052,0.4679387457801929,0.4178121930157497,0.3683213745352685,-0.983773691017416,0.06503696063144826,-0.32764647613010167,-0.5672929844243315,0.6442828317870366,-0.46731216437206946,-0.8223715109153761,-1.142290378855226,-0.050289163071829256,0.5446317499800256,0.9476084465513173,-0.09975613859722213,0.07205200952572688,0.8433483570757199,0.20980609286448265,1.5220079514735914,0.7624346738521475,-0.5418703579336562,-0.7736719408142931,-0.8203544209502381,0.6128284150681093,-0.15584075238015968,0.8939785091344494,-0.46253647806203224,0.24717442615966867,-0.12542839313667908,-0.5928238279504683,0.4897043761786972,0.047364244727551075,-0.4634851257935728,0.5587954588704096,0.4211685375896955,0.35938629170638375,-0.5605146108546446,0.5159721876419606,-1.0464227282668668,-0.951624188531881,-0.4126293578658601,-0.5508596563267524,0.45818416797691724,1.455010466167914,-0.5231798527406369,-0.8987997125357424,0.7583164297084384,0.46337712117020635,-0.5588515836419158,0.278251100732864,0.238739985983867,0.09861973840502478,-0.41213363318477686,0.5652022762675694,-0.7221798333880725,-0.029328078380500333,0.7749634841821993,-0.6161575705446474,-0.388241291491751,-0.26512841176686575,-0.03287826380436698,-0.197439978622854,-0.03833705781715225,0.9631851117685906,-0.8614766554960636,-0.2967359381899122,-0.24144108424157185,-0.890662961721625,0.6204653880126314,1.4389365337940019,1.7795293374105605,1.28276771857097,-0.5962471456386209,-1.4058871237342379,-2.07632824371575,-1.2646174482525208,-2.9536970479699116,-2.0784157709013806,-1.60997396282548,-1.5989878835378286,-0.9487406784988142,-0.5792677012130691,0.210594149769189,0.6930671981022423,0.5021757193810208,-0.651369043861945,0.3336868055081035,0.9736663135378283,-0.43768216107765046,-0.3365032965034619,0.09493236269223612,0.8353373095635125,0.5883979451035886,-0.24271305806285315,0.33747227825109644,0.25327897237827685,-0.0652800372635939,-0.24883580816909448,0.7638881685551376,1.697555666032267,1.1987521958265543,-0.558928108246219,-0.2399541742668128,1.1760730546612903,-0.03955529063433781,-1.2344999983171332,0.38011042993427063,-0.4158118071993267,-0.6305558817094383,-0.429805884401503,0.9685235205194237,0.13690001681391886,0.8505805574699719,-0.6235830286765411,-0.34100721957789615,0.9199810454323041,0.8965804233420007,-0.34891892484371245,0.12900033386231205,1.0896708849741927,1.368807619776549,0.24541575507579355,1.5500583458752173,0.08232360871462023,1.6825823106211673,0.4376132600054633,0.3128083006029074,0.27710804298586905,1.4117261859548544,-0.07851670084857824,1.1155699977288895,0.8108600384086386,0.7720614467441466,-1.4945920505678891,-1.6728952305883638,0.978302048290728,-1.9133013413328235,-0.6566733939549153,0.11577187894122035,0.37531665180886337,-0.2656392099481338,-0.41201974416713866,-0.3051287852697744,0.7312583474994883,1.065358940854229,-0.6055168001532847,0.3595591339053276,-0.05561874926568923,-0.00014570796027330395,-0.2515519341431505,0.41286565247847723,0.35562319857411273,0.8950711181675483,0.34815440436790696,-0.4746266860982884,0.8028862814713886,1.4606602901529815,-0.03475559929713958,1.8383303450654862,-0.05475572477953921,-0.12055679349047758,1.3053638024133083,1.317768906134056,-0.3753645843226418,0.17679479121951625,0.8669161449641106,0.6215539469063848,-0.4881637195947396,-0.3125246870551963,1.0172708427280936,-0.6760454527650807,0.4230904741066616,0.0996977736233945,0.12383369279523149,-0.4668296992153326,-0.9828464426036867,1.054876644695637,0.1921461260936128,-0.33361256450917276,0.7868978173214111,1.2492347609653813,0.43644970588481435,-0.3007630917286945,-0.11310189361115307,-1.0844051490841944,-0.14710947956401077,-0.3920524215759992,-0.1827293773031834,0.43425213280411495,0.1831351149017001,0.01911196477536487,1.112972256725949,1.4889908929121256,2.060159338013562,0.36433827659507995,-0.030820266024012267,0.6323280185599791,0.6672620972811526,-0.5720215734973778,0.7165468284549432,0.39857121878205637,0.32246588158774403,0.36116282624648627,1.2191667694812212,2.3547460951881867,0.7359300275310332,0.6499090257987862,-0.623081030074354,0.43390649463852643,0.36091360992143506,0.8419802486868584,0.16455281202499475,-1.1584248913502542,-0.0013566066363414463,-1.3522504510522462,1.0013430230599094,1.0187659269474583,-0.4695322020075404,0.7623172560140586,0.39444919305809334,1.1657034465023002,2.0867139144187026,1.3134518249048177,-0.3342548063073398,0.900917128052603,0.4782499574327008,0.5193235172635798,0.9580371376802954,0.23255944968461642,-0.34497801618291934,-1.4849748689050037,-0.7737768203171922,1.653554939662868,1.223681666582902,-0.7261476045135534,1.1863577993220973,-1.6544838150380683,0.347579591343193,0.25957461473145477,1.7728248460005198,0.43106522007064896,0.5010571664451633,-0.2809183624933282,1.5043362425235087,0.6010674545591491,0.9652974718859819,1.7812451176638187,2.632513950799464,0.7713190274558801,2.917020449544724,0.7920237836896384,1.3734121420109175,-0.36160414184428086,0.35778185965583925,0.21436994104907425,-0.24102788650830745,0.5444569380838478,-0.9709491154975911,-0.6286255836244949,-0.5697783534102815,-1.0125131828509402,0.017494427905979573,-0.2669663263712517,0.9385326407392152,1.3657842781147067,-0.581536772282756,0.9210104999077077,0.6865455850899733,-0.10124752758411143,-0.02949550658440895,1.011049857316877,1.4084912266312992,0.8446320952633478,0.23070631728573077,3.4803803973042378,1.547875762408462,0.18383664854461487,0.7284163334260791,0.43879352944393635,1.0866209757889989,0.4342563542001557,0.3528316192515466,-0.4366699607153932,-0.30478832331306205,0.39875606604758473,-1.4274513857390214,-1.0094492261286616,0.5490812380551641,-0.217383345316436,-2.089037215663718,-0.5179810423259253,-0.5353456892214103,-0.3007283871051474,0.5919515229569694,0.12175362323385393,0.0345047896892011,-1.8887587456784116,0.152340098817135,0.42088540758317977,-0.6047209938527851,1.174288952341484,1.8717656759133285,-0.8900294686220883,-0.4904873904621992,-2.483945368949136,1.3774670602451689,0.9634674981138776,1.6010650672014994,-0.005483982361350997,0.994733093065733,-0.1260897635154703,0.5219560823969622,-0.602623616975164,-0.5341846043106375,-0.6155959329987772,-0.41119570583684667,0.4629161830773444,-3.978340906996617,-2.476727632350986,-0.8144719893283363,-1.0357815734751825,-1.1456419240217934,0.6155860605027619,0.9978971043100473,0.26192379868213345,-1.3763696947960433,-1.1908867134639682,-0.9692520015154755,0.32151205349899525,-0.10820125325161288,-0.23161320619970627,1.349803030495834,0.8824536241637542,2.0292242213373557,2.6443575626451294,1.6989869298055391,-0.24680215344361797,-0.3975989418056009,0.914413845992883,0.35876300951478246,0.5019310515758372,-0.1409435002076897,-1.5744607825552794,0.5693701077018035,0.49886773619646463,-2.686504883884976,-0.8620686331029302,-2.488444656291618,-0.7776180919088402,-0.023770026944698208,0.012666844321122623,-1.4485627840758541,-0.49623015322120745,-0.9062726161716406,0.2538677757689286,-0.6175890986043627,-0.7044031628279239,-0.18144365925352174,0.09562634208168252,0.45118200383398627,1.6075712570844207,1.2399422425221795,1.4266442343297447,1.5033069492508189,-0.20500042293085416,0.9245459269679848,-0.6463855636248805,-0.4265795342920193,-0.504025714274844,-0.9678656689646621,-0.8382342432388887,0.21034839563814578,-2.1527192390482974,0.23904171452943038,-2.1946627067500555,-1.4927673010135578,1.1724728678625995,0.7638251816403887,-0.46185223848289236,0.8432732281541923,0.8399132596285612,-0.30785217584038005,-1.8750077256819357,-1.4822724173265782,0.39942064943609584,-1.2118024651021921,-2.1162465204935073,-2.209280642030101,-1.9750053901105606,-1.2970060791114892,-0.533516045147747,0.9600161450032949,0.6084117454211041,-0.8637741262910876,-0.6062877039153012,-0.5823684497538947,0.03978424623934183,-0.02560117878578953,0.17176444888770148,0.5730359228903599,-0.6014682033725487,0.46036328031171964,-1.3856140263065893,-1.1249638434062867,0.5225358247611003,0.3441666637787874,-1.525391379597215,0.6177452518003312,-0.02879408768501591,0.39085861558440715,-0.6893570578282794,-0.9937292746956345,-1.1182584202299752,-1.089389285108728,-0.4482262375542538,-1.6314837383862602,-1.0377437075259577,-0.8711863161777177,-0.037601916966741554,0.4759553013473084,-0.12513888196690512,-0.37932558773803093,0.536261734035214,0.7629476152173699,0.6392959897309516,0.7492319390849038,-1.0544499538100813,0.8136449720519985,0.47313760006591127,0.213295548830871,-3.3198929653698404,-1.730218194008528,-0.9822408391346251,-0.5209470022067868,-0.2088076637171363,-0.061805116409740964,-0.41747589202027746,1.3030572488140215,-0.37701877399956263,-1.0738828063736918,0.45173508847834454,2.002029371499263,0.4499064508425309,-0.4249799479270058,-0.7855957502093724,2.14063516237753,0.3846466447427744,1.5113194409285287,0.14820592504640354,-0.09990396046846445,0.9178804752326406,-0.12541946766627554,0.43687642952953526,0.4074984727767825,-0.34010379966011267,1.0960659069442313,1.128802094742389,-0.2607260935152016,1.049678790980072,0.38509936238700243,-2.019886475562235,-1.3862101153478017,-2.2747991687580082,-1.7915408290235992,-1.5707945592035737,0.5671833120368228,-0.992170214336603,0.5342061443652463,-0.20086189673875346,-1.7523835439130475,0.23672574524888346,1.8880911061573211,0.5641673549397553,0.7863934981619518,0.687079069484637,0.48342779750264725,-0.6240937403448633,0.05541038954147907,-0.35930078017878797,-0.6666459865919485,-0.7852026441539841,0.15057693733955796,0.42701683679675123,1.885042225805942,2.654173934936311,2.3337624936692567,1.7052230746151087,1.1573130564235519,0.8000048415149471,0.4417222492085385,1.068081933786568,0.17895453335546616,-3.4392667020314667,2.0515585367902456,1.8072417211372525,0.5172670978371212,1.934526229040318,0.9916739869557115,-0.02838173476051948,1.240422730448347,2.9121843273034687,1.1445006173719394,0.46621110914769054,0.39019699172439815,-0.4704159478860966,-0.43162473814519686,0.12288987333461998,-0.4391589157378526,-0.43181359829996874,-0.7267317485775155,0.20576430465916395,2.5316922161466584,2.0868882601986116,3.672696734145538,3.3966491802809404,0.869057758727113,0.7325935107091726,1.853825975439511,0.7324193285359404,-0.3434482503130659,-0.8706848544792264,-1.2995418616203138,-0.8522357411143014,0.2891752613450644,-0.8141229238633356,1.1268490884532734,-0.5324059338099799,0.9819453692806446,1.8404606525737843,0.9056187326361671,0.4108492405757351,-0.7271593017512623,-0.44561131426678796,0.987768911205183,0.06417922037600121,-0.5910886346986538,0.5864642709067002,0.37002663983207823,-0.5167704744994682,-0.29772473688797874,1.4016564762537935,0.7058772001354489,0.6955565046898629,0.7438196220612886,-0.2131747652049034,-0.33408309845748574,-0.8545202182178756,0.7339334289246154,0.9380204051169861,-1.0633072649101345,-2.074181670565119,0.6388990945188072,-0.9926408171549802,-1.1668057498803006,-0.3708726681950597,0.4617350014607897,0.7318895699915643,0.5829478082548605,1.2567815131416955,-0.6454545828651194,-0.11927453500529912,-0.15558159249341336,0.869548065466601,-0.07196974509432544,-0.3124258573076897,-0.16579145974647624,-1.6667930397129824,0.08841750482985464,-0.5371682210045573,0.3982612001289305,0.6143193408754678,-0.04850247787416486,-0.8654357851537653,0.07682028019813528,-0.14547645784474456,0.30432662063846494,0.757667023514394,-1.397077654120878,-0.803212368300116,0.96607211715675,0.9571247363591402,1.3242569532211292,0.8085944698814662,0.9441496170331665,0.4422975105682019,0.7752008535669234,0.6151105590090556,0.025155511788030726,-0.533496517472874,0.5416956034957914,-0.5418441715448132,-0.3512646825646657,-0.10556307837924479,-1.0183964809766661,0.05257129615387935,-1.0012707347764578,-0.5469615827040132,-0.5415916623661521,-1.4486716127023442,-0.4980312430738892,-0.2153204236103221,0.5112136893841792,1.4324490983207763,1.5515646983310447,-1.1268804426329302,0.03545519848612724,0.8280847737537793,-0.6780779578032124,-0.4533972782705392,2.069625680110862,0.921272008593403,0.7375008378010355,0.5387421790380749,1.6474935301875913,0.13591400932146006,0.26020691718877165,0.8823658024224126,-0.9390725773217015,0.9191186655324826,0.683706074333938,-0.14766423827163422,0.3468774511941022,0.3833692249086258,0.6730546867194126,1.0613639194038325,-0.625178253256252,-0.08698502957513628,-1.2062469893382088,-0.48660028887312257,1.182026690523473,0.9220679048675817,-0.9786073344304695,1.1856886901861465,-0.05432440270395932,0.3318355676722494,-1.5807377636520599,0.14258848724584725,1.3374124754323522,-0.2505485601719296,1.024728901886051,0.09403705928514758,1.4206303303090484,1.0501364350321074,-0.7159182028604272,0.15001695479323945,0.3771033807812767,0.1719497190535506,-0.7532914333259955,0.9911455004522498,-0.5860675913677317,-0.0780684771103651,0.2132871489774851,-0.8716295558670529,-1.20791921653257,0.49106345274014224,-0.7642003685247559,-1.6813542880981303,-2.062592857126475,-1.4447417456277698,0.16537079120030043,-0.3357567187388919,0.16596405145633847,0.06501567886326984,0.38911061785976736,0.831606834958979,0.6412120457047564,-0.6930312546571852,0.2139079575911839,-1.14642075767195,-0.3518722582359112,-0.3171305021656267,-0.23289701456772918,-0.24473827459024466,-0.9249300414470056,0.5706858970685618,-0.7094878341855866,0.35368939358778784,0.0789304844926179,-0.15845138794679212,-0.8404963997620661,0.789465998880025,-1.025949386482615,-0.3373951388285248,-0.7977477862325852,-1.1383356999439773,-1.3600535136057854,-1.346639731988442,-0.0589594242676936,-0.5491826359718671,-1.7502621094474318,-1.2036667389077147,-0.44702020227814293,-1.2744104217527872,-0.09905023840471094,0.30973969071179563,-1.3824792731909001,-0.02890742970130219,0.4666329590610006,0.9221575541991909,0.7917917313028084,-0.09755099887417895,0.6858189911532904,-0.9420567460298281,0.9321556774739777,-0.6215367897530797,-0.05602295107790838,-0.3608344011691523,0.07206158768591586,-0.9390475725049077,0.3687263728233761,-1.1274084726880325,-0.5193554707665595,-1.2270251153422251,-1.115759333582591,-1.3735411378917264,-0.9286872015962189,-1.337545335551268,0.04790300784769655,0.18135143661983186,-1.1595321124312046,-0.025576924249913886,-0.6610630301097462,-0.2671611814547419,0.20957516201078052,-0.3628634515512902,-0.9093039883923697,-0.0016968726809380996,0.838185199834482,-0.808340383531347,-0.6203954213988174,-0.6619052708703022,0.5309777032890519,-0.9854043472680494,-0.6741947838618771,-0.4030885379227662,-0.4343282166837371,-0.11208609720120943,-0.2861432143874839,0.16241708273228694,0.5718566386044124,0.8841769916184125,-0.7837360960020915,-0.25917118234968617,0.49607490679351307,0.23757247224340475,0.7698402093395431,-0.8417767212695959,0.37244060101471865,0.42442777936454285,-0.0740952945730065,-0.9818091156796838,-0.7024192159130982,-0.6209055118140829,0.6866840688674629,0.13668012511179084,-0.9935936273590054,0.9088650967744014,-0.7845265536388104],"bias":-2.338678809267407,"activity":0.0000011113454721964456,"zValue":-13.709938028225103},{"weights":[0.6517281894732032,-0.43581941002948943,-0.7203501851332703,-0.787290990359991,0.9511410568344534,-0.618078782813916,0.42341530263083804,0.9545968816943491,0.9511721873066432,0.3552435128075797,-0.2170783476180742,0.18699738092199825,-0.574747082530092,0.02911255884614139,-0.11544968722207205,0.3337803482099879,0.09336114799625772,-0.6608163506449438,-0.8427849932547913,-0.29669247690117073,-0.2795484981646794,-0.5948067743183585,-0.4221965226047306,0.7805310922692255,0.678580781157347,0.23955218809837575,0.8312857399723232,-0.4408926570013625,-0.5032338979606648,-0.6766943167423594,0.9903330976257894,0.30155663462154036,-0.7478080878710789,0.5571524427887371,0.38365268802692176,-0.13705310867717402,-0.550864451722779,-0.7567597562783963,-0.4175605981287794,-0.6300762238886044,-0.07431400582850368,0.07066744559370268,0.8467264135179399,-0.4883250569681559,1.0158757372551515,-0.47241026032197736,0.5609117322928661,-0.4451585660124972,0.5854768946385734,0.9277094320953968,-0.9207612299504264,-0.06930026126745815,0.6494749861516538,0.09029509287899717,0.7745460749047011,0.7725695285408918,-0.6781767234502887,-0.4126751378757523,0.504523487712591,-0.40217633685219845,-0.1177391328686176,0.36988628084545566,0.7213307734297127,-0.8904401770493124,-0.48569382827748847,1.1184767031491232,0.1982852150625045,0.12351523122052337,0.6199525352801795,0.7264880265202797,0.5822721324615384,0.5906465683077491,0.1628873224462822,0.453429714006988,-0.029767837094980428,0.49766947834482106,0.1259083101257698,0.04518861858504524,-0.545159319926564,0.9414540132483044,0.9221845578047912,0.25052103200562836,0.519635358838245,-0.3821460450083842,0.036236768462070135,0.919098790920966,-0.7461847513880371,0.8544264453759114,0.07178459616833974,0.8903681061557795,0.5530967482928355,0.04871259344968744,-0.6926850167180832,0.656968396187581,-0.034345063493392676,0.15325053890417828,0.734559016292263,2.0333028334582117,-0.10242147092546042,-1.0180613946171788,-0.6307963236680479,-0.8856637468882315,-0.46938053294829934,0.3230669479724739,1.5351949928786985,-0.8829634885652526,0.8488944973893324,0.23797339426671668,0.3159671036099475,0.5531731252044527,-0.23406785539027508,-0.575540157579622,0.7131357215718435,-0.3348391558178978,0.7635179506444594,0.17138783621844353,0.9574735610909241,0.698318467773781,-0.8905533527597564,-0.6213820059871255,-0.7845145984882584,-0.1706117273689123,-1.0611455073664575,0.3402982084734624,1.4288846215006707,-0.25613297892340986,-0.9493872085075045,0.35640877708759855,0.8746849951465605,1.2795876287797223,1.0058183997800298,0.17641508286128732,1.5810169698375058,1.1735903207283753,0.8860441520611275,1.003468664756483,0.3190138702978678,-0.5894638867426656,0.8179239655125398,-0.5123225559016036,0.4403842912724518,-0.6994531287534369,0.759842679268946,0.08803711156419851,-0.9583331068928336,-0.8773969288502721,-0.6451222728181464,0.306011030519177,-0.9306986072087892,-1.087363177599728,-1.8947109683618724,-0.9298933477235716,-2.354895056647418,0.2188334521575871,-1.2455306743917187,-0.12636017777923828,1.8960438624665317,1.6021386485849765,1.282772700306389,0.04934153388673785,0.10541980931550762,-1.0832009302092986,-0.3691258160546391,1.5264410635863201,-0.35585339156509294,0.14507414177194747,-0.9709880656393559,0.8573190685760683,-0.3959082554550011,-0.20093057327505548,-0.4645987521390936,-0.7179509068662119,1.1909241570552425,0.1446687158430307,-0.029935992144560476,0.4156510810008269,0.24967184547011562,0.16950198458723317,0.8188268331489906,0.7078714069369115,-0.37899936582084487,0.22484195616472477,-1.0308899222642323,-0.713729842617159,-1.509865231609172,-2.3114336629176258,-0.8147493699881827,-1.2819121234288584,1.4597608941876197,-0.5158566887312748,0.9918718354982687,1.4028422401353868,1.648857689803734,-0.17399985154980613,0.5350556372334548,-0.7294723565037283,-0.6560871109093089,-0.5639222337235992,-0.15172772700180268,0.2615072743506953,0.3845786011362958,1.5144715614048943,-0.0525107537887482,-1.6132950037952565,-0.4711473927762968,1.5200966094837343,-0.2679878197291323,-0.5346597151559483,-2.8737802725823802,-1.9365788182277008,-0.3666914284516371,-2.8048616075460284,-2.146944909375834,-0.6685846009455834,0.20146964537078893,-0.3391884548731001,-0.7959579213052669,0.08819176937539003,0.21551569833462175,-0.19608607157702412,0.7902489348559965,-0.7821533159147636,-0.4096237664727091,0.9904069887447267,0.4993062983200711,0.17227546222519988,0.7419007837882933,0.026705186123399786,1.1011091693185973,0.9604288935370373,-0.9818133350317354,-0.35986379103706384,-1.7241810580169623,0.0690687193081199,-1.8811119148204092,1.3498516877958402,-1.0625746294240987,1.0017528525952928,-0.8385011839606494,-0.5575436806466231,-1.494357739772312,-1.114350652863926,-1.4736924277787535,-0.9092822585228867,-0.9601371270127252,0.9792128015161511,-0.6393406530073392,-0.74250245507849,-0.08993642280647875,0.4332802123366786,-0.13958622579081953,-0.002497029731692105,0.2790436089262648,0.9263258015763356,-0.8571792148055131,0.00597297161264308,-0.9601082870310831,0.7701415609334409,-0.6114073095093481,-0.1838321608420571,0.5985526298160293,-2.478747352352371,-0.4389674833451436,-1.167480674165802,0.2564245516703823,-2.3795697732064944,-2.313463025598121,0.12655858261836717,-1.4811639854857648,-2.5689351574019477,-0.7474034917357354,0.14791079868056098,0.16329515862612975,-0.6764633061772678,-1.0898073351202697,-2.3004063640991563,-0.3225952107710532,0.3637316458456575,0.75087628356216,0.21606854167514972,-0.674980094386874,-0.7027382258089698,-0.42751672692615145,0.06529589422902687,-0.7600393460320615,-0.44610339283229455,0.045614238316234255,0.7625451237214164,-1.8981111270011113,-2.250877762719842,-0.4449652421104399,-1.7082653987211374,-0.11276240493212104,-0.1876223365456849,-1.3180752554208128,-0.8849716137056614,0.3107978677003395,-1.6295927445370524,2.1999043887774468,-0.9359441215286602,-1.9092048810909297,-1.5551425397435379,-2.3115019466113385,-0.9019287785251211,-0.4862749766002498,1.3136449882185561,-0.6023770017062936,-0.9235942519624054,0.3824704386147615,-0.034667707865379975,0.4549641361232115,-0.9128670646020202,-0.4029647498543034,-1.128852203089595,-0.9934387570991924,-0.7334353420042633,-2.016271133865059,-0.16263460904264496,1.4956223948934575,-0.5139226331184772,1.3281782534760267,1.0962275962053263,-0.007943195067388826,0.3820850544729122,0.02644997259277622,-0.48564482892314587,-1.3871688487681229,-1.3200647003456945,-1.772848600621924,-3.595202171694672,-0.7876739996450148,-2.0057700328978783,-1.805108945142426,0.2558698139261449,-0.49693531327347934,-0.06646999395855728,0.048410251079836986,-0.6963084592496666,0.4521906256644081,-0.047300556154746105,-0.723897106917938,-1.8552846840009585,-1.8516800609406219,0.9408301612862274,-0.5399390995552033,0.705583403480409,0.18056421582335258,0.8119265165788087,0.6156554146688288,2.4834503288881384,1.666451415827999,0.7037824824821124,0.23221241661951636,0.2503522278011286,-1.5007174764690028,0.15076757312437938,-1.5443165026219279,-1.4230124968368687,0.19293285954867426,-1.0294073442275367,-0.7698936642556825,-0.7114363650357177,0.14775299207389508,0.8274692407603486,0.49014079690381207,0.5962870128857579,-0.2755969543507067,-0.20715632634316497,-0.12883362543064647,-1.9439220074232626,-1.4096848152926604,0.4760509586340567,0.1663937362819011,-0.22805528001713363,1.0803117719944146,-0.5834535526568803,0.48042965579089525,0.9995375035812376,2.257079532913315,0.060752641132259706,-0.8129255221538751,-0.9088523944260464,-0.36343435288330517,-0.18439656272742172,-0.8520113537247924,-1.739154418109991,0.38860492575256805,-1.0346421742953051,-0.07451437111288324,0.19759059558596384,-1.0549334130071353,-0.46934053899543127,-0.31340528388095557,-0.12520035714501168,0.3640171039003439,0.3187917496838193,0.12207848446415727,1.070037249913722,0.6382494403189881,1.607987252077746,-0.3559176772447982,0.17870870378242512,0.03197343991297794,1.3099546570898655,0.9422813028658624,-0.716081469675625,2.963312591343844,-1.058765404310144,0.1978609688658762,-0.3554781719087273,1.0929021731534825,-0.8513535208538183,-1.8572226906238012,-0.939340927619697,-0.16635312024902307,-0.7661266503040286,-0.6270604435135558,-0.6782132771398016,0.2900686750720048,0.970139892477869,0.16737121611704087,0.008827251411881355,-0.6867581728937451,-0.5545464574180335,0.43068730241515213,0.6869549784487854,0.251505133024041,1.4852948662371246,-0.5583331346681271,0.8233496236298946,-0.6621078761271928,0.1355511919510071,0.5967447778586661,0.7729428781796485,3.3075851823027462,-0.39992666977550684,0.20713769603211707,-2.3080755960369443,0.19879705205700654,-0.054491620287838105,0.48503702821701916,-0.01654865974006052,0.20588442861317982,-0.30995157255593037,-0.8472721133789421,-0.6483050000192531,0.2383657272323546,0.3762600428067191,-0.48690891865111263,-0.717033087580935,-0.31423490636395135,-0.6093731378328227,-0.4868420422461435,-0.1557757176654797,1.2463167817341474,1.4354891363950226,1.1965628993670414,0.7963235494057227,-1.0120615434890312,-0.11355189239868207,1.3544347687598919,1.2502503593585004,2.2142811641872213,1.2519312390090578,0.045539366948380997,-0.14427199575707103,-0.2541877344951403,2.6307036723183397,1.0713055013600319,0.47780717964049313,-0.7772561185262902,0.923140436389317,0.9571756726519194,0.7258553777111221,-0.6318404620759712,-0.6316111409126703,-0.2636542550160801,-0.8621287494013988,-0.2284365927283466,-0.6817818014090049,0.01324481932709242,0.7388637805375922,-0.5701107723253288,0.7395775068698665,-0.032799021986758894,0.3131790901969103,-0.3670736196646375,0.1780688950447503,-0.3623408204674681,1.6612764475300283,0.5621438490195265,-0.9684304769722251,0.878907155264918,1.8857011878999916,2.454308829452677,0.9802710540865328,1.4823281724806832,2.603491801901862,1.4650791158554362,1.1430296928454706,-0.015312070655416678,0.048769483973542825,0.7470353520056064,0.28570142550741245,-0.37053933439045084,-0.4955792378721709,0.04456132426855801,1.4245179599786564,-0.26102924049678344,-1.1542582581546257,0.6325438442302022,0.6932697356491097,-0.27233059888516986,-0.18439625045897576,-2.1585611287516615,-2.373188399232392,-0.6758269561626836,0.21155766295463221,0.3009033893843893,0.27014831390131355,0.6710137140919541,0.7759446254124244,1.3173696340308219,0.8016748181622061,2.02983410489837,1.8994341197899842,0.8993786871029522,0.701322432564702,1.069690842087077,0.3522485738024617,0.7635826836318174,0.9812489710764954,-0.34789114637535556,0.17402821346303998,-0.45789966527152326,1.2931347562219266,0.024169303163845007,-0.36394148292695183,1.2048657687765474,-0.0660617812372111,-0.2732744709631778,0.054792344808149235,-1.140231745408639,-0.4141200759995278,-0.3143536451632174,-0.5167990322367629,1.3216938852939175,1.7407775294632197,0.4827036101221541,1.3137574543076753,1.5134799888227624,-0.13702461435108962,1.6355946314604228,2.707622460092074,1.8078216984751154,0.28179092014755946,-0.037849045740139885,0.4147999081677795,-0.6131294352255958,0.16693599182742522,0.7685393966435696,0.8658303664506103,-0.8322391497262226,1.48539341049243,0.10510697061023197,0.8764777760166026,-0.7606838648705492,1.6359469450405308,2.210511244271055,-0.26504488224184103,-0.9227885083058761,1.3940628310083,2.2708853175797197,0.36407262466921253,1.639818965828947,2.6276917653955856,-0.5219163682553736,1.69336966628144,0.15573257745747213,0.3789366690496209,0.545490426464466,1.8672814455006832,0.08691448894129603,1.2728925244365843,0.3741164353839598,0.5696250346524041,0.5498931328369988,0.29248827103590647,0.9271394293046233,-0.899083244408342,-0.635548226508163,1.1403314017754753,1.9039275325448535,-0.1956857035118169,0.07757899414599947,2.506526047682326,2.517278881023657,1.303205960321846,0.16069648298183387,-0.922069693610251,-1.2755148173165627,0.12247178327549008,0.12990559917172906,-2.2289680836194012,0.3251461809927135,-0.27424376873302153,1.4555001800543075,0.2544407377180947,-0.16008812193790556,-0.4737811694188182,-0.23559580088762663,0.18459012770446095,-0.4003329110568107,-0.6477405310682885,0.5453893124812014,-0.47056671082714097,-0.6618654279613612,-0.518178302394475,0.3224547564499471,-0.1691435458888648,0.9763914467512571,0.6348516185854994,-0.32775039631327163,-0.3489499419414895,0.4744935787759958,0.2739987647040747,0.5847875422818081,0.6116591404090976,-0.412750108705466,0.747612688422881,-0.0709288087668737,-1.5554962847729064,0.7176652512519552,0.7551717267221234,-0.10931673350031126,0.4444514141466822,0.5751147481018821,0.47519427312011875,0.10632606123212134,0.00602128791819694,0.4720551387977488,0.7786127988985511,-0.3399586906489913,0.7972711217174657,-0.15842165985378243,-0.4080376104732242,0.19786378673740895,-0.017870194035230547,0.21221455423325855,-0.9412847160659947,0.25558617163103486,0.7520385938395473,-1.0484545688971867,0.6628665158103412,1.6310674499870648,1.0084745659428003,-0.021441133805262833,0.7934320943369085,1.6088741452855988,1.2078618059726736,1.0168761677872986,-0.2560938673553361,-0.020187631275600235,0.19003152783623792,0.7106936240720917,-1.2102318760346964,-0.9646163738271718,-0.7067109841446026,1.117441882167998,-0.7025942568673131,0.8617420453740129,-0.20940484962394157,-0.23413869218709893,0.49413465592438977,0.24986082253330988,0.9876039723760092,-0.398527804649979,-1.4319885806310297,0.8425489278334388,0.4179533201931586,0.31866352157535294,1.2709854433442502,0.3429510029766743,0.45177350260044236,1.4701248813753036,0.6199804408323313,-1.0394770964907734,-1.4745039512413234,-0.8697746877227271,-1.3932298746491785,-0.9352813040606777,-0.8215527418843378,-1.709438766058332,-0.5027815904253825,0.6859158775812972,0.23384836375599521,-0.2795785991681739,0.004787070269836883,-0.8731522376578469,0.2996684452827352,0.4231035413123472,0.7076043307011166,-0.349179196581908,0.0018477427452005648,0.6518429620306643,0.32067768272627933,0.23481151296478214,0.9223466048008212,0.003943647083604955,0.4143950183237263,-0.6384956939485166,-1.2692153723778181,-1.3418913550610618,-0.8742643161350044,-0.5010966935211124,-1.0539691759485132,-1.6809780284053069,-2.7157051225188678,-2.2444827677758026,-1.3650159287646138,-0.21835580684623618,-0.35285734504640226,1.0377195444442362,0.17787245058483775,-0.6547241327774938,-0.9798673407878669,0.08778839612991485,-0.01878096503381732,-0.0772055428725591,-0.9733774484706208,-0.9132424614633026,-0.4676179413944572,0.25769724514119186,0.3706032470364187,0.10497410467217094,0.5052090618042513,0.2707144128946781,-0.7743921646494791,-0.6079148169802636,-1.5505573497763399,-1.4541163827862469,-0.9464017658609625,-0.740842251755234,-0.5970900088610385,-0.3797404478503153,-0.6890367201450162,-1.3741723874924576,0.41701196191335543,0.15382919933328473,0.6381319184177432,-0.8170260822481628,-0.5596570609878675,0.3688515120337006,0.36613363241769115,0.3497289688649037,-0.7011580383350213,0.4740511719449212,-0.562508260400449,-0.6685258712979025,0.7294187275190276,0.3841862694538021,0.07483022246439354,-0.9740607882309981,0.1593274673205044,0.8853083965924932,-0.21641428911490454,-0.9190341642619629,0.07022737788708812,0.09683562258339982,-0.9018955445563406,-0.976282777226252,0.4943608705512078,0.9602719581074307,-0.9782582840959038,0.6963604206518514,0.8160866458487075,-0.8860949056832186,-0.7266538383355908,-0.197253978919158,0.30947671067213856,-0.5747044152231671,0.750073952973946,0.26795364312375947,-0.9026077421286289],"bias":-0.33333376104342505,"activity":0.035057337906859345,"zValue":-3.3150837350822697},{"weights":[-0.7700004931547322,0.9884609815791245,-0.08900679911124598,-0.37111086465099996,-0.48646558034634646,-0.5037257200353853,0.6915020095773223,0.5414688979810216,0.8008804488420029,0.4548651498548444,-0.525955988450233,0.2877210095024014,0.7849200939339793,0.1870881025733655,0.19072172547937027,0.4949929159250859,0.907442850758168,-0.45468690283115,-0.6698426419865169,0.7309308128738525,0.2032227789237271,0.38980653586932545,-0.4698095014171404,0.621428074896444,0.6867053081380612,-0.36386518488246766,-0.5609825188197988,0.8010387462894575,-0.19933495752900487,0.6249177895803952,0.8102141604169679,0.03131316658121497,-0.5682055089418871,-0.189198319912657,-0.994197056409349,-0.11661668157135803,-0.9882202006305052,0.819337022510191,0.33761880333333016,0.6150369024726169,-0.3376272578330052,-0.8733243701473675,-0.8847682490539673,0.8151758543772568,0.5230230320059227,-0.7172134161317083,0.523346786677732,0.7764500685168806,0.4885309978208362,0.7467738139964073,0.0013318335731300405,-0.396938360693207,-0.15544924345889566,0.715062439040195,0.4024250403315799,0.6358525751268891,-0.04282370197016583,0.46507356107045217,0.22525146817548247,-0.41063819290340975,-0.6239151262308061,-0.9199642637477896,0.08980779845859667,-0.8738816539234361,-0.4924068107496233,-0.33913630464946054,0.47851717325079934,0.44486961560606464,0.06867271523230782,-0.7783793520101581,-0.07599958798907824,0.22935118159533918,-1.2436243385094758,-0.8233476294075158,-0.026845380604556837,-0.2468944864784125,0.2722000783530237,0.09260141133259846,0.20744226454334083,-0.26003216261858053,0.28879963224372307,-0.20061966487447913,0.42898842007792837,-0.5317828891628054,-0.3639041574133519,-0.02026502248268436,-0.07876401674654865,0.45462638370114705,0.5812422306455979,0.3086219717658166,0.028572759615644105,0.0896001035764005,-0.6665948599362268,1.3290797668991348,-0.12323496546735964,0.654035009579957,0.9326732126164625,0.10943711135894955,-0.29743449500947,1.100366887899911,-0.3722301765457838,-1.8601307963697085,-1.4104049895532818,-0.2147951813726938,0.025199575734352282,0.6045848855756933,-0.6879186094157291,-0.17458280331940196,0.5060196191781201,-0.5747273921124298,-0.39532505963776243,-0.01977292512525386,-0.3628275683390796,-0.4104665407131205,0.4488975464662377,-0.08775424000943904,0.4741003241146194,0.18353309764768036,0.8032044923258251,0.053780720077898345,0.07449962037360848,-0.12667814023775398,0.33587622125229394,0.45237332801651525,3.040195169622137,1.6621707197479083,-0.05705566105999454,1.5993260157991742,0.6430540087563438,0.059014719618132545,1.384883760912008,-0.9830792670297474,-0.42704321571975495,1.2714205328295927,-1.1619650690638341,0.6286831945759078,1.0351353912246477,0.02958967340844682,-0.2689122886251518,0.8305418707139878,0.1769154160707962,0.20010615183524427,-0.40656975227322834,-0.5578625022007824,-0.8433983118522467,0.7728915035033885,0.34733617387196997,0.34622303057679704,1.8918242039435795,1.4216158025625898,1.4628349720117046,0.09203826858296163,0.47987219007391885,0.950987707723079,-0.07162666415265079,-1.559842696988836,0.08497446001238228,1.3522631846986053,1.6973476641078258,-1.1443463798361004,0.05993803965778924,0.5977767543284309,0.5615582010910367,-0.595662351631117,-0.36853511855556487,0.43888428135262714,-0.13556520673843575,-0.6198565569521793,0.5990733739891039,-0.4075423054825271,-0.6870770588014801,0.44308745972772473,0.1599835896073308,0.6695021572223612,0.4455957926593896,1.5747488537415322,1.2754156684283104,2.6192935773223076,0.8436002914712138,0.6933307561540544,0.7011846007142727,-0.919634962384663,0.8673421383424558,0.13681410860068896,1.5455696203776101,-0.17892391002539726,0.07294950248486853,0.36083211892702993,0.9302407296543744,0.6926819822178286,-2.057754983176204,-0.1455422755411819,-0.21480769208046954,-0.5711142063951014,0.32691690013593794,-0.4797628815008906,-0.33496107988444707,-0.27290086902579935,0.355372428055415,-0.5245536821817922,1.7146619614782699,1.0650865267515361,1.3076622560064897,-0.7899488542401052,1.679528949179469,1.5576836575509665,1.9026083513115708,1.0312926066172103,0.09008321474860963,0.2614350576162211,3.360483313569748,0.6623516549181091,0.42566240148599294,-0.5271675054039054,1.2743759199029359,-0.07787287881893129,0.9450056382150257,-0.08513403034609868,-0.6740693494926193,0.11025881824389458,1.3574251741737862,1.1640937718837738,-0.36403496671483704,0.6769335082967447,0.1359040549784402,0.8396418386231222,-0.5256458289642865,1.1059333321133262,2.2269384889007746,2.657577828979339,0.4651822709737038,-1.1705253723832656,0.6385219976146574,0.19459952833571448,0.34430266405954774,1.805889747987112,-0.16216246945011828,1.894520093667331,2.0741993123114604,1.3459375005454501,0.6998539424017186,-0.1279974094366766,1.1788442496409615,-0.4591722511567848,-0.5759827130635611,0.6605152822324755,-0.3868804496496987,0.7611257870150089,2.2517609278707758,2.20641546561578,1.2834939241150416,0.32485270079181733,0.9284579244965996,0.10065977429624466,-0.14227702980331286,0.9866384861077321,1.5477855691177422,0.6959837806029311,-0.062043662527955026,0.2650816939628832,-0.7374105017465387,-0.15693840207868046,0.7890179580732681,-0.14616621871119737,-0.26797457386232415,1.3475260561626041,0.8605814338286832,2.3349693348925817,1.1254632720818392,-0.9015951804611614,2.1519029802256253,0.1511728307454187,0.8228051966332154,-0.4766588122456143,-0.3008849921542409,1.2920976974238476,2.027892917217723,0.9773601042256382,-0.5201886653382481,-0.38945336409839393,-0.39933890306605324,0.022574596897079854,-0.6785604417183181,1.509059248244107,1.0466528767050411,-0.4732131722502265,-0.012200742244229073,-0.8377853655735331,-2.5306058774718987,0.43605989121324606,-1.4638024566424042,-0.4806560224092277,-0.9319264848188403,-1.1244151851428874,-1.7715665366252418,1.1887165159446915,-0.9328045917851621,-2.1887988143691097,0.3014736918860099,-0.06716686054003218,1.7118880844750728,0.08649919633049807,-0.4182881924457364,1.3262663381464062,0.9256780682193199,1.0900214284037562,0.8666795393108923,-0.03758676121957598,0.8047033942367268,0.7654629885264507,-0.44569364178858506,0.19664725754851228,-1.4691602631162086,-1.145254149310961,-1.1947057266386387,-1.939992684416889,-1.80138869091039,-1.4609312804510552,-1.186190921759772,-1.2919414822086692,-1.1619908452162067,-3.3519108830689675,-2.622697275217982,-0.5130447964689138,-1.2651113587720368,-0.6111620051172407,-0.2891363055479764,-1.585001642820282,-2.465937186217039,-1.7785927336613794,-2.043676592854108,-0.6374072838444852,0.21249273681391778,1.222350444068084,0.19731711148699294,-0.6774254380754777,0.20937056942441679,0.840259658988837,-0.424294622187486,0.6271572710928239,-0.8426550653960225,-1.4639375707538524,-1.5371000490906233,-0.14607371220499898,-1.4939620862001395,-1.6559833350424438,-1.1895222463124353,-0.5367487995846045,-0.6864365439311924,-1.47207259813135,-0.7978180428204321,-1.4271175203536186,0.10923681883315765,-1.7346532578555551,-1.0725912303302212,-1.9784394881958616,-2.3016196209664503,-3.305761567648103,-1.162263360847965,-1.9682359238180567,0.1870752774972786,-0.9054656667292601,0.14029421044796841,0.34423435526172386,0.5625222817266025,-0.5982585406588399,1.0241230722516947,-0.6456875464067426,1.0313018152282685,-1.2307127139808407,0.7752795313915455,0.32589875125188544,-1.083592351977095,0.8059302996149228,1.7790947028084991,0.20754056101360124,-2.1340265525616133,-0.7372397866824506,-2.093491589573354,-1.5678360126065904,-2.6935708657657487,-1.085571575923855,-0.8304985273299799,-0.4341146090755065,-1.8672194455483575,-0.9721595394582391,-0.9532898028837129,-0.8676408892121513,-0.40312873488727596,0.3231157695946882,0.9410751861114258,0.5512179235485934,-0.4490467113264267,-0.5568473751392136,0.7355762599015436,-0.06564450639363095,-0.03339202806453633,0.7447939896161074,1.072923632580142,0.0218043388554981,-0.7092281960190255,0.3677395524731114,-0.9936942747334683,-0.33821961061316075,-1.761442309979972,0.07554185575072507,-1.2939400230397513,-2.1642583415369905,-1.823202370217299,-1.0074011264696145,-1.7178609920297958,-0.14183348350671374,0.35558063953554586,0.8033786810893203,0.26853079079416287,-0.8369768073986699,0.17249687736545405,-0.41165307132095075,0.6759947715348769,-0.27424866086351196,0.7460390113751121,-0.8429384349838414,0.16066085621265994,0.5376361908914115,-1.1673925421259206,1.2434670405773207,-0.3097124191607104,0.8943348365371387,-0.7809071840147457,-0.13121384943006728,-0.23781625721242594,-1.0990954523818723,-1.6961023928429781,0.48878834048892605,-1.2826439388339297,-2.3289259288216586,-1.6183431346636858,-1.4990393331231024,-0.8739591456778065,1.9336934966338823,2.182265549975763,1.1490158927990028,1.6393919370074712,0.5727870440219425,0.48611962278193876,0.19420782861150954,-0.13363792861839327,0.8906617855580109,0.18974020411471004,-0.3116223859021444,0.3832467943120101,0.7933426129059674,0.05041141578430688,1.1331842205586113,0.6106140591799645,-0.33349986140752896,-1.6826790521512314,-0.10219531485113098,-0.0044173365586116665,-1.2924086564359285,0.3489660010769275,-0.6107061017805836,-2.403929340852883,-2.2798914534534016,-1.9576763160070247,-2.2587323427574533,1.792614499516249,1.0182924756615659,0.35900249263639245,2.0276104947063573,1.9967175751452633,0.32581967275986723,-0.9102212339006784,1.3586627432904719,-0.261276392592421,-0.8729651921368483,-0.7907038944203544,-0.2879484527982149,0.5129666498372775,0.4460415922051839,0.2558201793298902,0.22569912098534295,-2.0016063982934793,-1.0976176767545125,-1.780528100024519,-4.507647638244395,-1.5618943538424868,-1.2305236198465814,-0.7294496229677077,-0.3734684756864901,-2.284588427434883,-1.1225762971043716,-1.3300034183426186,-0.8452109601166762,1.137186782843463,-1.0146162224467423,-0.7302180910391486,0.32618821759210564,0.5098654090707392,-1.642634102290655,-0.09614778988553699,0.8725626498977135,0.6795801430479076,0.47559583260149435,-0.19694534135479813,0.6254877827590204,-0.7955432668279226,-0.18519666887296804,0.9902490958019886,-1.027522104785297,-0.11103710415089273,-1.9790545230239867,-1.8993658417180843,-4.701648274068943,-2.4433820287444536,-3.5939306562259046,-2.646929826796585,-2.1996634239472126,-2.242341408324419,-1.4429370459078248,-0.44699242245006543,1.0138564195019277,1.9709892722191686,-0.48018018742452867,1.6145750403682295,1.8101600419885686,0.5110318284560718,-0.8273163027464887,-0.09370013017491512,0.8263132170083498,0.8460041381182293,0.41469025652357405,0.12080325922554858,0.6708352518910994,0.6682405993451728,-0.4294041387269794,0.36551067133027854,-0.136632677686479,-0.26062215732932903,1.616873955670719,0.6337231123355168,-1.9688981226453162,-2.6358091442424376,-2.849992802973252,-1.43706991475393,-0.8505154566078051,0.27962342080272445,1.1178643420509837,1.1794975028844776,2.345115970331679,2.5510546713563,0.2191367092423643,0.7577905976052401,0.022393950910505597,0.3493404679480915,-0.20824430679709519,0.3630389961981105,-0.1226556263922755,-0.03358556998441921,0.6381489833688035,0.34553367664756784,0.29092027703650153,0.029935535848368812,1.1948718613239604,-1.2114820024016222,-0.9478397649649419,-0.12964997875989462,1.0831012475710182,0.7206669117263949,0.919759501587463,-1.0639490572644785,1.4161612200200775,-0.9291062115433872,1.4713776751318117,1.7706723374722333,1.4658540237218685,2.6301311742380764,1.3775989126374097,-0.6490072763556859,-0.4770921942524085,-0.06667203682770385,0.4923120041926806,-0.1829685690337723,1.5486979633694735,0.6277978620344612,0.8490991764418695,0.47625131118327363,-0.779846241327093,-0.6779570648078455,-0.6808278779526539,0.13069847188254421,-0.33915313397486974,0.5686095542770809,-1.3998291432298362,0.08864398353099696,-0.8250598483273827,0.8716093783266367,1.044377724385938,1.215202111365001,3.151120459127553,2.2645354234798316,0.8315033141515414,2.734622685707828,1.476177872839597,0.34294888886963404,-0.8835086939514897,1.0086520829000327,-0.32431773941112985,1.3262567202145419,1.3944788050165142,0.002848473401715719,1.629369630583321,-0.6224435463258334,-0.8055872557110629,-0.6173010044107488,-0.1302643757635109,0.7948850039239819,0.047961759085552114,0.8372062835883537,0.12959554707728074,0.9900599495441498,-0.12571704508039375,0.1857839281418449,-0.4179472026354166,1.09902613791708,3.001660192446762,1.5026412221414203,3.9747399537588297,1.8353458653649581,0.8063233339362323,-0.7836765014240401,1.602466632999383,0.6052176397102761,2.0355463660276025,1.665502836518626,0.9376260015446021,0.12807739389533165,0.7969686588598176,0.7480564873271616,-0.29336602841243903,-0.4161598856706585,-0.3758154826933885,-0.64765804485644,0.7541913275361156,0.8339402779459211,-0.3992852576657522,-0.3720716036927335,1.0186583810530387,0.7057724450838644,1.129877339374081,1.6146311241847167,0.9995902977765473,0.05735249591138826,2.1829547653079424,1.3935005802640648,0.08974890693918833,-0.561084197108615,-0.9567188798373226,2.005135036926444,1.049602033364618,-0.5624952504796906,-0.19618903240744737,0.12844076577276095,-0.23449663670021223,-0.14342270120869852,-0.045556840040782975,0.7920464880239254,0.007648704477422605,-0.15523549919719054,0.5158593177829366,0.40196312075752977,-0.32953419109946447,-0.15879922710007577,0.06837926899995939,-0.1241135941743452,0.6499179143254071,2.281353263527551,2.534004799295715,1.893701369790782,1.411654882335132,2.9824969932808707,1.8188209706682459,0.8865562848952245,0.7474388286754942,1.832399509637312,-0.1730255012680747,0.4534529623421369,-1.1754472129131708,-0.9759738039442698,1.2839744171861964,0.6097767773158013,0.16277873120320457,0.5952663689838478,0.0778018778971301,-0.3838698041371796,-1.0976861022761275,0.7813344551193666,0.4146999713466575,-0.6433641276604223,-0.8423365168137171,0.41687680342867095,-0.43363908357666503,0.24610616105199412,-0.9233295808664029,0.1125434874626898,-0.2592770888220217,-0.5288684893117116,0.44139623904967734,-0.38459409749409473,1.982125395670295,1.544047143768597,1.2919171495202733,1.1666527491925154,1.3975339439670293,0.2472589841066864,0.16532069307160446,0.3865659634001672,0.6664276873263065,-0.69396421546583,-0.8471032405462424,-1.266126027347479,-1.2649870283390525,-0.3336263163698216,-0.7281707975898213,0.6577487207161116,-0.905646469754152,0.6143757160641168,0.5270357096073277,-0.47027071292358125,-0.7884843614886763,0.41626616332245225,-0.2863209878882442,0.09324578372039918,-0.44926387992285977,0.7429918523255749,-0.35395066597270325,-0.2139867435227742,-0.42537046887577334,0.41498782735560685,0.44242145594106563,1.2319185618205155,-0.43706955550221466,-0.36470498066812823,0.8317014589284771,0.7823694568880026,0.13245004996959403,0.6275984966005231,0.283478002262414,0.41259900137809735,-0.3821664784185806,-0.9632793717550077,0.33664021665484584,0.4358900535422876,0.9470479368862548,-0.18343641697433188,-0.9197412409254282,-0.19873875233812832,0.2747609094323509,-0.09640806087985121,-0.5079732690584167,-0.49850998688573966,-0.6867417471837436,-0.7759064230252126,-0.8308300596127788,0.6702885988049352,0.18887348836421464,0.9018359621902506,-0.37625645601697516,-0.40837776099348116,0.13912206409737476,0.6954300530476014,0.6123803756949344,0.48544875710999985,0.4956779327642816,0.804234939142526,-0.3292623867344087,-0.6315635148588008,0.5967433666398947,-0.7223953625501758,-0.7145242033802166,0.6984833197854581,-0.2405089027302334,-0.4424534441673029,0.03522833669064873],"bias":4.0495973647093315,"activity":0.00023018167918100545,"zValue":-8.3764114431977},{"weights":[0.9680037451624779,-0.24235514158346616,-0.7542208353350852,-0.9968650934539145,0.46360400453164274,0.9087488146852358,0.8324717714833318,0.36482682076794015,0.7117693342146465,-0.09133737556402766,0.3291621374695137,-0.7766576171243051,-0.9961460948849421,-0.6924813470223272,-0.15969234081964556,-0.7738981498666306,0.45457028328342153,-0.5404023232182067,-0.07003260170371028,-0.43571760583988794,0.0867423311193094,-0.19512798356993644,0.7267181921968899,0.5392693734981249,0.8003854703928677,0.6256463034776569,0.9507968594981193,0.6203721563095752,0.45314716707208147,0.04557774568988826,0.004312453131964045,0.5664463493526766,-0.8338434293440891,-0.14667103149070604,-0.6398630095327009,0.488230124815022,0.013610130564621861,-0.9346183673730284,-0.3459149402705547,-0.5194559051143839,0.8855444683605111,-0.7753883911718232,0.8663709299234001,-0.6945503209803158,-0.2739317321232255,0.06735752105475361,0.03799257475477742,-0.1898305152517635,-0.4809739836424299,0.5766785634273515,0.7679277396522991,-0.9261443666224404,0.18459237551565844,-0.6130088872459853,0.25918960102952315,0.23448993285189346,0.9056744662172358,0.029475881909759583,-0.5868862516421633,0.8381693873428815,0.8237637907845577,0.3527014950273157,0.8078995011670926,-0.043312351273856436,0.29603647201716327,-0.8140128677568497,0.7108531896069447,-0.6943696069532175,0.9592531934672824,-0.8282627383962847,0.3327518772269105,-0.9597537129818388,-0.33912301122079075,0.018283858004937887,0.5579779808698978,0.8069122879904287,0.14988001441275958,0.6006398881110786,-0.8378517053594939,0.9793894747963763,0.12235987059291502,-0.3673447985515419,0.5648379216036359,-0.329603763643354,-0.4674680920638159,-0.7420245865282356,0.08290256578213517,-0.5208413407892518,0.2601764878680396,0.21404751258375326,-0.508990860466983,0.4635762013170545,0.49967682233078986,0.8629030580016511,-0.41598339798633255,-0.498300778785539,-0.7015917238133936,-0.14153702426764167,0.2544718911933197,0.25315134249061166,-1.4616779632162875,-0.8579973037364812,-0.41593420142990084,-0.8274186213955754,0.2533106228385627,-0.21996348263126428,-0.01707343728176433,-0.4978379427047284,-0.6813055903202725,0.23388249275832562,-0.08495781801572777,0.8172767093592368,0.48684760343840416,0.27880625903607115,0.5368575753198006,0.46559996145079124,-0.7133018103153121,0.17853615756783386,0.7723456246408911,-0.691865761994642,0.306478149851417,0.33769084982412173,-0.4864094182325901,-0.7027672376893614,0.17912895473782575,0.8691952833578357,0.1941996607594132,-0.26363237455554733,-0.8471776803493736,-1.2618681659953876,-1.8029659792339334,-0.3752412318097732,-0.209847393676844,0.43127973618251253,-0.42757841286565623,0.4645407532623251,0.3729998347048286,0.08817707199032035,0.09718790512150867,-0.9474696898905264,-0.1201798983247957,0.25753850520590627,0.031615880384910144,0.5356434369340471,0.18375543679291956,-0.6118181120779652,-1.3816125871930633,-1.877214358904359,-0.9681502234023213,-0.2703636898564676,0.17226214767684786,-1.4733994070478988,-0.9346087080992825,-0.7995710262057971,-0.014073984421879467,-0.7928517063203272,-2.089924161070976,-0.2605954635780912,-1.0098438819750264,-1.522214479425677,-0.023367098320072815,0.3864011137091426,0.0072910120159036165,-0.09591440388243704,-0.7212542526027919,0.8807828127906472,-0.3896162203543433,-0.800574677819676,0.8763291926454859,-0.08619615426293858,0.2034705316435222,0.44397372208206687,-0.057129015731580836,-0.15166808447066968,-0.6704911664044765,-0.9513447576669816,1.036222446004401,-0.27353660524287027,-0.213626861794868,-0.6874872695472367,1.133210659674471,1.832543882117639,1.2012597879979785,-0.9978936164601763,0.1440307566264481,-0.010329546416150805,0.5037563276617727,0.36082945222339763,-1.2110031387691012,0.5116190852621799,0.7661734691385513,0.5444021237786962,0.25891321809521267,-0.37701524823924654,-0.16011413538275607,0.03641484813418584,0.011391494639003909,-0.3922821348276035,0.5974777588369465,-0.016250400680552037,-0.34307536859029214,-0.10608405748186185,-1.00119859417668,1.3732794549554028,1.782518846995005,0.7898404040621312,-0.3914378239757054,0.7393388868295597,0.4548913239379488,0.9653624309119617,-0.3371061823766678,0.17581968808833598,-2.49381001982971,-0.5367100274021597,0.17425206135402613,0.5396089444330924,-0.8340780990889199,-0.005904040960779007,-1.142518714326697,-0.03737034365558397,-1.260671073419879,-0.14123544368814014,-0.9943260044968726,0.18259367676355479,0.900417147854469,-0.23116819212456752,0.11828613212944275,-0.5938158621792582,-0.6035229160561778,0.19024568173339487,0.6828116056279631,2.3494536929077925,1.397010331342599,-1.2178172693398357,-0.6564907556054302,0.14209345877913318,0.1940250995156713,-0.060234591213038514,0.7799255226430483,0.7035570856278262,-0.4132037481939509,0.5502311124761731,-0.544090144717784,-0.009569317861334073,0.384729422577857,-2.620163941075171,-0.4946204826299467,-1.1195199113690646,0.7849615280903361,-1.311321160273961,0.2004169224171197,0.24341228955278943,-0.9512776368592345,0.8147401625404694,1.1690463306044847,0.8509291435647399,0.23738977653143836,1.9628447088684347,1.222050238480519,1.0435091640405385,0.4303533484361144,0.9439875553710658,1.6979543740638614,0.759289599627585,-0.10470005257716797,-2.4718067645656863,1.0630236364901424,0.9568823737644666,0.9144929159357764,0.3259915781676492,0.4499704889669464,-0.9706293884077047,2.2589356113347754,-0.5534147362391821,1.242723082613515,0.4228576430471961,-0.2948989155705361,-1.4749927171221382,-0.5323432730030219,0.6201804026376867,0.060929779962052955,-0.13311063206599955,0.09168065728639872,1.3764365620935952,3.1355734396013695,1.374179999547878,1.076862810413408,0.9597108643802544,0.6113966173299632,0.7982495886188016,0.2920615771488353,0.9032178465593723,1.6492570909167437,1.9214803897562318,2.1661576470086708,0.9335111036671927,0.26948842172008897,1.7862579197202746,2.0064497830130685,0.26815679193795966,1.175130045962013,2.14582927756395,0.8892359689753804,1.305307715463842,0.2458166032875967,0.3096701262090514,0.1902079544970352,0.055895282158557144,-0.2921472871463018,0.04517391905115185,-0.3668918379142254,2.238141224160438,1.4014173445792035,1.1665653125554376,-0.04259779746929805,-0.795792429590758,0.9427995660809628,-0.6118089434943766,0.32450889761742346,0.5676428273454603,0.27579340608114633,-0.31999425314209057,-1.3044098085077618,-0.3354225742702798,-1.6454996165906928,2.3643252490487376,3.7744272863993684,0.8565106506020285,-0.3588742798090997,1.1243890948519994,3.382219880268754,0.699879088285642,0.6208795064585423,-0.36502770842217946,-0.7996459296370634,0.4035671909793802,0.4511422490162622,0.8536789574986238,0.8903878432145396,1.9584433603393765,0.18859007556077917,-0.7244704052170429,-0.8376516047027723,0.6794953370309204,0.5541970382253437,0.2976908301872297,-0.1655364330990904,-0.21694488390117037,-1.4407190903802558,-3.3789385396240483,-2.8534734015654792,-0.8370875560978877,0.48951831006025615,0.049364817639181185,0.44968803635316795,0.5323127042833791,0.29544320304052785,0.37060215986339856,3.1582182220478554,0.007506868151069734,-0.6466212862598869,-0.16228100902633796,-0.1991301247921695,0.4992108418327126,0.03655703434293489,0.6828593500511088,1.1863776950573537,0.2939584051436853,-1.0672477164718384,0.7317826486014568,0.35187825467676975,-0.5955768551371745,-0.9041721599573881,-0.3018033296439816,0.30624179773420007,1.556405958986247,-1.7634266381402302,-4.892138955985588,-4.189430712730883,-0.051580487402088204,0.598412250911271,0.6749924025395808,-1.112650983582349,-1.1187145476315037,-1.0534929028327993,0.023430144771561315,0.16335025001968054,0.7540357290060863,1.5257443666836505,-0.7983962838749793,0.3412625042888644,0.306047197137286,-0.3823809757864667,-0.5829892737292968,0.23403459977209629,-0.6638811766174624,0.34782820272918674,0.5379735602280876,0.827808453766799,0.4534040063211409,0.2554343757177241,0.3827981669379587,0.08925582646820913,0.5396035819663655,-3.0903878893322605,-4.92036318802759,-1.264608508610905,0.12909648864887804,0.5226860766373537,-1.1848826324765365,-0.09455447078822524,0.6696775497831684,-0.9770283891930596,-1.6124066371076269,1.0229582584766987,1.7742013017334903,1.3233738467626937,0.7940248112565385,-0.22540523678061275,-0.08560096255730754,-0.5199146718726508,-0.6400749974926391,-0.4272524441541862,-1.170631803500061,-0.5210301103456837,0.9444727162854752,-0.09350182817799846,2.1663716464522826,-0.7268721753615194,-0.667218560246834,0.8757049283932022,-2.0354425123161786,-5.293773854945488,-3.8721884328929175,-1.8368242489808022,-0.6312454122950716,-0.6394246053121208,-1.077133915898179,0.5370200184329726,0.8330167530727836,-1.4401558133835026,-0.646259267186967,0.40914307063810607,2.2108025500803623,1.629105644095883,1.0112672913852812,0.562658964042339,-0.8681598677049835,0.9255953289129342,0.9444728310540667,-0.7150165105572006,0.28473602247626595,1.1303695234418414,-0.528888922893143,1.3161468057660557,0.8053429859114547,1.7742870993029467,-0.005784393930940387,-1.642842870631521,-3.6053333402440897,-3.854618917028861,-1.226731656628636,-0.923902119308809,1.0899174422106372,-2.180027465600932,0.15708054960988224,-0.3910383467650882,-0.07853261389756408,0.5703907408802665,0.3877178271902068,1.4799025371360555,1.007737039297233,1.6093245607232545,-0.3849538353288524,0.07905746414188954,-0.7896407220124315,-0.5504849293505671,0.4881829735840175,-0.9080429571575106,0.7126585012437037,-0.5833986526073878,0.5683769176882421,0.9071695320654545,1.3431239544661544,0.975696163506425,-2.4781161305633086,-3.8956335671248854,-3.8589784067742685,-2.23096112821419,-0.48187234717899424,1.0931273245992164,-0.06012380351250273,-1.2144740844391344,1.06739783141964,1.5480592454531115,-0.873774758538393,0.9080160030746737,0.9092331821549472,0.5169064146962199,1.2543969377510944,-0.8127422029919791,-0.009424736486793641,0.19799255437759083,-0.5700607161749909,-0.8073233405487334,-0.025560241778904653,-0.6648960509744246,0.19430338579626688,-0.4566729812914993,0.47663769692884483,1.2943476954463873,2.1842964111788454,-0.5286466447394513,-3.4542999522916515,-3.4384474249604713,-1.552743141569306,-0.86074335786931,0.34956432431202,-0.037898337876317745,-0.8736726597548106,-0.20639698754964936,-0.7194379649964872,0.8196876144717335,0.24876724145348778,-1.9809898231111172,-0.35872394480358893,-0.02819275209930497,-1.1165985816211796,-0.6034426243058636,1.2398744996302948,0.09500672420912595,0.12235278869690659,-0.613856325532331,0.554027107766434,-0.1217639746966274,0.3754291287755337,-0.44909808762878706,0.8046742460493053,-0.12068146328729808,0.46055169548689745,-1.1461635624998607,-1.5366775447769008,-0.9032876816779964,-0.8848680328493199,-0.0589774972894804,-0.615269300109151,0.3976236273217642,0.1480903987493844,-0.2652714602694833,-0.2166673223280946,-1.184641621354051,-1.9453205945680507,-2.3702296518638346,-0.9408390583203456,-1.010086491869713,0.011871931090124825,0.6982372973873159,0.6577047906875899,-0.15694156966268955,-0.7316853139577999,0.9673647237247964,0.4177419739651176,-0.6653782956130238,-0.07094911630657305,-1.2278234419733998,0.01831283348988035,-1.5231831597549121,0.09072017603679676,-0.010215847273323557,1.4299284238308498,1.495844708679557,0.20207112839518832,-0.5608001386500537,-0.44522556291294163,-0.4224495756967796,0.42644142165366467,-2.3929515904636594,-2.032813349309823,-0.9361277526049802,-2.3608200883737753,-2.0991002877331324,-0.8706868659304751,0.01708366769114938,0.18967427268230846,-0.956241875377262,-0.6683155653480044,0.888260857924355,0.6230599582962489,-0.9876069225305542,-0.34405330340571005,-0.34681268616740546,-0.29180871734290503,0.016354565013708966,0.6219957114933644,0.06302074509853274,0.1876651564955902,0.23932451954250372,1.8306302936680734,0.1628699847757614,0.5477637348530895,-1.0846584984925496,1.1624159271943166,-0.5051032737438228,-0.6201121511451257,0.11898180649718268,0.26410817954780613,-1.4542752004475656,-2.2271967692959347,-0.15813149533332443,-0.22848473895936278,-1.5684384313968758,0.2169792074530293,0.012977837078410777,-0.30894767847970694,-0.20891025626779752,-0.02298342287772659,0.13381876840824614,0.0906936017067852,0.5120931435972901,-0.8795856555727056,0.406076739713919,-0.6403216852486846,0.6663643103567856,1.066913185994593,1.2765508430534704,-0.39887324870220003,-0.9732782147990602,-1.0098735903029603,0.3725634056646567,-0.933192126715542,-0.8341428454287386,0.7567899727422976,0.44547238033385705,0.04106599004404756,-1.145592732646291,-1.358043113791174,-1.4829035445632617,-1.69994745955654,-1.415798048269138,0.514094089857492,-0.6996531826412972,0.4915904726857714,0.9330531178360024,0.9816532812783763,0.7467732816868557,0.8314223857125334,-0.34275361689013883,0.7686945923220256,0.1490235592609964,-0.3964104833713922,1.6160090678368209,1.2370186997056767,1.0121422407531186,-0.030341756851074438,0.4202332474930718,-0.7809939553544971,0.9797710837391739,-0.5548706602254074,-0.988069063948844,0.6553786237443712,-1.021457857575859,-2.8350935161706485,-1.22251459599327,-1.4269562338048623,-1.8782344341816706,-1.6242494756766335,-2.170835241697818,-0.02949799854140607,-0.7362300711326515,0.4464945504667813,-0.9468290723116933,0.9814933036850482,0.09642490933519099,-0.5964733779246134,0.1828980303315908,-0.46302875223218537,-0.7478553859639047,0.22833893804309477,0.4836759296434025,-0.18473917022940814,0.10729486092277642,0.7629201100589769,0.3951800646606656,-0.4662448196921318,-1.1551684303153085,-2.279496214564573,0.6706219295915987,1.0553466178432935,-0.377375130580051,-1.1402741415732183,-1.1071447662224139,-0.22882905001484685,-0.3952941797225852,-0.5975801105969529,-0.49983409286664643,-1.1312227422547154,0.425731919149992,-0.12276266021980783,0.7640256121614755,0.9876314271644309,0.2218731644491836,0.5920617119175646,-0.17894166441031656,0.332713945225243,1.3551325597371713,1.779654204091055,-0.532626411124665,0.6304792615013243,0.5488845121850437,0.9576278785385355,-0.12679156664395286,0.2747555929500112,1.4133045398032358,0.3258284538248027,1.7183095659500327,0.5330647192558883,-0.05765205060235343,0.8809920112248443,-0.15357209523377538,-0.9769026341598845,-1.1922969503921048,-1.377490077223271,-1.1277718792095053,0.14047944464780088,0.5365255224802371,-0.527432119303866,0.5482012051671536,-0.3542239036251136,-0.17920807297917918,0.5694504553013631,0.6660951535043029,-0.6089068853353661,-0.6353461099687411,0.9604146843539731,0.7244565929760186,-0.3767107130138308,-0.25198480333426937,0.751353174849586,1.2996038423882899,0.37518605955764456,0.4222497277570875,0.04981143081884395,-0.3434043832226072,0.04142993894999093,0.7039138115652814,0.9464209892666005,0.3913210847255221,0.7058356059405793,0.020512610972707002,0.534920981356604,0.6594036080942784,-0.11077355033409876,0.29208584512196545,-0.8557033759773196,0.5572896815594017,-0.04075926278949282,-0.808850641656703,0.4296459178789127,0.28225562431878126,0.10917487054305841,0.12714206341652678,-0.9247841503884755,-0.6786718471469737,0.057843743737547325,-0.09738367303172356,-0.434765437603288,1.016341108199741,0.8837588597707153,-0.4918213721504129,-0.7948245311895393,-0.47043956521594266,1.183670974820468,0.01438154695135448,-0.10326730926900494,-0.668393356863812,-0.7561087910948436,0.18151546270879335,0.8307719108827242,-0.21957460623920005,-0.24688771408272236,-0.817254154741371,0.48554254564826005,0.08321859738925896,0.48869083365910493],"bias":1.0880323698648753,"activity":0.00015155603648879965,"zValue":-8.794403556066662},{"weights":[0.7451152431271044,-0.3856392442816472,-0.9027358285757079,0.6762177933576545,0.9970021528496367,-0.2154949307150562,-0.6497243908893444,-0.5750366007895304,-0.22463735956734165,0.41537512280702815,-0.15338150091864167,-0.9034269847252405,-0.5650530853159208,-0.7250144573989612,-0.5302530978262698,0.464599937704155,0.9710944912594912,-0.8255858173011967,0.5005930987071299,0.5428548883750337,0.8317506570320656,0.20603914952065683,-0.2037097898700404,0.245175045531699,-0.229387499667991,0.5218996958652742,-0.730097347410688,0.331668717191516,0.08125399607960526,-0.9315234195232711,0.2680155696863502,0.4569373433219863,-0.03752097659765008,-0.21806350183200474,-0.7070327310577342,-0.240512713870195,-0.6108042555750185,-0.2115707457517469,0.82901563124456,0.6848148603379436,0.43388408966733333,-0.22361411424146818,0.06318816629277003,0.9744939795529481,0.07844227194324159,0.14797907297117086,-0.9264129673485147,-0.2310946255342908,0.2376361195958862,-0.4518918275844001,-0.44628441948995096,-0.7082842539825378,0.8548903927222393,0.8835484624110648,0.8083758583307294,-0.34415868084048107,0.0012784778020336063,0.8990500558930119,0.19888850402922742,-0.16352313956617381,-0.741611935237464,0.9568001208639754,-0.8733114641653371,0.8877578258443193,0.6859266651833297,-0.03221621077252264,0.5797616782181959,0.10652796715957667,-0.8016669649480498,0.8869436821212339,-0.6336423607903872,-1.0407973719896755,-1.4246687400542823,-1.0616606393982146,-1.1052010597174111,-0.3889065459034047,0.07209542655755431,0.7712185398119007,-0.0693855123263768,0.22715798532739367,0.09665466695164737,0.29573588889589475,-0.22430580637310227,0.3726265234527446,0.9888097722629343,0.01706237449716408,-0.30248921030797904,-0.5801273880121616,0.05260277143880803,0.8927871243924734,-0.0674883419157294,-0.14031631437083725,0.02773919459160333,-1.46363448360387,0.5789058870468441,-0.5127469274702485,0.4308762737710295,0.5504459079664765,1.1138589765298497,-0.1588552220100041,1.4438947399019293,1.0105148199919087,-0.48913496576434984,-0.8536585482951685,-0.8391838522661245,-1.3827793177983698,-0.6499909838608118,-0.7242718734758037,-0.49364706900245175,-0.38631979942913697,-0.2202157129352451,-0.48845000774821656,0.8577642326859714,0.3970675239511112,0.8269625007511285,-0.110406148953034,0.4252168816791919,0.6234092786298144,-0.39088981141230983,-1.3418561134816596,-0.29397361251001874,-0.39621623985810767,0.9349832404850944,0.5746427419061914,1.3006077870938084,1.3571528861073738,1.2305524252537032,1.4398116843249402,-0.5730745986359018,0.2764677203914112,0.4816911038995378,-1.1444936073266738,-0.18485316981392105,-1.6392597647403433,-0.49049802687529676,0.15773864470849727,0.7111882897534911,0.12507985140821257,-0.07823385426362267,-0.18513979831127925,-0.4522737099249552,0.6296484252842909,-0.9660410445292605,-0.41227800384716934,-0.35843084605907233,-0.28545336470215943,-0.6015328827062147,0.20189638234970916,0.123596351641644,-0.8012093895365823,-0.39832308669718663,-0.23845529078138752,0.3198840496671546,2.028509791255832,0.5848462768841718,1.2152963609878615,2.14911828993413,1.6191621796091307,1.4504107173397887,1.4701368944804818,0.262375667995623,0.18049895386205875,-2.396437760992109,-0.793581007888218,0.06781522835742725,-0.09450182873375863,-0.7493021118424957,0.7829437493965729,0.6103163248124437,-0.2631834936186719,0.8737760410067301,-0.6565307331828417,-0.09492803256072609,0.33676071421849524,-0.7761184307768413,-0.44499759033190606,-0.3817984702877886,0.2843083634669815,0.3568590706702562,-1.3352317978567612,0.510790340214765,0.6200715824761054,1.3307693614210754,2.563134181828229,1.621710672792267,-0.5012477301343485,0.9150535977900534,1.2468530924311985,0.07208056242412134,1.7371308107508099,-0.2950705168927196,-1.3824557732522755,-1.952913058854325,0.23543255850851075,0.028834145799343437,-0.33183820117379254,0.33400475382769906,0.48350944048921674,-0.7803656142527724,0.4886496396281799,0.06621326531459451,0.7334085557352944,-1.1112834853542184,-0.26106385269149057,-1.1111656013788525,-0.29831753198698524,-0.6968867461612,-0.18405576402064297,-1.3365712358537505,-0.8130473631336406,-0.9478663804989333,0.37124538559695436,2.100565168786727,2.5105413553519815,1.3005417986746866,-0.15519456327401884,-0.2872274035298449,0.25348327647902924,1.450727035032506,-1.278470657032751,-0.8286509158657576,-0.3149884292002905,-0.05626662724898846,0.8185810120406102,0.9953145645658192,-0.07747309838086434,0.1804854783363157,-1.2126001948186698,0.3315118004172003,-1.4704754763766126,-0.6285106412447797,-0.05330831323695931,-0.9600434510423785,-1.3627410055957767,0.2633537736769105,0.3891371469734299,-2.013812884187297,-1.5703851698323585,-1.7239025855200045,2.0417450245508393,3.0117607948823406,2.1482893722108725,0.9720894240541006,-0.6072166834649967,0.47813308824860146,-0.5965366747520695,-0.1614571361581007,-1.7394436819680406,-2.4548836184809333,-0.5413516113041854,-0.5405391792678399,0.6975199842807062,0.37857679321391624,-0.4561453812842436,-0.9308264388661869,-1.8021463685071677,-0.9144276662387627,-0.7862121657689792,-0.20918998006955503,1.2679730798075137,0.6021047854766997,0.25447665265927966,-0.7530813503080102,-1.4044671702174534,-0.4680293812051222,-2.5085192951996307,-2.830731502104267,2.425505323798306,4.936570738707751,1.8546944456281844,2.635291374742477,1.0730166048663459,1.249780705370371,-0.6820764625796802,-1.2539346413016172,-1.235598596368045,-1.9704169441473545,-0.43106474426252767,-0.7748924753426524,0.1399959751327857,-0.16719438668546038,-1.0253667674373077,0.28612053773335355,-0.9250323669390145,-1.3273473867786563,1.5342823879579326,0.45147346934806964,-1.5528676633536636,-1.5708175833326865,-0.8909760161549495,-2.8071680304504794,-1.4842269749314418,-0.1563217592294918,-2.2059119433601926,-1.8139953616022704,1.2565918446260371,0.4436371732672406,3.0231439801089204,0.6657277103641814,2.043735513093491,1.3423808851201122,0.9226258550371468,-1.5447099597933014,-0.8941282573194445,-0.5564885478881407,0.3745366677259382,0.15952367223835667,0.69274703320925,-0.31561929050488313,0.40995791995801295,0.0016423202302451032,-0.6937694629854826,-0.46237103035302435,-0.20518721433978912,-1.0851005856824765,-2.4544350519501044,-1.8593360159906824,-1.533047777770958,-0.9248071798713772,-1.2134764483930336,-1.1699125041121836,-2.3632922717719134,-1.913566002255559,1.256707750238863,0.7843719610264825,1.2058457586915536,-0.08557320780743259,2.2182638878613123,1.4689991293258828,-0.4600777845911479,-0.4832453716848159,-1.0257746622162411,0.3244471439929076,-0.8623924199514417,0.027109302981028892,0.6376722300773803,-0.6614296553733965,-0.22743424555869676,-0.9699738155255533,0.5301040656289787,-1.0174640280964151,-1.100420041388578,-1.4077004804036726,-2.7476570979991632,-0.35457400962537183,-0.12014916104557312,-1.0666181585552956,-0.9169583482340644,-0.2669291748208135,-1.760896884599395,-2.693571779616537,-1.7816894342488308,-1.4361201819392322,0.42796686504428405,-0.7091740553896866,0.013958519004153663,