{"layers":[{"nodes":[{"weights":[0.3268251784100631,0.5573796603321806,0.4970007825248244,-0.2848186212455053,-0.1716637760747184,0.24047006905113522,-0.6467163493125598,-0.9445153457388051,0.3690672733131164,0.751701782372399,-0.11294645199132836,-0.17656128801897397,0.43085247460630205,-0.39720225234637363,-0.40464474803547157,0.18158376880533966,-0.5128431392960597,0.09737255429498015,0.6826838174526952,-0.38983570425365066,0.5545767121624334,-0.6618487399149133,0.49698677672351144,0.41298207928103947,0.7355196268699067,-0.24392186915307823,0.8671513330129934,-0.5984796982097378,0.9574210219960202,-0.7038644214592757,0.19019545391388748,-0.7496460308888802,-0.9784995176483937,0.9845559354278843,0.16010365597295761,0.7115735489517088,0.6456885631754679,0.8239399401194161,-0.6118682200225408,0.8680688618828125,-0.8322548422028417,0.570598712291341,-0.5939514248092065,0.507529442812305,-0.8240114084580906,0.5768226656251532,0.3393684044762231,0.9034351909480706,-0.11415042225673788,-0.016682087552910372,0.9564506187130833,-0.16386196307436432,-0.03524683595912359,-0.48557881882340137,-0.535763371861639,0.02494038570251389,-0.17298200395997787,0.8307945823069804,-0.6026597764696588,-0.2516894134135117,0.014212490942385286,-0.397286536535162,0.4491783530048042,0.8053363794276173,0.8817763901086001,0.012973651352407958,-0.2402546744994744,0.5323225330239274,-0.12030741667277546,0.16157123059135547,-0.4540729600384321,0.76181602997427,-0.8265250643779045,0.19596968731396974,0.07055168621133841,-0.7570768120048096,-0.7610136705830264,0.8277076954974806,-0.3323542187579566,-0.642535812279287,-0.45262723795655296,0.5856601679120566,0.4265573417590014,0.613343263761768,0.9559608403223301,0.28764998138819253,0.9478715474031438,-0.38770744949778413,-0.22051970079680108,0.2693091311906465,-0.24930824806694504,0.3563918732739499,-0.5360839480291218,1.0572317540635168,1.1080416047077633,-0.30055416159913334,-0.55515549102691,-0.7843041095724875,-0.5970433429082965,-0.537567304866262,-0.4912763176735913,-0.08902078406820571,-1.3295215479278082,-0.07885110059719166,-0.525561620039734,-0.9638294836842195,-1.434294810490523,-1.044984607159386,0.9709556273641639,0.28019626086095917,-0.378374015582601,0.29763151607601035,0.7605496786148631,0.6542114454272023,0.030912122284302956,-0.489302348756377,-0.38725224557362653,0.9159810196614352,0.9912461327146495,0.3348252435658936,0.22460171234397008,0.7099484459404974,0.07978097899032321,1.2405199788416383,1.1146357368366728,0.1901257735028343,0.28501704954290774,-0.6058339529668528,-0.6245868646821496,0.47559025868102023,-0.8477346939156047,0.013481029928983763,0.3998175157811394,0.3827255982356616,-0.49079667983888997,0.36829659809205717,-0.8850461313502501,-0.7573821740025068,-0.33499045650648374,0.3311013916159671,0.9463295778558369,-0.777890635324821,0.07236815258837159,0.5391996201481624,0.16227160120969375,0.7179401435823245,0.31072743412430553,-0.18083559535571203,-0.8001242803616079,1.2145187908825628,-0.3371297975188686,-1.012565316131008,0.03641965939236323,-0.18838826301186465,-0.3499976013299681,-0.40521527526680784,-1.6300691975189758,-1.7691930267368643,-0.18032771372886586,-0.3516974740580314,-0.415550725195315,-0.566017384075136,-0.2140634367518121,0.6667838505427915,1.1834352906300778,0.5096616410198997,0.9063007171412636,-0.7921474914203809,0.07847393430706884,-0.13409925000125922,-0.5586470824133654,-0.5301835680385507,-0.2756839681671025,0.17621297242505718,0.46373318167591315,0.09821183177375876,-0.6561528231354219,0.6145756131710917,0.497304546374609,-0.8919428728516836,-0.2552170239768313,0.15082682575536743,1.0689468081006972,-0.7649291069854381,0.45618852137011384,0.957735572866375,-1.1370235423142234,-0.9196822966459784,0.24331315063468018,-1.060809625410604,0.45603243684950323,0.8714350709435716,0.34371201611377705,0.0623760537456842,-0.34369630938777435,-0.41577315699960476,-0.6093107282695646,0.10968319354585301,0.27017805694860375,-0.5412170221924884,0.9297151298140218,0.09169268965693977,0.9339090058759938,-0.06912453784164599,0.1411821863976765,-0.32793262226562714,-1.0365437311345995,-1.4171225703054207,0.1715804866539891,0.04508765413981557,0.12850568652645136,0.425883935648033,-1.45934848702167,0.0944152121998279,0.6048683395202333,-0.328446180058778,0.33386542794552226,0.01985761713002228,-0.8402984956600417,-0.3346289452305153,0.8145235515505842,0.7160661312237682,0.6190696586735828,-0.9328387809176788,-0.9298573766862249,-0.43047599693654065,0.27523516893656236,-0.6759894273840086,-0.7289096440369823,-0.22104889633172015,-0.9531183942950114,0.04545448974037954,0.48476615401260365,0.55840196015566,0.18326518696451768,0.09067598926906177,0.4074307427667763,-1.0731984157845642,-0.059733911200465825,-0.13919064242313697,-0.6981942839166756,-0.23783482488463234,0.09492379895658153,0.4574844669472095,1.6110177515304884,-0.1415503697387776,0.6858463551691582,-0.23506788882891574,-0.3711718181181235,-0.33482977776968886,-0.6091680266862758,0.012194379139563045,-0.4422931945331837,0.9423510569940104,-0.5072771409330813,0.7592346648852959,-0.2068535278017467,0.43074444744453605,0.315218496443643,-0.8708530639942024,0.09029509682121431,-0.7465052923913195,0.009850938845652421,0.236844086881418,-0.05196333767337215,0.9754371321649148,-1.0221212877986923,0.3701748181093125,0.18451291160855646,0.3656125096832918,0.08776120950010145,-0.2362833992635181,0.7572942421188501,0.21109269231309705,0.11227485013253974,0.6436297763736324,-0.015433643715217382,-0.3000146821239021,0.2728662892948664,0.3010984238743281,-0.7801778042096301,-0.3260065452789195,-0.9176286911009429,0.9639265754264116,0.08028796747939251,-0.515322569424983,0.000989562707307268,-0.6979490647680949,0.14343906597918324,-0.48156845771519713,-0.4437233955877507,0.9943310603393519,1.2592485066724572,-0.5943125856727541,0.4895789015371622,0.5576096641623252,2.07732333161093,1.3912858341907752,1.3332844517728757,0.9367180730537185,-0.01964867774843483,-0.07569980579552267,-0.09949161279591781,-1.0101206112435035,-0.6549542469015376,-0.2064026703271555,-0.4908307677498035,-0.595524824368212,-0.035048610610112885,0.4436659979062013,-0.3771465385919532,0.48637780534557234,-0.04044751266031792,0.32573749212837727,-0.02104707437989168,-0.1262988492787003,0.27561230535939407,-1.3328249179385632,-0.05205116311114631,0.578319398868565,1.1175690357287147,-0.909660383740455,0.07259053708816465,1.5495599265786397,1.9895849383999766,0.8647910784762202,1.2395719776081031,-0.566210922287747,1.1634268544480322,-0.14277905534098187,-1.5698965302710204,-1.7820502453239933,-0.9466564561337157,0.7213610930858152,0.24251523247563994,0.5991245843818924,0.857101022843505,0.09701632611733466,-0.8193277509560368,0.9484375139903457,0.1610190177003247,0.4714237871631266,-0.042403560394910195,0.2526279553858361,0.6833439535264828,-0.07572946092220036,0.1671304096457102,-0.6996838886242757,-0.08913091609054147,-1.3606143545689728,0.31692789182676046,-1.0076299499918895,0.12309365340725123,0.29520342724075604,0.12750516276665888,1.0424160819964723,0.40448366069443675,0.3202887382645005,-1.4012148891945988,-0.05050178690518821,-0.8483393470735893,-0.575350100390428,0.153499763852179,0.8510586211419644,0.05237630483701938,-0.3469084827898274,0.11193714537718566,0.27724464875077165,1.0697368263164944,0.7024318355421809,-0.4312471923593964,1.3091303955303795,-0.31256089201669773,-0.026423336646046246,0.6632121694200671,1.1099926212018283,-1.13438151516551,-1.0338729016221198,-1.1211112919304094,-0.4390351099585139,0.4957391780624824,2.0331107533328763,-0.2997031213986109,0.8881691395998124,1.3975002071587486,-0.42478273835493185,0.5262824722039272,-1.3161887544687012,-0.8574532971165991,0.04488609121894339,0.757579835359195,-0.19507153628471174,0.42009299536485,0.9554089627980668,-0.06457312407027899,0.18605643003009809,0.8545210400075373,-0.13532641334800916,0.4135065464076056,0.302497946249474,0.471158698074552,-0.6254928623106899,0.37283535958311415,0.6654774254568168,-0.5353701872771838,0.12800942433489904,0.49929847009120243,-0.14474905954895867,0.5360456977087621,0.6265204668485352,1.6372208030383606,1.3958079290346295,1.0800013747952482,-0.9365892343718617,-0.8651446999316009,-1.4822183984074062,-0.08825144847749455,0.21966595814891604,-0.7170261468437525,0.6177868307136398,-0.8314884840926795,0.8512261087791856,-0.09200571585718184,0.1511884450058944,0.8456092536916189,0.16070369686669111,0.6398422430191019,0.7404370436094483,-0.10207438949670616,0.5780693152431945,0.9169309188913973,-0.3751470765219969,0.28229423841674145,-1.108552740353756,-0.3813266152210685,-0.6495001843286381,-0.24457666819942303,0.48343441189116476,0.13553738805807708,0.9258790063592943,1.389323289708738,0.17490359730665603,-0.5828492533078917,0.08422531551100118,0.575225741842224,-0.5809479781471469,0.09994238420519311,0.9304031028622802,0.5641712407243205,-0.07091944112804534,-0.1135005700217122,0.735623969094038,1.2869060501325764,-0.06560529607542673,1.409706731599296,-0.16211788641823863,0.7150147392949876,0.5491740028956753,0.15930605822037489,-0.8802853055982806,0.13056564376060992,-1.2046994552041486,0.6278496095888012,0.650940141838485,1.1238588050825764,0.2975365085799327,1.581783521203973,-0.13244723526188773,0.2452914680030824,-0.5166585792590965,-0.6562606589514902,0.6242385111027172,-0.22929147893137833,1.2962912692598407,0.44966247575262397,-0.5323741888531451,-0.31356196879110687,0.08139446559600823,0.060273103778501036,-0.6814053582944002,0.9521031267202461,0.7818499920144768,-0.727893504737944,0.0072759330585392,0.844009506277183,-0.12912702388954828,-0.8033388929916975,0.6367497544504627,0.39446506035339657,-0.3310148247071755,0.3131725791055852,1.6485376073904774,0.8544921736857959,1.0005635130275508,1.366587136829308,-0.7561758786802717,-0.33075650199936074,0.5050250165434539,-0.9100970102444068,0.8760572275617616,0.9840060555724622,0.978487855193587,0.30956611103589765,-0.7742875112151745,0.8041189639855335,-0.25165676995251696,0.39519666027912426,-0.16545643638619273,0.4177780693517367,1.0798821377990744,0.6887722655061285,-0.7663603757878013,0.19413762729359174,-2.1543803138254534,-1.4369854510812219,0.24546992204003992,-0.14281058637874355,-1.1138839362951867,0.606484693203677,0.05424957580973133,0.43685049672131554,1.1130670123489697,-0.326347048425069,0.0036136585303066693,-0.7852424545531709,0.6012426493006761,-0.663958827476453,0.1386712984906347,0.14099224744157507,0.38312076383720806,-0.9448637488650453,0.29108326163125503,-0.9603594255951133,0.30546396187815095,-0.43735406324574944,-0.8171172512142766,0.2048375293131537,-0.17107150328609289,-0.4194805842841058,0.4744748028747325,-0.960701980523358,-0.09720787896667864,0.6034748815981764,-0.25776048715354416,-0.4462893851925931,0.3701872230172343,0.43485259361945444,0.8256323185756211,0.17923032211796922,-0.2559289821418843,-0.3295098773449449,-0.981698491684762,0.4864468356048585,0.6537327482553411,0.366506839190131,-0.5987307660730906,0.6204166344304517,0.969738158616099,0.016327793962889338,0.722591678917819,0.10381989180259632,0.6639015381594441,0.9194755640871742,-0.4369529889170384,-0.818849306151937,-1.1817104622473198,-1.0461404942414552,-0.16716637663314993,-1.0966835278605966,-0.1957008706581789,0.7589549346617701,0.7577742682304124,-0.8137220086640778,-0.9911164164317082,0.07542320342922165,-0.7083475341448981,-1.8315196863780911,-0.8707238776754533,-0.08814420425528162,-0.7010541498715825,-0.14387094924600557,-0.4271351022816881,0.11581298488676714,-0.4371291783670397,0.8459652742480845,0.8565503238277723,-0.6571029333607559,-0.4747287080780144,0.11242664842829919,0.4678062061377326,0.5679711621343252,0.8740907857674403,1.0078140832385583,-0.777148712298472,-0.03395496479615745,-1.6105538964460573,-1.724055056359795,-0.5809173300216222,-1.5064250261077987,-1.0345851893300577,-0.37071729931808056,-1.445086668760929,-1.1983378343630262,-1.5135186559610725,-0.4201699062144528,-1.4611467103945877,-1.6743126647110262,-1.1423334981912048,0.03573076722498471,-0.6411754605866989,-1.4083624656099547,0.3632019719339594,-0.26343521983323254,0.7465512865248297,-0.4151668462531739,0.6806940052650723,0.7252670676323549,-0.49968075118726984,1.2158133821552999,1.3349873871503164,-0.20665979685957306,0.9622854182400725,0.12491796373818084,0.9006055967496306,-0.7591548865516059,-0.20158261010072692,-0.888792433607978,-0.2762232684750317,-0.7777687159552493,-0.6232242649702925,-1.0111696756035158,-0.9467679334692849,0.249016494943949,-0.7069772536172416,-0.04809559532361573,-0.7498264418051729,-0.1733770228219796,-0.8559969406053354,0.3760355076588438,-0.2504783437292279,0.8535015998097657,0.6424942312089029,0.44441949025334015,0.4424562131623695,-0.3860186766825424,-0.42720843978773937,-0.30736404990870037,-0.6591351687845469,-0.04832864253470443,-0.2738745095205102,-0.4621523892539595,0.3659350990731806,0.35149103306632856,-1.7257266649834018,-0.7713103029097186,-0.952877020418177,-0.9082894544546042,-0.17932724289533283,-0.957789120468946,-0.9211915201091819,-1.1905277731682802,-2.0589805659453786,-0.950024268506321,-1.1275441090657865,0.03388949297271591,-0.7791839239313167,-0.6221365419601245,-0.8752993353875775,0.5549030453580847,-0.3443377816821242,-0.10486817279508343,0.7742082706340709,0.40882438008990274,-0.9356550357455835,0.7595034409948789,-0.8004174192380056,-0.3411126240037422,-0.7471964981913706,-1.0484519179155265,-0.63468589603016,0.42890044241956604,-1.2766962209870727,-0.33020255544858074,0.014299068517827196,-1.1215215026766021,-1.3812024742266427,-0.02973200754735268,-0.7222209230787905,-1.2105673755322826,0.21690790563752368,-0.04968761889587832,0.13263976686627943,0.3942261266213308,0.3078438476920611,0.0985213137608009,0.6167094052973886,-0.472835744990648,0.021196016617901648,0.24803319524830414,0.6310721093173699,-0.05346029560307253,-0.17400736770298808,-0.9267599336205898,-0.4382642975181063,-0.022900594444583835,0.4647332010061525,0.7308635778504629,-0.0669508142364606,-0.2631457329507744,0.1987159278935587,-0.2728507136070077,0.6499277379926073,0.32207734902428736,0.9218629382756068,-0.13678899143514583,-0.08339707148148291,1.3175310064511492,0.8588704211107233,0.6736720033406208,1.6213250135750161,-0.35638436855910127,0.018176962125578476,-0.18802967718108776,-0.27848010829599507,0.2547457401055013,0.592613048817332,0.763820103801272,0.1363970047192975,0.09478945143956619,0.36205321257102296,-0.5554777296017157,0.7865482970160922,0.8036667061194424,-0.7885016941671845,0.4510489099951475,-0.5747181457193151,-0.7261873939069343,0.6741699362367036,0.09424815359148259,-0.5384154881371245,-0.22584497725271108,-0.37407694125172564,-0.24276247898932987,0.40792490968086365,-0.6852870777324804,-1.003383766270498,0.3904323088278235,-0.7491083795627883,-0.6803288535388153,-0.17367529934835327,0.8447923821715998,0.32338363841061385,0.0998291393291022,0.8248713000439531,0.17323737620800816,-0.6248332385089106,-0.7880829623622665,0.35801332492636284,-0.497187395901459,-0.05163977310976353,-0.6979591681332944,-0.671217374077811,-0.7374709401834565,-0.82714059504176,-0.012602525055770558,0.30324673995908713,-0.6222078752316339,-0.7044014908230485,0.7663872940184003,-0.5807576304568727,-0.05106379197692473,0.581759802062898,-0.8003908678737918,0.895903568823438,0.8151299031125094,0.9648669732250154,0.5717162547468327,-0.2912982152781423,0.1823825901308009,-0.576793673244711,-0.12732275327498588,0.6867357154928988,0.022287878215352386,-0.28972427095549236],"bias":2.825874326349058,"activity":0.99999763614432,"zValue":12.955214145497731},{"weights":[-0.06351634825672425,0.33915085754341145,-0.8305514625170689,-0.6137631102457317,0.47435197920819405,-0.8496121221256492,0.6270283423898295,0.4069205888383167,0.84166789713279,-0.660789038045237,0.28463646066197024,0.4307972815866483,-0.6490089674923274,-0.4032292432233806,-0.2786120537847525,0.1303032628701164,0.6956471517519076,-0.44480702873984246,-0.9159988416343263,0.734803400199953,0.8854120135612535,0.006126099006642516,-0.1558567638757311,-0.5769513087710196,-0.37495124537598423,-0.4914683795443713,0.0374661433512653,0.9093244542670988,0.7304355106700213,-0.342418530718521,0.16055933046424453,-0.8943920603470983,-0.6120522619003634,-0.8454041338241969,0.13284332649363817,0.7119957299887744,0.5709336619222254,-0.9380638011129872,0.7689065513466385,0.9203232548330061,0.8047095146927509,-0.1475747514879054,0.10846078749001613,0.7718973460197477,-0.3288825068593194,-0.6370094347017682,0.5161879823000075,-0.6774923727812731,-0.8832267013814716,-0.9758340917535607,0.39266442046104977,0.9626285998424888,0.45031059941354235,-0.2364775246802151,-0.986439366725977,-0.956198067731779,0.17338357688417538,0.4317001616408138,-0.28174857339698267,-0.11976535275591704,-0.9640003803179535,0.4724981332913575,0.818225979408244,-0.43441689009231577,-0.07208953638929919,0.17871994101157423,0.2153245879818046,-0.9559307198432849,-0.14343762797639628,-0.3613156657989782,0.3946964732336734,-0.5043487770444975,-0.23268473657798786,0.823231349786057,-0.174322074902559,0.6414487244341897,0.15961780692465116,0.8136654610427192,0.47788657002836354,0.5178102192604148,0.6638370199533948,-0.9066486361545585,-0.9208924104423355,0.0079399365155286,0.31283939325339016,0.4700104158044165,-0.46709434865011445,0.12763522849332487,-0.6184327280392491,-0.4183570449328748,-0.10654179423884835,-0.774990548598042,-0.20368450769986124,1.002057473170434,-0.1687776690801285,-0.5583719337690172,0.5113007101468775,0.8934627239013523,-0.7625125672063671,-0.3671572730500014,0.27979037752689073,-1.1964516605644566,0.4517935099928409,-0.04023088847152119,1.3364806046211282,0.6048800238431823,-0.9500163301468523,-0.034558227651209875,0.6136079234721549,0.7656470233963057,-0.527594768761126,-0.9956504296812354,0.07657629012732325,-0.8996833582526578,0.8734105967809711,-0.0034603444266631334,0.24135836821207748,0.9009314098436216,-0.5042189573666435,0.49772706365415254,0.11313637782785077,-0.2541891162906958,-0.025775462086633144,-0.9349817824757753,-0.7853547849172772,0.7706341230556424,0.6103326206000815,-0.6009063869776877,-0.44409726050733567,-0.3169604336110945,-1.35573314010442,-0.698646046930963,-0.1260904410273611,0.5091760020973941,0.5992920083310781,0.9656755232706203,0.5800264687165055,-0.7087813162384171,0.5524986323674402,0.12745877890441282,-0.263453628067694,0.6699845702912643,0.6672825940765307,-0.9392073174776421,0.5438630892271475,0.7844144099450389,0.23072779346175817,-0.934604116720876,-1.3308153344174196,-0.7541197434241166,0.725196544864389,-1.000126799156251,1.182450901677583,-1.2182248691351778,-1.621818761738701,-0.8787863487536908,-1.3859672268841259,-0.2682843811893333,-0.8622684392235461,-0.5944121140988774,0.771121651786592,0.7629636173713752,0.026591878192261605,1.121173540183275,0.06279910604357743,-1.076999143514116,0.48762921351283955,-0.13268520280119117,0.47388818631831686,0.039576851141717384,0.9057710135636332,0.829938951023335,-0.10965031082996662,0.4797783669822483,0.7035539665163165,-0.29573871398489177,-0.5030374623865107,-0.3767213290044751,0.18838072280940324,0.037285094330368286,-0.617431501059293,-0.9120662367245653,-0.8557216031680729,0.531230874384818,-0.45753345677871193,0.6630320786283723,-0.37646392069337614,-0.4058775164670194,-0.5310064062477048,0.08617269966525178,-0.2913749367632756,-0.15741858020139118,-0.6537670168954133,-0.41395838609515007,1.120143753374481,-0.7260613438400666,-0.2037497611241889,0.06489952920947549,-0.8920061231784453,-0.934513869941427,-0.3427219279781739,-1.1028020652939023,-0.6874117511225076,-0.9051992521563791,0.465767160489962,-1.0355649883347333,-0.0026425025597120984,-0.10170887082294068,0.13997298284303997,0.08227927384845035,0.26719181591033825,-0.034826996310784494,0.918341823352026,-0.07076504791382625,-0.0054961033315794605,-0.6149349093313267,0.12738923355119441,-0.38127401432977587,-0.29791616754195027,0.13104328542991242,0.35620576081696026,0.8548577917647647,0.5823390178416331,0.9326420751256742,-0.28872869103273097,0.2238515989959958,-0.243292225387394,-0.5837821485178948,-0.7019196846950894,-0.6366487327025013,-0.6418629404457495,-1.488820758736274,-1.1363346183393581,-0.9694359997810433,0.29034231807004296,-1.7344102205022582,-0.7213079723456328,-0.1064052729685912,-1.5306306771575726,-1.1373072536299544,-0.7428798936524584,-0.4912845861690529,-0.6419374356305987,-1.4154588094654637,-0.466310174519658,-1.0699663363282643,-0.6374610481791805,-1.3710121102420991,-0.19993602075696995,0.45279812577776724,0.5393373962183154,0.011929151195489722,0.11282453038980107,0.18883632423780983,-0.20153413136813325,0.33102907678319354,-0.7213379859958285,-0.20874060621551382,-1.2714149853067622,-0.18538182432171613,-0.14330682372909676,-0.26477936057218787,0.7626237678824811,-0.4183591610298317,-0.6425515573606262,1.522962593041128,0.6195495861052945,-0.3267063940739796,-1.8685089115473523,-1.2294957147748709,-0.34792908788157545,-0.8107787197943473,0.39151397919993564,0.21929153360937004,0.04626695843265268,-0.3357638399909011,-1.3982239732934034,0.717174255504288,-0.30582418042178744,-0.9348635658630889,-0.9506011836399355,0.5358439375002974,-1.2932686792679862,-0.22816449321103194,-1.0266826384074248,-0.7738099396417266,-0.5563213404239009,-0.4040121080034034,-0.15644969335599396,-0.758149944174539,0.5985373300693673,-1.1887842230874488,0.4558800084267982,-1.9530855527596849,-1.3864349507253213,-0.3597182080168312,-1.041002140856896,-1.9404863246376294,-0.4696168813119768,-1.1963974350306863,-0.9479955351800958,-1.1055684113482531,0.27754028954494947,-0.36812362847539365,-0.6237556278377733,-0.6425495641368968,-0.659660327602387,-0.3645521480976089,0.8876847862638253,0.25021045000275355,-1.115235215546761,-0.3589639603207118,-1.4065479082714643,0.3854834770317813,1.2297415159868093,-1.0199088185188292,-1.1237877777006935,-0.8235611781608504,0.31330183713891463,-0.7808739134885995,-0.9606234515929064,-0.7216935485346859,-0.3083726565870088,-1.0035454844315967,-0.28305904545843674,0.0397311669411592,0.09463259485518788,0.10290046336504957,-0.38015188984497217,0.24070180902853688,0.03596820433698216,-1.1736007500937937,-1.116285535527843,0.45831960347454476,-0.9421368000504946,-0.40085127245115526,-0.7107237154378248,0.37485285473119206,0.7294533469042437,-0.7966733575339363,-0.0170945645576672,0.7578974403181036,1.9501879891029235,1.2740624709038977,0.5940197003941992,0.6440838920939559,0.9013085105786144,0.7267032574180439,0.7157713379547349,0.9805729731571017,0.8666302314524262,0.1148894374213207,0.1441434903789874,0.14366867014889415,0.8260068182596231,0.4857142960165163,-0.3036594851987316,0.786127790447292,-1.2635945570595468,-0.8843321413206111,0.3144624106710284,-0.23709022322966228,-0.9663360492781281,0.14020311817928566,-0.7757864842917135,0.4827348352062117,0.0784672987498277,1.4197413464433895,0.09470939586675514,0.3423807534114164,0.01913539831641436,0.9057247261584087,0.8422439874921829,1.0636165594122802,0.05308296957211099,0.2936409354772479,0.7945387582350975,2.6880758281384294,1.6915542172988278,1.2257339861286194,0.19611335151097925,0.3561748856596612,0.8831212787570513,0.1437550882721008,0.07013452433720627,1.2474077275317763,-0.06683917327495069,-0.7626738107652279,0.491448972522031,-0.5890420528850597,-0.7365283777607687,0.20836482041422633,0.9158440816454099,-0.6198250144372458,-0.40930195643219214,0.81922734365979,1.3317694467209256,-0.5211974716438739,0.41174791026049595,2.01051802385925,-0.26676735555985787,0.10858103233109974,1.578981385760932,1.028077659027009,0.8312077324338046,0.1424729444009718,1.4951304193846695,0.9842259019668188,0.5711283217181976,1.3156854090240613,1.1309120736146945,0.061075887009830986,0.11744372978599348,0.6514550869832012,-0.09628995607864942,-0.7224001460799113,0.1767140185156773,-0.9582577997599089,0.40789409063776416,-0.16946667977788987,0.37107824556865454,0.4593377198881462,0.6351461127001503,0.8666735784641475,0.3903274104612246,0.02290329880906446,1.0412487797727206,0.5675845705094772,1.6241242781176053,1.1005027542328336,0.4258106651792677,1.270575097254222,-0.5320665617933654,0.43137744875397027,0.7915310442082193,0.5358458244798752,0.41344146179157004,1.33510633347152,0.24731147404035933,0.3672050530021132,0.2774680711797859,0.6103023224877253,-0.44081945855249516,-0.5071609894433251,0.43260716484062356,0.8912425815553133,-0.42257195231142797,-0.09357711579932698,0.5182346515223069,-0.13707132385071336,0.43742070856782456,-0.43976344276873697,0.528976066304106,1.051521395586466,1.4004913126167733,0.6604226346841658,1.1947264770970325,-0.2839840201042488,0.9671909503024357,0.690862655517479,0.7010121729736409,0.13970948653238183,1.1089958385947742,0.06390839377413109,0.9794400438849523,-0.9207588015375263,0.10081212368237395,0.013431680908065262,0.31172289915206475,0.09842970100973158,-0.43462180211913787,-0.4704529915384023,-0.16104925037481063,-0.8211435839697866,0.241583814808873,0.05046968309030748,0.014178119637107578,-1.0003163300479267,-0.018731597095663577,-0.8383084816936299,-0.10021914438426,0.6923686423756915,-0.006967820645527983,-0.1044524228138491,0.34263409929931204,0.21299091667823186,1.109453634806164,0.0011980744665089358,-0.15252187152896773,0.7555702772764811,1.099018306515667,1.2650291374249867,0.4614184961644485,-0.032529682498411955,0.9720849805471694,0.5739151016103948,-0.25501159373746213,0.7424430280062908,-0.7863420385235037,-0.5021551272081827,0.02078679160120465,0.4975528486778036,0.25683461924778944,0.3833416372969378,0.7058083674878879,-0.05903476784830808,-0.10649022492916004,-0.8407583211060295,0.1969196231019234,0.6932900929800996,-0.5401093702183779,0.6340568101513796,0.8252629567226217,0.5777437245384439,0.8152185410282259,0.49062290048054025,-1.5025213146268295,-1.1921267312783332,0.8016972551873894,-0.11331531857792314,0.831767347327264,-0.474226537949003,-0.8648891749116532,0.7382861713483846,0.6201041428022931,-0.3763009630109573,-0.08542709388204985,-0.8212935781472653,0.3312231400851232,-0.8612888458318421,-0.4278057882641806,-0.8492736490034711,0.7622522881379643,-0.29345382823956356,0.6325953127431159,-0.41720775411764216,0.1689290158081598,0.44000919796886867,-0.3416302694121563,-0.2048247624955698,-0.7473135087949498,0.26637616231084404,-0.41102388389321953,0.3621598936548133,-0.20032542878741666,-0.16463469181071733,-0.8318007374000354,-0.20070143797568687,0.18021607760306602,0.2508172713204904,-0.3032870300885627,-0.07313729556145875,-0.0938099007203301,0.25505987180650136,1.5107268195443417,-0.9390962048443686,-0.9752640776862996,-0.24684719053479987,-0.052963765907886005,-0.6083291237743801,-0.25959257345542985,0.23422707339455298,-0.8401289904109595,-0.46736993186010223,0.4464766328533135,-1.0807073049412501,-1.3747979236329277,-1.7514903204566674,-1.2192299263536417,-1.3447776091214978,-1.2502694698430832,0.6221878582859027,-0.2399499835467714,-0.5055791394715168,-0.12927683453186178,2.650653482902076,0.6280813299437393,-1.1292920081382716,0.051101133812808536,-0.45137525387243,0.2360263414607614,0.2503832978001462,0.11817675087625906,0.19889141367507673,-0.4491443157107648,-0.032722461569828255,0.41929078133598563,0.8847108305819188,0.1623817416247917,0.4861960078257057,0.4518760486463118,-0.9541206854731429,0.6433439578238745,-1.642109998170292,-1.1049229645501646,-2.4434973299250924,0.06362731925701438,-0.5553074062101092,-0.18590073346002373,-0.8253496743024429,-0.21254847526976237,0.4717906996850547,-0.33587639586917983,-0.30331211100223365,0.5790650356921783,0.25414633462769987,0.6492373386712967,-0.4486857791429505,-0.564992819558997,-1.153013803477135,-0.15374441392452007,0.2766502653025582,-0.0861135571121947,-0.44435672393569886,0.6591352840304827,0.4502990704841716,0.933418264776642,-0.4401223846694515,0.5440326628853758,0.47904340466434614,-0.6923583962564395,-0.6826301793510396,-0.33432295735686657,-1.4590695586835891,-1.1444813212265732,-0.35145007233713604,-0.7370485329663524,-1.9567557754817386,-0.7737657308402064,-0.09183619586265637,-0.3480579395140458,-1.2263474237456395,-1.608411973969662,-0.5661858241529869,-1.1397058855695597,-0.8482604276378704,0.5444161565843105,-0.11796600575875442,-0.32798260368791293,-0.8870099203585662,-0.9004334130176687,0.44233716134380696,0.844962292453682,0.4214793501350047,0.9260211470629796,0.3439467997955763,0.15409263379927512,-0.34906564913262145,-0.9600453872661899,0.6438804524486356,-1.0771856988118684,-0.11189345259254138,-0.9178803483700148,0.258796387821275,-1.161900158227853,-0.5610581193288848,-1.8837780103554287,-1.0478701972130133,-0.6292547106122139,-1.7455173075204686,-0.727870051531235,-0.30726272631449875,1.0554070127796937,-0.14256014946706497,1.047936476532533,-0.04287830954122086,0.9165637804010095,0.5047949540702041,0.812920354277539,-0.8306431472791244,-0.9266367638060541,0.8142318876234174,0.35821048577916637,-0.0836677101951464,0.4113407268163005,0.677479378237477,0.5342426060057369,0.1491640637369295,-1.0556801809896021,0.8452365319146392,0.39465360448139525,-0.2104508405470308,-0.24522545805603244,-0.357147640467734,-0.9950961395226636,-0.14196682746197142,-0.8547321029698975,-1.1541691947391632,-0.1635052172328469,0.22114675048918253,1.007717045387266,1.0670568783486283,0.9883675611498943,1.1765654206764942,1.2212012764892621,1.1448328156109062,0.7936247817530558,-0.1596047375238648,-0.41451984808674114,0.0467930716647218,-0.3860824274431258,-0.12729223548743862,0.3818372055931021,0.2671037313061362,0.10167971939065625,0.5014998503754182,0.21520920103285507,0.43172122481213004,1.8004429249488187,1.0087258740020744,0.5392815977749212,0.8526184892738344,-0.33607215261504625,0.05527400944749753,0.5144344897078007,0.1013382642077087,0.5140504782090514,0.1014909494884163,0.18186487426348888,-1.0005072866665767,0.9823276191720254,0.30803341657164734,0.16508447604350207,0.8454761265195192,-0.5268547999685114,-0.02515105315484334,0.1061562841983168,0.13214814569177502,-0.14166004642218688,0.39189978254246993,-0.8527969614242803,-0.9846101446813693,-0.5467826522406167,0.5875011606840905,0.5406820833634782,0.856563535286912,-0.7707344619837273,0.33066588266072844,-0.4015414082827751,-0.2209247356614741,-0.2939841533955892,-1.4201282548759744,-0.000504698242620221,-0.7852693290594033,-0.4730599077511989,-0.3517343356383416,-0.7323458918710005,-0.5146192192156576,1.0633730845827867,-0.6410175906003117,0.2692328515255211,0.5477901690010731,0.4079192807365457,-0.1710811385434976,-0.7612827918398364,0.18707295587274597,-0.08836034983190366,-0.6261154616528848,0.7165639691741879,-0.37165543809417656,0.41421335457802355,0.19820150472695452,-0.2181328429839611,0.798317007291593,-0.6807523235910228,0.8454226700763413,-0.30042527903228805,0.3563748669817948,-0.781067312418103,0.2234821376025788,-0.5679550935393635,-0.8928769623368883,-0.324172330237656,0.8267954321491293,0.3690013621853116,-0.21569766371027574,-0.2730957725430177,-0.29615745453028963,0.8302605155274241,0.8166416908553029,0.033249481191632846,-0.03149607789915132,-0.10575497576333648,-0.9640352636728102],"bias":-0.007532429891228282,"activity":0.999545162351183,"zValue":7.695115077354983},{"weights":[0.5474900835077814,-0.9658747019576115,0.10965530966263737,-0.6878556502369717,-0.6061875553827556,0.8281601990950485,-0.1737834976261179,-0.5598015281511004,0.06329505701591298,0.8018694701047773,0.31292003552453274,0.3339657521530057,-0.28732458396848637,0.48644017028130593,0.9286502482474321,0.02058751545166082,-0.5252773026016881,0.6431193264831325,0.8090731068594361,-0.8232779537460551,-0.13452285916183282,-0.8031830187831428,-0.9275843220593885,0.9100332218771614,-0.13164556207249634,-0.9879509442747851,0.9168423690423348,-0.17113219043504158,0.7347940578711016,-0.2776040967257236,0.13260583528365544,-0.7048732212660433,-0.17441929837558545,0.15069781007999872,-0.7058968551736111,-0.6654878461393331,-0.987485720585276,-0.25384082068470804,0.2567898990325479,-0.6689767573595107,-0.8602983669254791,0.539340899288828,-0.32326370087350986,0.21521483984076553,-0.4544434556031109,0.5123910810906551,0.8050387545526846,-0.3787705534044594,-0.23214901128089643,-0.06739559782568307,-0.517294525528075,-0.8471591905661965,-0.4021619934252154,-0.8263653251072092,0.3625333644200097,0.5364722425333932,-0.5382721702160538,-0.2664509793063137,-0.9091427693912832,-0.23839182685826188,0.8074193721921049,0.6942799749541853,-0.8017004562840976,-0.9404560137811877,-0.7228068685113984,-0.6546200268719095,0.14060937671695975,0.6121359631047207,1.107661045600545,-0.3909183853675453,-0.8682606634354844,-0.25266978337722457,-0.5278097828627076,-0.3926945794392202,0.6226878233679555,0.38265445220602495,0.009711054016108615,-0.133907505637827,0.12637669372960614,0.863408142134637,0.6888617207262389,-0.6811940063438082,0.8616383989854972,0.4552722090050967,0.5754959559124351,0.9157909345041126,0.8211593038300662,-0.6984367165026644,-0.9940656558692103,0.8395545001108594,0.10961780927400584,0.4542141986127504,-0.525231225640149,0.5872719191198885,0.2780665152917116,-0.03032524665644325,-0.6100903899199593,-1.0795631865966302,0.1651315628407702,0.3325124013201382,-1.4309844278603634,-1.32437484521371,0.11323518253429127,-0.35940015820760446,0.8281379211529881,0.5923256450233089,1.1449196296561879,0.6851653053382702,0.5323632869862436,0.33807582348777654,-0.7018024420708988,-0.7392443174714254,0.41471780048131945,-0.8434308817150429,0.49664201824972665,0.7118798455355756,0.10103054325210771,-0.2090469670601686,0.1124848001442956,-0.7872248888685447,-1.3542644527257424,-1.0787960281847644,-0.32241039164451374,-0.7118027112594063,-0.6857877107152222,0.394402227592179,-0.9997111113468142,-1.1504183455007406,-0.4147617598032858,0.5011501130998726,0.13623136495446336,-0.26643840564754373,0.7517526363670594,0.7180407161146748,0.721327093660196,1.03157471702904,0.4423031713939773,0.9204304827455372,-0.7219336240696234,-0.427187649772939,-0.5570142217129561,-0.1402415070166576,-0.7755673913322816,-0.24421323588861382,0.6331810038986944,0.7525489635616425,-0.5847500711930582,0.8712354573260453,-0.18394693028007444,0.6582967022449288,-0.4869440356657803,1.283053150268146,-0.12429922973537985,-0.6799876363710173,0.40537267609791466,-0.1859993376626803,-0.5680872214661945,0.8408271353577358,-0.38804874200348416,0.755786685746271,0.729993238373893,1.5895354796803158,0.2239552918715952,0.34673708442997175,0.2962316766420009,-0.4108993146639755,0.903878860694369,-0.48294559598978815,-0.5339176525494516,-0.9714529621379966,-0.7043184785938846,-0.6083955319674504,0.1419599324045778,0.3773863846427292,-0.42658320336885036,0.25421979767239056,-0.8929132319017391,-1.3969855534448319,0.20362414710442184,-0.40395428862982263,-0.37326033254501656,0.1875486131457673,0.2773935381966336,0.6454935559281672,-0.44275726911780283,0.02079873134049212,0.5843935640668357,0.7608401007122881,-0.11444593684731158,-0.25501714654961805,-0.021376603990475286,0.20012333893702747,0.15030314974001271,0.5170348892151907,-0.3552679316302759,0.6398124091778861,-0.9701500895050075,0.44907192621405484,0.7194373657619723,-0.682299433259768,-0.49880400163281924,-1.0731410757649351,0.3282872838026457,0.34579616535727525,0.9847381483794378,1.183374349627134,0.4971029030690488,0.3207261360938795,0.1426696741180943,-1.072363127201654,-0.32022240363736226,-1.4998496183913432,-0.9654325486851569,-0.3636624114581576,0.28363296533356547,-0.747620665701627,-0.9297839363258449,-0.014680112876778789,0.6874256240466947,0.4734683590748129,1.303866298057592,0.5404429643941452,-0.4379844991914349,-0.803646478395742,0.19985491647911208,-0.1957438430241944,-0.630547699886568,-0.15770804415270834,-0.692634151427845,-0.18692806605224466,0.924416798917212,0.960959828307146,0.6341470560010698,-0.3632309421450394,0.2754958648598734,0.9528277282887557,0.8721011079764321,0.2774545182541175,-0.3098053806758533,0.19270861370360437,0.5260042632485156,-0.0401987024601892,-0.8594985098933479,1.0366652290280964,-0.3322379303544517,0.32938393355664397,0.530408028672442,-0.028492589414187298,-0.16416892827409438,0.020952557134389656,0.047606711338395474,0.14210898579392384,0.09084817979364182,0.09287051366802124,-0.4772670834925588,0.16042458514727098,0.4125030735769482,0.8337490365078979,0.06807181664355132,0.3161861546752096,0.8735088372481535,-0.1821356266200211,-0.5671404331270605,1.529658805137474,-0.38177120670199693,-0.16098518184503732,-0.17848268783968815,-2.3942594695982202,-0.3601573733620703,-0.5945682563089747,0.18599277848083418,0.26155409868514123,-0.24051470565022492,0.11960517014753907,-1.1200028631252406,0.5417700576360239,0.1423283331009773,-0.4803711760790493,0.6398574883872823,-0.3637434300678516,0.6325152920134709,-0.5793303185129609,-0.32556995062392863,0.23919157880351447,0.814315347366658,1.1316860294121305,-0.27092743370064815,-0.04659957415114981,0.8915141874978192,-0.3919436291744329,1.22534087752395,1.8184136345854824,0.1886189770084683,1.6263039686966925,1.5379357194064383,-0.4925421448901158,0.798887529152035,-0.3876595550008359,-0.06010336824419674,-0.09861069604384098,0.07312614083709748,0.7405914068045312,0.7963278544485394,0.10739488797358977,1.1390288777221476,-0.6942408065575436,0.8634184345344801,0.45190370821085496,0.1708650062119461,0.007805310198057182,0.4316009504829992,0.31907779406169295,-0.12837413802725153,0.42231727860485924,-0.09269106707352498,0.43875442757191346,1.3015004183830157,-0.07146151667985383,1.5251781061658458,0.5001875644104148,1.148687269701714,1.266031233446616,-0.5848392948217007,-0.034997389323915884,0.14908257703512587,-0.5554468765815317,0.054147811789588565,-0.35800411403600274,0.3161707262199197,0.2738598618940966,0.1378040762515496,1.2257144373670912,-0.1024120799084664,0.8052217134423323,-0.0074421887904982465,0.515416740898867,0.4906238287403393,0.3039751188419193,-0.28100623024560456,0.3740672874988437,1.2029197521999897,-0.17498255285322398,1.7004642016233484,0.30710296259215764,0.2756129292132204,-0.36480529111332577,-0.30767634071802874,-0.6991873337720802,-1.5033230157926416,-1.3309266753234665,-0.023936326374510816,0.10632821314339731,-0.6482309440517742,-1.4141045067025375,-0.4277415808341592,-0.666756702393691,0.08431653019671938,1.322869960490403,-0.32289543713939534,0.2417020980684669,0.45066200441912957,-0.6656573155396798,0.3448448572509582,0.39382727692743263,-0.1415227390973275,-0.13363320200062315,0.9836761524538511,0.681619249724911,-0.2116485180577096,0.6873039893555762,0.72742512533085,0.18440767403173727,-0.4614925471844681,-0.46080668190296104,-0.4446716698268257,-0.6633290460390416,-1.0166617377026208,-0.668653611835398,0.1419308367286628,-1.299965164572679,-0.4665085968998403,-1.9554175624753427,-1.7363325455354726,0.1845502882881719,0.9289360692198185,0.9595301504402435,1.060485166987335,-0.12126807574296214,0.3197630897402188,-0.46153796883680814,0.5366021112883845,0.8198964939285283,0.3136752882696934,0.5420782429128931,-0.01209907585864945,-0.21099620477251485,0.4513695628821769,1.2632040629492534,0.30589107273032223,0.7754236962037309,-0.5388660514314758,0.7908285523913404,0.6150846215901502,-0.3189158359172192,-0.02100483778671028,-1.2519323659650596,0.0024287234867019615,-0.17325966217256253,0.4612200396376375,-0.06415088260700509,-0.761100076067119,-0.5749010227900689,0.1845155592446615,-0.3654964381206564,0.9590690268349918,0.9423837863093533,0.4246218974180389,-0.12522856006720623,-0.02516920980577787,-0.2476907479193815,-0.6041326076848992,-0.014013546579440558,-0.176147563042328,0.819658172377648,0.06480645848837169,0.5113674634045995,0.3055858229536829,1.4707861099604582,0.9821124843268665,0.7793491518115044,-0.747976078125408,-1.208796468600116,-1.4721345018246674,-0.01062991267037599,-1.0309987743677824,-0.003238466680850632,-1.2849594630653782,0.0831169602636137,-0.28641859199706116,-0.6383732602588483,0.00442390200733287,-0.3303662301825695,-0.6837777264963546,-0.41486467636531044,0.7577621276880815,-0.8151889109830192,0.4519455580900575,0.12397999727245608,0.4777176219104349,-0.06070490231663655,-0.9856656615601331,0.15559039797340463,-0.26060047315185275,-0.9552889093202349,-0.37051340143543204,0.0761565528464244,-0.07872667245273604,1.060245496585497,-0.08434196883337106,0.15859652223815204,-0.7079850500695087,-0.5394933348233221,0.03170908956287669,0.437681707522371,0.5406457881206578,0.27011579424339544,-0.5138237979181149,0.38843102264799934,-0.7980071464979575,0.5561184208193878,-0.7531226871255943,0.08810056392392634,-0.7400457049233039,0.9992664402306382,0.9557240225812006,0.560390015344102,0.7087244505816348,-0.9215465575248528,-0.4090051008148323,0.13262022147489236,-0.37240084749802493,-0.5695956639714778,0.3890774574990421,1.1967307142049415,2.3376365691605523,3.0343008050651017,2.221895512875802,2.1541716361030216,2.016028656955339,1.6122078940450113,2.4008290517340845,0.6897528009649168,-1.0400553076893695,-0.684425972759599,-1.2048206656730125,-0.4131147442892318,0.6822824191273411,-1.1854246707544425,0.3241817827501393,-0.8320069932076819,0.11719748838525001,-0.959307883621289,0.896640051089226,-0.029601963434915998,-0.6647342702602228,-0.5991692424868216,-0.09374499434821582,0.08126898626983033,-0.4980948945092347,-0.9848082744715191,-0.08180370890761915,0.5729206963925685,0.3047515357702311,1.6025081319245966,0.22757142003267364,1.7840108424606635,1.8600002138702014,2.6178696773928376,1.1872298645843422,-0.6774289628729862,0.3450926927858297,-0.8786397049291268,-0.0314087880946801,-0.6403349109298313,0.04266876808147791,-0.5049608662612585,-0.22919793622444,0.432927680893953,-0.12704187031599948,0.45149943299658496,-0.999483267463078,0.6170717448712003,-0.29595766843559135,-0.9713240785886996,-0.038099184069821636,-0.03996668496962133,-1.6268644660274307,-0.8012971146846938,-1.0109494545618143,-0.5487383330688079,0.7140924265118712,0.21667273877220056,0.430211475277736,0.6131823888429345,0.8075234037868323,0.7288430024327845,-0.3964097818752038,-0.5285171195842215,-0.32750129821565593,-0.010757284974125,-0.5521913514259206,-0.5315473176360104,-0.2728656303710533,-0.9975176823144342,0.4741693177938542,0.8757607947341857,0.9671143616365944,0.3362744494130185,-0.3885051831251734,0.6947629189091258,-0.2033991569863236,0.2567685363332239,-0.3678745103188479,-0.457336231761586,-0.5578100340798499,-0.030329874415357658,0.6661073584956511,0.08430502122358101,-0.37193814961903116,0.6308832014312703,0.1511451498112845,0.06961737248345343,0.008485894251072993,-0.003810086994515009,-0.37920786078145197,-0.412568300840967,0.6528568125521172,-0.14411180833517948,-0.15891621833210112,-0.1059711186352542,0.6491763091049179,-0.8888610751971481,0.033244827055732985,-0.13324453653960913,-0.5141051569224576,-0.750258441743641,-0.9851842725361343,-0.693487772777792,0.36455929461368175,0.9292827203238466,0.5501581976791372,0.04097842578498632,-0.6168777217543928,-0.11085326849552997,0.15101943679903268,-0.05673687285779783,0.7960514980761685,0.721479431762227,-0.006380863932293063,0.5426546150625993,-1.123111037949666,1.2337136625496696,-0.009950140324531098,0.17846438403667636,-0.12767486977470388,0.21994002683782443,0.3311989666664561,-0.5029087906376402,-0.9867294903389351,0.01488091154081824,0.5430591401174699,-0.49552904686873117,0.9242836308642702,0.4713242325697123,0.014677381498685813,-0.6463829064478732,-0.2142091258810539,0.3754757575198133,-0.6938421598963068,-0.5634547079092816,-1.5347578598388345,0.18567719558918022,0.3670904103322275,-0.3406006029875644,-0.8899388645825509,0.9412482652534356,0.1974389561475775,-0.19172871245385203,0.7959238715739451,0.885730748946915,2.070950567487818,-0.5346371519945127,-0.059332272788821264,0.11447978470130607,0.6498439871080521,0.3999263212581312,0.39325288035472283,0.8696361600277794,0.5974476559468597,0.025253237309368452,-0.8774997980780584,0.9575177842840193,0.8928877295158925,0.8635830993117928,0.049290310721006314,0.9121488583169852,-0.9262589939730901,0.3085573965412159,-0.24049646922985451,0.18255829778135957,-0.7792781435646471,-0.6373867085249081,0.438320315258451,0.2896507184878836,0.28566007091756984,-0.6642492069151436,0.532699342512708,-0.10249166618570958,0.4053041880912551,-0.35129839920277156,0.5770057743982648,-0.6434032077151753,-0.5513131701803324,0.5711729441774517,0.705239628456024,-0.48033836906797933,-0.1708088315243465,-0.3783198186164023,-0.10873149228595376,0.058953911726047935,0.28534957994766996,-0.11418835882263556,-0.523694886078991,0.7476098810670839,-0.8672944686371769,0.34215113697811794,-0.13541853346194374,-0.2458561383873733,-1.6919084777569238,0.026282498406019875,-0.6114377430476131,-0.45348169613626416,0.5188228438089064,0.08612946353389253,-0.3776842811215534,-0.5817929746761986,-1.0509103646446014,0.48766460211887136,1.4552148148909485,0.8721894918335168,0.6385004515431121,0.23999601375470028,-0.7425342903802014,-0.18633277729095235,-0.2716455959668722,0.6451148193440035,-0.6136339256997727,0.38357698430168974,0.015183212249453515,0.8513903276336565,0.4066121117288093,-0.42116033058639246,0.19403934883903462,-0.9305868342956033,-0.05444801605757766,-1.3065303104737378,-0.7127915733584436,-1.2610159673320374,-0.08688882578078184,-0.3929650142046003,-0.013644204129767221,0.008509097144365865,-0.5673678760362443,-0.5779889159559246,-0.6622894006552668,0.2699026844064024,-1.1472568763367879,0.03228987945625208,-0.16141221701894276,0.6248780381167677,-0.875224225020542,0.008445237942172576,0.8089080843412197,-0.2110668735353486,0.20358292833740244,-0.3815830316483031,0.3813519509784329,0.1100185489389709,-0.8514125400871584,-0.794075356658424,0.582400137667459,-0.7160889475492532,-0.2291157177003375,-0.35257732146154075,0.6345028253313588,0.6925706908040906,-0.3975781087118037,0.5434092442227484,-0.6807049440323871,0.993404823740738,0.6689329447258617,0.17131068778937303,0.541365682074876,-0.022177745649977407,0.6233822304624563,-0.24844351209269006,-0.09651851573355957,0.8380270516749428,-0.2539249620391931,0.7266831967564324,0.18927763533516614,-0.8696165179016921,0.6238540796957674,-0.007118760910305166,0.13553074070497884,0.6511162162406428,-0.9931903491391005,0.6317367909690068,0.7866230206391989,-0.6439051959035451,0.5452467157460408,-0.4916625402335149,-0.27830561178974456,-0.4690202640907582,0.7430197069012223,-0.10444125931020593,-0.017146062682145018,-0.40870579968731763,-0.8310516460278317,0.6433349615212803,0.9024691372997429,-0.6324562412920054,-0.5216414029244377,0.587095664293871,-0.5624523820647791,-0.8818247251250889,-0.06853423099825287,0.2771617985922191,-0.19974980684539936,0.9480344622782368,0.8871835778006423,-0.27429259993268396,-0.2666938800349059,-0.5128139863993244],"bias":2.6686513655941355,"activity":0.9999158082304498,"zValue":9.382329194989351},{"weights":[0.20286349580603158,0.6636888079761611,-0.8434874096387674,0.37132371827123434,0.47629198415472596,-0.7150453661287779,-0.47153904108947975,0.45731637774930256,-0.20677324020082155,0.8082556259061402,0.5766820270012327,0.7758841504504166,0.7448984989914944,-0.4870647832411463,-0.8954017582544158,-0.05988747156807017,0.5846668837236653,0.8740164969477249,-0.5555558061889139,0.7584563681499596,0.013397729958605886,0.05820300855983174,0.8984475294061025,0.8431748134657808,-0.5171206654853391,0.23294978068590622,0.7056726297524256,-0.7250190009561446,0.6619569494993836,0.4718017648633812,-0.03201665873402337,-0.4398378236686318,0.9693256171536042,-0.691910632495115,-0.7515721772060879,-0.1718358871587034,-0.07572405147157846,0.6714394236272828,-0.13220174009872337,0.8309927440235687,-0.3234400329522619,0.49416307013532984,-0.6774774122594746,0.8791632216042515,-0.3694640807946727,0.06379654421201844,-0.9787920015879567,-0.3368047554416107,0.9858206593242241,0.060064868185687535,-0.06145200011826122,-0.5443564626461724,0.012022435186723968,0.8093954027988746,0.6108307359188849,-0.9510008385154562,-0.738647183457728,0.021287526119721623,0.2670418657145479,0.005656810783642996,0.7002562809953355,0.8422302136663266,0.09448080917397883,0.7894616463622415,0.668096757610299,-0.49457213968913877,-0.6462950805158657,-0.7064611527806145,1.0510953309012487,-0.5724943616747753,1.1852436321608761,-0.13359345570851275,0.12160816564474083,0.21551187236160294,-0.01898144732540775,0.4097471721642603,-0.14928562619901437,0.9704379481518312,0.8858663256457198,-0.8295631381262458,0.020201246771147693,-0.7547175131687669,-0.5447736684091238,0.08567895119897928,-0.07743028142673314,0.76161693162648,0.17294825424372018,-0.7096001364826856,-0.24719288635099013,-0.2211302143453371,0.5561698283330538,-0.36265463117477925,-0.47153812371205334,1.3279186342148779,1.0717295973131402,0.01997481746046037,-0.13052620977218463,-0.17069333950670573,-0.5495699036009258,-0.18030400956399772,0.6843592166587832,-0.22379837608120492,0.9315787084951078,-0.19846922087098026,0.12818059795307743,-0.7544866085592425,-0.8591739677143782,-0.11857402793044888,0.44996300799017547,-0.9290583661931855,-0.2451346275741022,0.578231920384698,0.840673083037569,0.3604217308027242,0.069556018878846,-0.3956670632380501,0.3854059321285712,-0.12223786405872944,-0.7633424915232189,-0.5012639111925788,0.0688358415659697,1.8005746346758935,-0.1385942732986103,0.5440601858848341,-0.8707868564799147,0.08760526751967068,-0.7631290793478577,0.2906685905627967,-0.0929944725010835,0.2095047798885937,-0.3612920211821938,-0.3715717166333878,1.4133893167250755,0.9816472099298411,-0.1339844313911374,0.8834032461601387,0.12488936698384605,-0.7283947201542771,0.8417410466295886,-0.5291858811064252,-0.6807065360063458,-0.8925428043051906,0.7399184248344572,-0.7990430933795705,0.7619499637573702,-0.6933034918096913,0.6131758682931149,0.9668998259717263,0.8786871441567607,0.5720382710975545,0.3608357666984074,-0.10767202806684574,0.08183730084978026,0.30174432945841917,-0.5634217304475552,0.3139995320663671,0.6537972522779769,0.09837735724103543,-0.14683868110550552,-0.052908060139613126,0.27616600340404673,-0.43459798885120227,0.20086537447865052,-0.07866631448057446,-1.1450747559880157,0.8037199792682173,-0.8765963913734166,0.5661972160657286,-0.18780162182372218,0.7350279697216493,0.1564585204159789,-0.5809043714353295,-0.4992265615587546,0.41124662021319996,-0.4444800376522888,0.4613499388879291,0.1798782999012897,-0.15557003802635622,0.19167052207739915,0.12402660885815232,-0.4137347246693911,0.5025820993413639,-0.189927438158751,0.7945257006490878,-1.8377725729080523,-1.4478464374504365,-0.5163863572184753,-1.2706265680193085,-0.9879679675275066,-0.5933296217625006,-0.4746928275602349,0.264727696933462,0.08316879931268692,-0.9346002307655847,1.0152261863971568,0.34041183490701443,-0.2747932738993307,0.44806924573314943,-0.8358099123736078,-0.3190350092980235,-0.40600517459391416,-1.0194553140039866,-0.4020514264182364,0.07251019167216052,-0.7226084203573422,-1.244565560926498,-1.4847060908120753,0.2753174542680697,-0.6678345985011214,-0.03355909275374053,-0.38110201215287576,-0.41711733781234694,-1.2014933741407023,-0.30816269071885394,0.4614183341487619,-0.5265704289342977,-1.4432121509683706,0.11079575053411098,-0.5977033111484173,0.17810604919089765,-0.7573664466410724,-0.7380566545496078,-0.8293737012801244,-0.8511293796504247,-0.4196635785181284,-0.08818064571771568,-0.43925425921218825,0.45321433686444773,0.7376014282226818,0.779946894655953,0.2761554678484504,-0.8734774000404608,-1.6441317340313313,-0.6231037174659847,-0.8347248052030342,-1.291346059668943,-0.9746664131629036,0.5406175165028653,-0.06388058018883454,0.6034929351954662,0.06205798057503095,-0.1247715286079605,-0.9756064868150996,-0.34041485459921966,-1.3694386571797894,-0.7112431840811116,-0.6688783151768127,-0.8601076443834292,-1.4684538355435048,0.7271477851515109,0.09466429195356327,-0.8793543232010524,0.8253550679054441,-0.14423147879189607,0.9481774635778267,-0.4815376092634935,-0.7052693053483445,0.11025686392660072,-1.335495134288248,-0.49232532396467094,-0.6729575686933055,-1.0334272884835032,0.47955308994596363,0.1252399120312567,-0.45525742321512563,0.8406384260457946,-1.2158142145884356,-0.5470043588748092,-0.2150830711176758,-0.4467455873723634,-0.0585174585385838,-0.36685661994976887,-0.07074932541413145,-0.307532292358996,0.012841934237041115,-0.7271557349018765,-1.44859466538289,0.2868375022667917,-1.0012952380106144,0.49881654958703536,-0.6128193058941589,-0.45044315926242273,-0.40255932789295207,-0.15742626672444365,-0.139165425230141,-0.7707375792302859,-1.4338356642014243,-0.7021427135433652,-0.9684960541346873,-1.109712098056844,-0.11299836024486659,-0.9690476141926953,0.5057605124702399,1.1866413186773388,0.0737281102394483,1.4612756077904687,-0.6681400971190296,-1.8949566034851983,-1.165536024335549,-0.35756586902487325,-0.8480500886519764,0.04868484376639915,-0.7189344202650908,-1.0947057431380145,0.17779836109720681,-0.2854303640612031,0.6951285907180285,-0.1564283764629637,0.8943847693034264,0.8626883454847146,-0.7073805748458868,-0.43313480770068336,-0.41834844133526894,-1.316655554032699,-0.5110323753152539,-1.114793530186393,-0.6420374782531241,-0.9872455904955667,-0.175863567656489,-1.4120705153696265,-1.0810342823839787,-1.0036805588618039,0.004153478077746646,0.8141935393399398,-0.5216903969693049,-0.8339791750312833,-1.9235662084073073,-0.26844833624436415,-0.18239709113657043,0.08578445890780174,0.19955845508247036,-0.6699832931673897,-1.2816764075865146,-1.3372557407809842,-0.3530277256201033,0.8115581285401822,0.34904567509525686,0.3412364086750071,0.8134750234937815,1.079513219004174,0.8519527316653169,-0.05500542429296018,-0.14353747561991312,-0.1662092604588939,-0.8669685732415118,-1.2320438887021994,-0.7823379843100347,-1.3161175033448282,-1.3502021578372034,0.075125773457888,0.059432898725729634,0.8170997261881294,0.8269168427816952,0.9482125426082348,0.797873208937898,-0.4933824780497787,0.20603653063775781,-0.08545465806745206,0.04616843313981988,-0.4114421693998855,-0.23118813591454784,-0.5767245311602264,-0.8568121423320391,-0.8385638568428948,-0.5004481357288681,-0.06120428511251485,-0.3835368400982912,0.40603343021086596,0.11418411842066899,-0.5295666960525517,-1.5402075143955005,0.5287525136710105,-0.32717634892034203,-0.26669332343730584,-0.2882446796566947,-1.1226370032359654,-1.9722293629854308,-1.0311487828428612,-0.07794279784379525,-0.2232323772799715,0.39794753810266215,0.2948375729385256,-0.04800419555064204,0.056892402182000215,-0.24175375947277064,-1.0172064077838001,-0.563767520882853,1.2422210799676003,0.5248705590966244,-0.19410091092608323,0.7548576121782332,0.20817334558791334,0.202925297503179,-0.8776147481963327,0.4522684582321754,1.1091474521137812,0.6442242194000748,-0.12092857324539405,-0.5410224041430182,1.174098904845916,-0.4394815110194655,0.019015231719501903,-0.5070866509706905,-0.9981768404137672,0.08931389551957286,-0.16475450593063365,-0.2598432760381738,0.11715747042263504,0.6167805616471902,0.7681218974555593,0.07723679450579192,0.6340372444722246,0.2943193730309065,0.2880193215463325,0.20657686195474487,0.6990155412093899,-0.7113093790124776,1.0015694720494779,0.7614621366952979,0.7777807215327859,0.7402376329837939,-0.38997653192554216,0.35794224884642356,-0.1923506895343623,-0.6532042721368343,-0.19613398343836044,-0.36206093510577014,0.21182223558230268,1.5453364751662615,0.08970494729228494,-0.7960825517103637,0.1844693413055553,-0.15078396629941998,-0.19867043102307916,0.012975907104322117,0.7077711709697352,0.6055259166922008,0.10615169884403762,-0.07058395632392195,0.34073212605291736,-0.865631825896064,0.9300595164311061,0.4271590698587673,0.1315941459152066,-0.17508159018991837,0.8191347850661553,0.5067911139121679,-0.4817772221988251,-0.9260131064442021,-0.8937839992999168,0.9192288166578569,-0.11276369216970183,0.6058161525803172,0.534176327454401,0.2804402549991609,-0.9969538579365834,0.9929505134476948,1.3730244126804698,0.9175321872171666,0.6309266194045164,0.9241041539642486,0.19026646979682132,1.1404388962330934,0.43863381237614113,0.7326649964921775,0.0863600578472906,0.9121875986338711,0.14681143974633182,-0.7166656953084094,0.7619712802509737,1.189291137354854,0.7611805340310077,0.03422625936720429,1.1562134594495912,0.24368898070729555,0.644159009235562,-0.3175834352923741,0.625135870998558,-0.3805438027930712,-0.615943054892339,0.09011899675750958,0.912513835395029,-0.9419043867721709,-0.31226179061731374,0.7834951615341633,0.14460745051423327,0.06572098281965999,-0.12404935964477061,1.539045091837063,1.226259432379575,-0.41900227971260184,-0.0663422987863111,-1.2037071067129026,-0.6066670300713928,-0.4649192092374347,0.9803195027462882,0.6048086872813603,-0.7067297766316968,0.601793196531717,-0.3629708380705986,0.7048676719500696,0.017285457461101772,0.9782716165406009,0.676515495087036,0.42642183306739767,0.7709574952566826,-0.9616833608974428,-0.04155740202948374,0.11995542569900992,0.0016327194026893087,-0.086763230904178,-0.4621238520084928,-0.06434707423267733,0.8298781505963803,0.4944414741502615,0.8313870709172265,0.08473153795130163,0.2870370422037364,0.9086611814625641,0.5349686556585371,0.9189468672706508,1.3248206416259978,0.04558847976407715,0.9843689396548908,0.7111416869330978,-0.1851903502093228,0.13188441457607544,0.2642551197087963,-0.24840384492431045,0.43143720112664596,-0.20781142064007765,-0.20650949309326783,-0.04159390132404672,-0.9031410322234952,-0.9947287736586726,0.07804309303388372,1.116010147769569,-0.08300257048559036,-0.40425725517644423,-1.1570923341087223,0.782537870822419,0.724336901639521,1.0627302603343403,0.9983866733320037,0.04754543746598085,0.29396252311582133,1.075000503330714,0.5700608422603329,0.940135374452452,0.5825495590697424,0.6914118001104048,-0.4786728753212406,0.8408907521718035,0.5010950833811901,0.2225665997497768,1.627407012510653,-0.4118756934170093,0.06559557709130949,-0.5502147438241675,0.17415025237275927,0.8669334255408718,-0.49523621380329114,-0.10346681582282855,0.3862083731875376,0.5226256260371078,0.9161556071021255,1.3069401701993835,0.74455993801449,0.7769479282043438,-0.887964555037064,-0.33412663518245,0.1002816809101231,0.502189809634962,0.4882697909794977,0.23407669609697626,-0.307720981365634,-0.10845137188066076,-0.16918328877663405,1.202403470931373,1.3929269043845711,0.7508893530059719,0.2694228655240636,0.2437838643930388,0.6449211336700773,0.6305859922876241,-0.6679067680327935,-0.5441112567172882,0.8795901196572213,-0.26906738887314763,0.07680696367826972,0.7334507934782862,0.5578151542481482,0.548250009721304,0.04675469493262346,-0.9267925215813909,0.49844290208261677,1.167154656520889,0.017714475300451733,0.7287531642293754,0.18132852755518405,0.4851251538044562,-0.3551352500564842,-0.18146478002125047,0.17613076847452797,0.22478367650645342,-0.2934590201542182,1.54107023819551,0.5658838941471431,0.724901610399161,-0.5865520035925714,-0.10045414602669685,-0.5623216488334021,0.29636017185995317,0.934294696628602,-0.7425452885656265,-0.36229917818484614,-0.14386790979485164,-0.7949335527840002,-0.5797078874076563,0.9612777621631302,-0.1556742266987549,-0.06836800605112384,0.5887229027760758,0.7390879418824554,0.9890227943936171,0.32796569018027505,0.6946623532461917,0.31544568031951425,0.46444092119550145,-1.0863741813622847,-0.3513449050549222,-0.08148427441441682,-0.8915625772274152,0.06959073985160633,1.6138783317309162,0.9860705154536699,0.6656166537358676,-0.2683369261590859,0.5796047048537467,0.48612609894908965,0.798982733560015,-0.9580902083769648,-0.7972670173365815,-0.6503422025692851,-0.10103904579045464,-0.04197725442987643,0.1222540813687676,0.582414952124553,0.5350516166320997,0.2706847119840865,-0.12221114601974781,0.7114588034944075,0.20586536701645775,0.10770812709599852,-0.46429783798308505,-0.5311738938057176,-0.15819185969481492,0.5235139605297714,-0.19970316892477408,-0.9194459973930194,-0.6139446866978119,0.442920109432701,1.2767631150725525,1.2558345715739039,0.493732023479796,-0.4664633606722486,1.3765838483735655,0.38977064882936513,-0.34341898049339314,0.7628254777860525,-0.3045443950971332,0.529633357979618,0.6174798868530407,-0.29230157669499457,0.13400459924136987,-0.13946496348147563,-1.0060401891056057,-1.0473423145430587,0.34518571047197644,1.1140606074430688,-0.7460015372588388,0.6657170768760442,-0.9157743676420886,0.06829065153195647,-0.518426793424837,0.6302314442522454,-1.1157711664238459,-1.106717599853936,-1.3878171686005945,-0.20173000215479775,-0.15555644895892282,0.8494295614026621,1.4560159170626465,1.178733282392285,-0.36013697676296785,-0.24848617548295193,-0.9022702083296473,-0.6720965562637323,0.19508012117453255,0.7912450902428185,0.6302131383947547,-0.28813256519133024,0.18866066622213928,-0.6647531415907901,0.821151416176489,0.22979190353165585,0.03155181854138041,0.3346271698642405,-0.37501764321686737,-0.2004993709089769,-0.21611993490142703,0.6166568429117316,-0.9990812608316425,-0.8822559213444024,-0.5129558585604296,-0.11054506559462761,-0.9108110158237614,0.5671565372159016,-0.3179995349649076,0.37426972237974687,-0.4340543227152501,0.7247768999514557,-0.1413171171518119,0.18021350576199632,-0.5175243130959347,-0.8334750976655076,0.8350798715429399,0.7267706258821724,-0.31344763274987164,0.31312422545621965,0.1837954016582648,-0.4095064583940105,0.6251396321831216,0.46273595954755853,-0.45736335595778566,-0.3022128351707849,-0.4226800622214527,0.999147253191971,-0.03734850068354394,0.2828976637713819,0.6085556501557692,-0.7052806672046759,0.49319417371023033,-0.6371585274606631,-0.8349261867309394,-0.9015437659298813,0.5470976607572499,0.28621340316631966,-0.3686395410857016,-0.8468147122409976,0.8955988298558304,-0.6886688890329294,0.6304091948867518,-0.4992776755673649,-0.40105698086403185,-0.9338915570448951,-0.08296078698696707,0.9342137748069481,0.19031618308089238,0.502770569282684,0.684062078563048,0.48982372983396893,-0.96062874636351,0.21722323282148862,0.8777177323979939,-0.007621580297523169,-0.43023802386089643,0.11059490059275166,-0.5460985952226739,0.6055169036012334,-0.4273406345014434,-0.3453138352824676,-0.36161768684166135,-0.8203149826615567,0.3156654350654089,-0.380654379753079,-0.6481440792519214,-0.46150731866558464,-0.3702747324669001,-0.3020700873930928,-0.5522629210782029,0.48280260145398035,-0.46329266075557074,0.4545453012005405],"bias":0.2602099705979789,"activity":0.01267595513488564,"zValue":-4.355291396036172},{"weights":[0.8188438875872701,0.7754699737389625,0.5628977254701235,-0.14290369024099192,-0.7408791789074862,0.28688860647044656,0.7833247539110237,-0.6306269258646471,-0.8807940226740887,-0.8599876879548978,0.07490932575722287,-0.5354921461152857,-0.397035149339656,0.8924971467864982,0.40068288094363425,0.3351590896969521,0.16198887973202325,0.7828089956685429,-0.7524636548961237,0.07876198789914346,0.056281049792989535,0.16482672227656936,-0.38113853454010016,0.9759237858275691,0.2823391035857683,-0.5348165985873736,0.6893878576625645,0.08251760707315547,-0.8275516848194231,0.9952114722190899,0.4822156919703131,-0.4308448003833618,-0.5926333346202028,0.8415625073545292,0.9849668361994888,0.7520276952562712,-0.9337752771396363,0.7952149894572688,-0.026364777839765197,-0.28095134842212194,-0.5584587466564586,-0.8453307140792238,0.5076553288884345,0.734300982962426,0.7303010269907017,-0.23188630285016545,0.6106249680369447,-0.727481929237442,-0.435389001211771,-0.5286964925076478,-0.3402681291462585,-0.3982311683014611,0.04797256440582931,-0.7382080348160915,-0.5163144789251586,-0.44196251849458656,0.45750244268843687,-0.3686945693516983,0.966381098936894,-0.31974140561401354,-0.21636600205899778,0.5834681982380068,0.16214066450369038,-0.7202128104970938,0.5440721654333628,-0.943144891218924,0.0836420380160694,0.756593916070328,-0.5755416497431536,-1.0247671928412734,-0.829974090962462,-0.4828840363779663,0.36850252859609695,0.9575332061883339,0.45605893833395117,-0.28089876245946616,0.6915628341882,0.2847800675213834,0.3877934449106468,0.46865103408220116,-0.6009264875022301,0.320549354454545,-0.8068140460168789,0.7289370155180843,0.5792625405660741,0.37936255147215414,0.6743967317585189,-0.1928281242098131,0.4260475177580214,-0.25412038955691346,0.424364829315944,-0.05800609041359801,0.8242239453480263,0.2794587910645967,-0.010285203516491682,0.5025346587518076,0.7132265119410395,0.15883064720403547,0.4269171954924872,0.41344922570673,-0.07709312696591675,-0.3641355337702148,-0.36171735457278,0.37627620931420974,-0.6371997918360979,0.7298125041095928,0.515290996695786,0.3875799665216769,-0.7855926229726127,-0.3841955880416972,-0.8916106737221585,0.23664376040927726,0.6968508833343519,0.2827745404378068,0.7583580368044105,0.7428050854109911,0.3168089749864015,0.3595688038050527,-0.8201933107704159,-0.1864290191443803,-0.017331192547283252,0.1483568961049423,-0.4706895769975385,0.7818796631518468,0.10686521658348395,-0.12569344260316723,-0.3716244543743081,-0.01922823637898442,-0.8712967667302947,-0.41196101357533954,-0.203778473949005,0.1475017368589832,-0.2816815732775606,-0.6257986605822493,0.7936241908074756,-0.29733843228483664,1.0678034546174535,0.8938171778957269,-0.9829386034238479,-0.9258019805797115,-0.5444335417526207,0.5510446832502565,0.5048343973981358,0.1499609209570492,-0.9002646730777009,-0.45661751606909445,0.6431160304297062,-0.19197660161116398,0.4924809199736573,0.3389504111802652,-0.04056630021481001,-0.7865150685830519,0.8594132183843396,-0.21981065715991943,-0.16657115655294347,-0.4523558478261694,-1.219411905839556,-0.09682248814110336,0.09829231964570884,-0.530424408424976,0.9676037824408892,-0.04655335484971274,0.9572817403506924,0.8085113635450198,0.12481421383166741,1.0515390634056716,-0.6690677526909298,-0.8909543274150881,0.5720873208398345,0.7884050398296845,-0.8988930557344063,0.9649911650879905,-0.32262391012041064,-0.24447072475752235,-0.15615099381524006,0.4200388220162004,1.0040552181313391,1.0808787036683984,-0.8808545496498998,1.0066887972273348,-0.5563614113050879,-0.6402560370036741,1.253291024290079,0.5260658383968875,1.6970011895861299,1.0180880384962212,0.7556012279304182,0.6585591253226405,0.51919422150612,-0.9462987726592901,-0.20455707992602806,-0.7686767163070598,0.5722728535749013,-0.43598791439239754,-0.2916929810069039,0.7054998996932313,0.3214999561655575,0.044524534434821954,0.6913135210959834,0.9438433744004759,0.8541496583977746,-0.6419871751377018,-0.18536538741638223,0.3390997717252984,0.5772273223668495,0.7355500875301527,0.5730295816796961,1.5947650347022155,1.7185893400327175,0.229071167661581,2.048861275925393,0.6151048168400594,1.965262184073378,0.35703157811012304,0.3002623566777985,0.6636559453485693,0.7885394866246914,0.4943512242049635,0.2522190217315468,-0.8056438050310876,0.951028563130203,-0.5257348744781064,-0.43681743105546,-0.23055356988741402,0.24883091273417357,-0.7328552614265275,-0.7592431854345855,-0.01908265790254852,0.6971470019923066,-0.21720422783931798,-0.06230732313133677,0.4485855141849475,0.9155372318162548,-0.5089528572085497,0.5709936240964344,0.09725202149304286,1.9456789340501512,0.8059911658892045,1.2748125586608807,0.6885186914364299,1.0539435437170224,0.3348696247873718,-0.24594121365848562,-0.788130073817932,0.3382400802785502,0.49779152910340985,-0.8090968883711049,-0.9885220857224922,0.41538986001938666,-0.7006975806675695,0.5738465673894124,0.6280359696438711,-0.7861558577375832,0.3249152658838685,-0.8404914004817998,-0.14241459542835017,-0.7890374237559038,0.5797543573036182,0.7193725507933801,0.5870660154846304,-0.3719437060508984,-0.5040622538523304,-0.3586923825582247,-0.022405579677587956,-0.644116599554357,1.0136769820774572,1.5011275379401694,1.5691564750050544,0.7150960269005772,-0.6028177437144758,0.5217038489659032,-0.8105907237252952,-0.755862789905302,0.05143457975064046,-1.0835306826752853,-1.586663515563425,-0.008653291720841477,0.180539732615323,-0.2693919102732075,0.374578835380751,0.044604276254436304,-0.09037943687473596,0.4062316516884163,-0.5572779522995044,-0.3314623547054729,-0.06413250309320687,-0.2026923440714697,-0.29041781803793837,0.8836943298132243,0.22746028838173807,0.7197935054731259,1.3467837362050141,-0.08781750412763045,2.0222228900573334,2.279829096424003,1.2112577760145586,-0.39479906622382865,-1.4947399602692542,0.35468643774469805,0.22692802393145883,-0.15381721087451436,-1.0893191356782448,-0.9500638550464687,-0.3951813550029989,0.4071711401477636,0.5686202414546049,0.23389253507464633,0.5674754673569578,-0.4665653782735011,0.4355707924166463,-0.10012332991941048,0.23064772119467603,0.892564396985379,0.9485290641408181,0.102827302072884,0.18963409851062868,0.5606204616664298,0.5487979774969813,0.5869594325591374,1.3574356838442687,-0.05091758343525556,-0.30111577455975075,0.9953624615827268,1.1164258547106938,-0.4229216994958004,1.444378141143598,1.0663195687483018,-0.29061857533562535,0.42254962229060206,-0.582673775983534,0.8800623267565464,0.01864815902010128,-0.7548493305043771,-0.4093757687623145,-0.8871183088116771,0.21860274714403982,0.7552361321968104,-0.22282400852584577,0.10195957895117573,-0.8119641746312946,0.21609209017996966,0.9608458774540817,0.18517227252367144,0.8907493546360264,0.8897494664648211,-0.15601046725646409,-0.001462366605435519,0.06890411375320644,0.057027184096933206,-0.7251584625318709,-1.603077351405571,-1.1188457770388507,-0.6867148659142841,0.19498641814752204,0.03758639868322716,-0.30584961820174555,0.2321716601758363,-1.2196423876503015,-0.6881122676458974,-0.5921105704399928,-0.7990966467391207,-0.044687421065676504,-0.395629657062124,0.5929100021818106,0.08808873155624664,-0.725794709538616,-0.08196824163646292,0.7436851920230912,-0.29653170053884326,0.7932677588267036,1.1672291307939027,0.22347489766300013,0.19580666030226304,-0.477684461459811,-0.45964772693243383,-1.209719709127171,-0.9430080123890694,0.20669296976982068,-0.910713872114184,0.3234911720270267,-0.2744438832691296,0.013769352762994558,0.07205675924174013,0.41309117119441874,-0.057182791222108426,-0.47955447470055057,-0.38281439867891875,0.07416120072764876,0.5690876633049299,0.42730198853807116,-0.5963534851663058,0.12083247861515334,0.6840242146769082,0.17588901713781493,0.42699568915743397,0.33948848790290936,0.10739492376531731,0.11932560283138766,0.5758969186700009,-0.9909481677155332,0.5125004403941463,1.3196375210553994,-0.14532845459930954,-1.0311376220400188,-1.3168505411656735,-1.5534089881026396,-0.7597884401387478,0.21524690494331622,-0.7459303150869049,-0.5534177194059963,-0.8193580567438312,1.1917946019752133,1.0984938702479379,-0.35062028094709163,1.2179002141760775,0.5777472648156067,0.8952954314720615,0.458661819587855,-0.06297190705878428,-0.049954820000433386,0.0906115627807429,-0.7798983553429208,-0.8892097951576287,-1.0336683539916485,-0.9283987604786649,-1.0106762024613092,0.2990915532227643,-0.701390401043389,-0.45650331852090414,-1.024074863716241,-0.789685151021771,-1.6655493243193018,-1.262198365378928,-1.457089065040115,-1.533263885534777,-1.3372596083631711,0.5711091550833947,-0.1369881178366139,0.7513723138953756,0.22950681743132212,-0.1390525685872274,1.0178371931070034,0.7105917396737702,0.23177496047110388,-0.515760622268238,-1.0440445196845398,0.06173531254892491,-0.7940970926654916,-0.11628344733452423,-0.872376936822055,-0.5259107474159826,-0.22606728269335588,-0.7121396170503735,-0.7946388912572779,-0.6549772538883696,-0.39824734329395045,0.6877290305023772,0.7283569758293087,1.1292032127005576,-0.40259373829405215,1.3885988707190853,-1.0845030739264363,-2.1592462572527005,0.5424798250540641,-0.8479176689395478,0.3795015528862006,0.004661027045630574,-0.26964778064127853,-0.22803888358563337,-0.627088764137063,-0.023641883711201035,-0.6013747192849754,-0.10703342177035154,-0.9331105608190142,-0.49661109355089544,0.13089738483837016,0.5646117715813364,0.5894929483727797,0.3526394186475067,0.39362584421674573,0.7064662466584954,0.056393546822593274,-0.5193283588725279,-0.20065228662268372,0.17606406696751564,0.19174099287284785,-0.6593116855060159,-1.1736814846128352,-1.4556140049713608,-0.6930964988106096,-0.5531667541305327,0.5185214663746472,-0.545500897099094,0.023129157308749915,0.5978572805219832,1.1844913473663043,-0.1990670921256906,0.002581625556761877,0.19762829076913793,0.023560707897481093,-0.6878334272762141,-0.31926142573737587,0.5690662157718965,0.20801240149020012,0.8794424779159309,0.8678178532244795,0.8530177273573568,0.005539478597156864,1.1928239366617883,0.6946942631887255,0.025997553143746417,-0.6365631225349928,-1.023561014313415,-0.5298439766421823,-0.016548442804133874,-0.06377142536811535,-1.1861131010762889,-1.2942752787879557,-0.7559279965356268,-0.9512978466629832,-0.12863967180060965,0.11216365513207838,0.725192622915804,0.05870649149775019,-0.6771560013366286,0.705833403356913,-1.0476934372662117,-0.6010502919521137,-0.4567684278325784,0.13727751976155342,0.05965237575283363,0.13071442516125736,-0.45670348656644943,0.8541295998319303,-0.5615569770637892,0.1806672704690483,0.26451393203586254,-0.44817709837168535,-0.4140507332668023,0.13858105615918556,0.143825540438257,-1.7711533860729805,-0.9650375389435062,-1.8904840903705025,0.031088535614535992,-0.22637879472503533,-0.5086779367632894,-0.23000945195482708,0.38268317598101637,1.069925375598252,-0.0780763604518248,0.7793537100437415,-0.016957863947016823,-0.3050435124365252,0.11002365509377011,0.32389363574418184,0.4514456500225195,-0.05569867575248449,-0.8242865366426593,-0.6211837277371605,0.1195374542058465,0.21940447740912702,0.16038086725826195,0.18546906714613323,0.08108682738689704,-0.2312743660926596,0.10715774343760905,0.1980151212470289,-0.6037516113333404,-0.8644007278801411,-0.13948971782487873,-1.2076233939541015,-0.7755742829063023,-0.027096991912056737,-0.5264499036030215,-0.5633756490232945,-0.2000980816153816,-0.3239939128658849,-1.3803746324393626,-0.5577299020227754,-0.08055811444873988,-0.235085848972998,-0.341086794652357,0.13937141244303825,0.878279855261697,-0.8937848882264989,-0.4488827483683677,0.9066898131664781,0.8776258768329699,0.40101205960460473,-0.8138155198952555,1.0124589830545798,0.09762984486124981,0.15313954247301786,0.4963287538244585,-1.1386372014175694,-0.17604761996665264,0.6393938197938956,0.9648808187525884,-0.6658096285592868,1.2630399074873588,0.10073916238431134,0.7170301177393497,-0.27219950365246365,-0.8627805707828824,-1.033590141484194,-1.7056239016892076,0.1578157896158728,0.17476140166301019,0.2116687599054304,-0.6552961979253121,-0.41817672540827727,-0.8615043973905716,0.6258868970054972,0.3988703426226233,-0.1868943156020335,0.9810521106493577,0.3826696552714157,0.19773049185183525,1.0677260672018696,0.514718413403328,0.6643720578472879,-0.14933840763689185,-0.6003606430103668,1.1194454308169999,-0.3298730046415038,0.9398511845002381,-0.12334809351599137,-0.7481987343828943,-0.32771946149271247,-0.7868227234373527,-0.06878202647576383,-0.09307924756930515,0.0679973071034315,-1.8235251604352143,-0.9258722002609312,0.9515188131141036,-1.018853710929779,0.14023938851189083,-0.7188402276754725,-0.7151592027039603,0.8136693835745601,0.4539557875392419,0.24755248928301876,0.6461657995413428,0.38446580296953936,-0.07832035212461483,-0.8135912771228826,1.3919038413314804,1.230127315989345,0.009367695627761706,0.9142067818127535,-0.43646835162745956,0.017087759715582403,-0.3773404382764131,1.5019732344586174,-0.034120061417017136,0.1331221361649951,-0.2271794227891936,-0.5283340934758918,-0.32991772493911303,0.6976533577609115,-0.6514652538302076,-0.13772804359807572,-1.0534374033500888,-1.183794849427158,-0.020383250991636737,-0.24108958300112932,0.7526355760383672,0.2815725611465592,-0.23658110358958373,-0.35817249505564464,-0.22723497183640795,0.6639387037496625,0.7684777855351372,0.7005128595035538,1.0705713425370142,0.31612922445537495,1.0114843442139614,-0.019312909761550364,0.781432405433559,-0.31822087253980397,0.4071266216219233,-0.1139354739976011,0.3002901006751179,-0.22907355050680475,-0.011163629587605263,-0.4816184257411057,-1.047803249096182,0.8864991371653473,-0.03348223586591011,-0.2944658792117688,0.11702850341443594,-0.04295799066932058,-0.8670024840301931,0.8077982470579339,-0.7545252580347017,-0.35912383976819295,0.4767695841134234,0.2952993481026174,-0.34933604436420307,-0.5145930173162552,-0.9138545043138251,-0.9348230172281592,-0.6034325848999743,-0.3071744930972196,1.1054733471368803,1.3573522275771754,1.1134771179617469,1.5123300752778213,0.62529856565857,1.2742747509473864,0.7208742298896819,2.2641967897515096,0.16337086805434559,-0.01653978150859244,0.6330695122596763,1.0162578462205498,0.5427787150370256,0.014577030844905156,0.30983433595478366,0.5072441214200102,0.001476890138578415,-0.5188677114075024,0.17947174618999626,0.040751011777550694,0.7921524213467022,0.8362051773377108,-0.8131697019165598,0.6288913766961364,-0.6626380886709162,-0.6278211285334336,1.0187482185272987,0.9315623427688525,-0.84201807779734,1.0039182430422613,0.24700881319660495,0.18184512466862218,1.2919356186794775,1.1429177473736105,0.2838210364760438,-0.32357022934867397,0.06838023080347772,0.2138128037298063,0.07121502662965282,0.16796889572967733,1.5213005230303,0.15150755730913554,1.0243006354563984,0.5612115267460017,1.124709482774271,-0.6210364579763947,0.024918017525411784,-0.8462085074883539,-0.9190825139755576,-0.5505618443694975,-0.14730709550299537,0.7420424717806378,-0.08147716624873924,0.807825041493448,-0.7402714873689695,0.2707420299776373,-0.04050232759918155,-0.14197187119012905,-0.031625458826057246,0.518471223800698,0.3862343202499572,0.4507815313428666,-0.4302091367166704,-0.08488094900830548,0.33074050153772366,-0.8499894054833241,-0.06733492342435564,-0.48000144745215484,1.0378660196474854,0.3928076259630638,-0.7741724838441197,0.7580443774465813,0.7365559250706079,0.9795303465424863,-0.47577121137209755,0.189282690114569,-0.7220940753041143,-0.8957170280739648],"bias":-0.236728625318358,"activity":0.9905109458296509,"zValue":4.648081975162452},{"weights":[-0.3095006250734009,0.29907712361580074,0.7880255483181684,0.3885213290889902,-0.5578130015051888,0.99369420935207,-0.7452412490750149,-0.411596642959966,0.911061453372743,-0.21205443245609867,-0.27928881448939835,-0.010052574869046982,-0.1514588182274741,0.2208093257860817,0.6497885199891149,0.32927309889219547,-0.2036207737143223,0.155737600311749,0.886365259859669,-0.5889722287293861,0.31599965960261667,0.6205488756800208,0.5399040304140761,0.9274508987440067,-0.6030797935029795,0.8847545740303855,-0.8138310267743969,0.45032252628173364,0.5850422765561487,0.691940016070562,0.6102950015671396,-0.1608296785722132,0.29118037952058273,0.6706616070759583,0.78850428528358,0.7517069111388658,0.3137989140212294,-0.6428840210398784,-0.9031429515611612,0.8384701994638379,0.7522591940048478,-0.5402167736265047,-0.07102615126877578,-0.6551666084310452,-0.013446433079788059,-0.626298280842845,0.27185880355238734,-0.5274033534154947,0.19806749316352348,-0.06707273068495127,-0.5269065796376694,-0.157028774424497,0.84746509862754,-0.580186083559791,-0.34435676975250784,0.8594138185533358,-0.6193445635227501,-0.7347017759747767,-0.24455620781382503,-0.0016819930509015535,0.8902462639016447,0.13548072948907905,0.012936386021115166,0.17964714720098557,-0.0349669259915296,0.8034382542369422,-0.30274757748757297,0.8533388020450727,0.12096489320513286,0.87520072003569,0.7707162150524554,0.15572477970339044,0.3917821891893526,0.8199861644142135,1.063725959935968,-0.13282273095793393,-0.12229591358214872,-0.06304953010846691,-0.06226086861828402,0.9921565125176929,0.5816963196037915,-0.4761208380051376,0.804376495041355,0.8244730806762419,0.9431159120578307,-0.07598008829023506,-0.08022571456474203,0.3849299364433678,-0.9396521112763528,-0.403952931609854,0.21872567007333693,0.8504140584431016,0.35954142459530264,0.5965792813246826,0.4325199512432025,0.067299450282277,-0.570625228478157,-0.08712255405716823,-0.241283279698095,-0.7373991658170611,1.1647610798377472,0.27292714067895574,0.06459290763468074,0.8155511941106887,-0.8682137773721156,-0.09160970061649416,-0.7429387794236094,-0.4977661158939142,0.6698803757347099,-0.872686268508112,-0.24665362734852803,0.29826943665776895,0.18521676143473087,0.6158559240129371,0.8661633205292905,0.4663366263597975,-0.36069130924562337,0.5059144853251196,0.1098306213936174,0.6423602975203455,-0.7164410950774349,0.3957556304011652,0.3211013260796249,-0.7496908688306694,-0.5854636443363331,0.21482796769264473,-1.4983804851469722,-0.2850824005244551,-0.4309308329042326,-0.8854290291860487,0.4889659938727211,-0.7565866341533618,-0.5160956209877852,-0.7205350994455751,-0.9701842525796138,-0.7563911266520243,0.027035458593945134,0.4947476464632407,0.9386242929957248,-0.11801129028390589,0.15116640615283172,0.9829475459533588,0.5710437557323511,0.9890386763543061,-0.19435808625854223,0.04417977104776081,0.2552782770317721,-0.1918417290146886,-0.002087043611290939,-0.42674773998817606,-0.33699442018945786,-0.5226667884978464,-0.17694100801708024,-0.7437586122100026,-0.29955943782460503,0.8402666426862189,-0.46825436464966813,-0.6845250989190843,-0.0853288588082309,-0.6201822172719937,0.2980834941303059,-0.7997700939581489,-0.6675790189123274,-0.5039896906025281,0.557142826354484,-0.025000665980829846,-0.1684320646664836,-0.741423189255181,-0.4440743908827298,0.8386581590080797,-0.9457268829464222,-0.48502403585287196,-0.5939051299460586,-0.4785678864210145,0.32046340890067515,0.13061094157026923,-0.6097852480616442,-1.1280827613580755,0.21281986958072574,-0.1966563539547003,0.09123576643246313,-0.8014967722293707,-1.5882631648691965,-0.9238875689427987,-0.15521331833687027,-0.49314022668258883,-1.199658570806952,-0.08795629096287345,-1.3007761366015007,-1.2645507631673043,0.3268228207419601,0.7352783486607175,-0.3373765413138424,0.5974032929073786,0.9994042338998241,-0.32220165150183494,0.4661490109433185,-0.07911132243585751,-0.9427332601554824,0.2578829721099506,-0.15703337664285674,0.3047540183775111,0.4546200241656179,-0.08503856730859465,-0.7457773553260117,-0.5143217606808643,0.5830926623083347,-0.06726685010846081,0.9484707846476262,-0.5435480538104795,-0.5068657793317147,-0.8389406037064713,0.9009162273084249,0.8651956850006274,-0.6768916417440902,-0.09731307556788743,0.3877289296500152,-0.6123650651225414,-0.28723078476745784,0.8188263293864898,1.2858859493676862,0.5933943873336796,-0.37707036638487357,0.08255708451058456,-0.9704458147882579,0.33706886272798103,0.05336128008563686,0.7844715836629219,0.8751257339850852,0.8869532092554933,-0.5285383692282116,0.28702151072696797,0.034964571404352045,-0.7245290045633904,-0.17365434245381686,0.6224784373998985,-0.008339240463664141,1.5103031144407273,0.9576605952687275,0.5665149973254117,0.14476744252024307,0.7239551614386857,-1.1553242749795058,0.05897131767470657,0.4702459729584409,0.7126901103003555,0.7257603910501146,1.644115759791063,1.5114127415856322,0.2166198424034156,0.8744834608660097,0.5289776227827616,-0.8071222061756204,-0.1325122631612792,-0.40140976260981287,-0.5461343817912003,-0.34070124574236643,-1.268157439141345,0.4643164369914399,-0.8397889390604539,0.7711414984186422,-0.10920132582387515,-0.693490131831068,-0.5513434684565635,0.19684820821252313,-0.5896982574698215,0.1507922480963688,0.7333930657867784,-0.6674785616686736,0.9016472735964456,-0.3725224374656059,1.0127401368568072,-1.296353380516634,-0.551722243057398,0.11178785228057579,0.10206951734162019,0.8026305683102277,0.135542185198083,-0.282806425792273,-0.29153719909681064,0.3048092352860001,-0.837006190537351,0.0017128402265177121,-0.07117229332065501,0.8703511949851643,-0.4171627377048605,-0.7033971919656288,0.14936995919925003,0.13961509067486028,0.5079707165663316,1.0792334576322364,-0.3410634764339143,-1.066216260538556,1.541713728799348,1.073893431951031,0.5098653857356903,0.742513702672081,0.21148398962596585,0.13941367314611355,0.9012028212282439,-0.24605678943015616,0.6163678206419838,0.23140427021532792,0.22882093869325104,0.20681163864141386,-0.39458685220849987,-0.6339332409622525,0.49678951596543364,-0.702376742901575,-0.9450992901817981,0.6414338019904083,0.9913226610076442,-0.40522869842482,-0.32571121114787427,-0.24062507707520797,0.8219637017651522,2.105061480757847,1.9067097473927286,0.6590778595981569,-0.6045277768078963,0.1019921603553122,-0.16512174118177422,-3.3056596979915684,-0.6721958665588311,0.008229543969853039,0.3910848734738869,-0.6837112739716518,0.8305734958679947,0.9025850576570223,0.15524932449441928,0.8749941877718883,0.297745231988681,1.074519526024498,0.4314318795711772,-0.2114779675724973,0.9010141280275704,-0.9022897514707462,-0.810457607445325,-0.8417682858309246,0.15666000047618497,-0.7206380763772616,0.9967815350865885,1.281180089443909,-0.31902875609734366,1.0438866556897317,-0.20303249088825162,1.0043566874403123,0.9125098312935419,0.30754326817378763,-0.8788029175071834,-1.0889805109090718,0.22514545692650986,-0.33676735262664687,-0.8949339698043755,-1.3274920060376523,-1.6329169120678917,0.4426030017995679,0.6638672716532115,0.21518336944594196,0.35464562721764664,0.27608719586618424,-0.9959743065568061,-0.07861112388284859,-0.40377924542123345,-0.3357883722406849,0.5382008777362144,-0.7571412961840253,0.10715809901149809,-0.05377552049380069,-0.824121726912478,1.504584809949964,0.6427913935996755,0.0677074968226064,0.13253452784820643,0.6273099900662863,-0.471686651954764,1.4580007445424081,-0.30766174911208366,-1.7658747153146255,-1.9644880952436172,-1.05944455557794,0.5963200668968981,-0.7846353301620255,-0.4214037602836849,-0.2422164447849239,1.6041694113020786,1.5023334875410066,0.2054522407530777,0.9108272817360292,-0.8238645125783067,-0.5717440915958413,-0.6540026611125,0.8566357873631669,0.41794918504484013,0.5873590103062325,-0.5031595245581825,-0.23470102783076832,1.3409419328712924,0.8761274635131964,-0.25497887770814726,-0.3041483804732128,-0.4191469925316747,1.0260731959293232,0.8860646936585854,0.4424332266146217,-0.40630339656640907,-1.0895678757962044,-0.814110276906477,-0.23015473643072304,1.770939134363599,-0.6823683595710779,0.2556338607177313,0.7646270644773244,0.3490498562436086,1.4100749786029712,-0.13778831819683687,-0.9135993793542441,0.4970306354693364,0.28859110509112995,0.48069331859414,-0.2799600946554177,-0.12198579079045246,-0.0675155190015492,-0.13994303842528047,0.09995815228078506,0.8325672096657093,0.03524878113917087,-0.4999655941849176,1.4920815649705672,-0.15554587330158437,0.8288521093416842,0.3438093787534747,0.011245835836764197,-1.1549670859087506,-1.8813965362690424,-0.2747513595862992,-0.5118014597539728,1.4626619982342255,1.2244482168047814,0.9510032979788785,-0.7345993322240632,-0.8420424926226071,1.872762501020335,0.9888404928783004,-0.2362953245069949,-1.0999654873543623,-0.3882315785629273,-0.7314895004343951,0.7168545605178052,0.8660589641130272,-0.5025981171511481,1.0014341994300495,-0.4297439651481468,0.1764169350335916,1.4406796699098163,2.007858002922185,0.7164931954267824,1.2065618118516996,1.0672785227794797,-0.024227391694032718,-0.39068232280957704,-0.3062236053407478,-0.5669089340577407,1.2230710142514885,0.09974235450288604,1.4476783805672566,0.35341646579854047,-0.16824284064212755,-0.4529680921292057,-0.09299153911393256,0.9726018339546966,0.22373104122036594,0.6455653506866268,0.20719144256314512,0.3409717894543891,0.6653542203701036,-0.18153732889076846,-0.9983900301302753,-0.07757711716693227,-0.7125105993990507,-0.7046753342941012,0.8618288813407364,-0.6767555056084661,1.1862098278873572,1.3626459149677737,1.8974817005635045,0.9399904396153898,0.6998591411401189,1.1339463900594347,0.6043817202405861,0.2917995348431493,1.2437850228284975,0.15829208712098805,0.5690914989667395,0.3453334322396946,-0.18497068525179303,0.6367926430153777,0.38012407408069904,-0.9248848042979992,-0.07020999987481609,0.5562930950160643,0.0503818333207529,-0.87022369130646,-0.02825934498212081,-0.972168819477174,0.4003248645529209,0.0717626585437543,-1.148906096549132,-1.2918479087735628,-0.4839335735206445,0.37704528341584675,0.23973882937362775,-0.009242074596821666,1.521229035680226,0.016376903835092528,-0.06076397498733464,1.0516629885648663,0.2575718715313123,0.46008331915706924,0.6565030401911831,0.34711882539501077,-0.7631378030529261,-0.0907063495301012,-0.34817857714690476,-0.8306586403845235,-0.7262736604339732,0.32228000543910756,-1.2304580769600473,0.4464800777492877,-1.2248400557478638,0.7794639693939985,0.050835893826543604,0.9279169307626338,-0.44365468987133116,-0.4921406291707772,0.05672712540598415,-1.4339749745183095,0.4249315041788159,0.16057390051954154,-0.038760389132913374,0.16314560493892757,0.4182804347266233,-0.2714800607814735,1.1608559466086419,1.6738462724919165,-0.0012452262578060312,0.3392216938328875,-0.5986148667619623,-1.0845548616153928,0.6591766329824189,-0.5896815442645527,-0.5698005543290183,-0.9539436570213415,-0.1644635677052382,-0.4947199943530009,-1.4230521310632567,-0.7443796746983501,-0.5697686978650303,0.14267677863071995,0.9132383672866025,-0.6758131350306495,-0.7968249583323284,-1.0166924584563624,-1.1958452839490485,-1.6759829920731806,-0.7657001184793261,-0.9965632869007075,0.041805791672815985,-1.2863058414274255,-0.9518741841637332,-0.2978241811254995,-0.17039862713208967,0.3554302053678565,-0.8064868440775442,-0.9788810018030674,-0.29808818788315194,-0.12626159280434224,0.3349016055676503,-1.4680834439690533,-0.5470524620583628,-1.2647693417631503,-1.6790281900891448,-1.8574086131979015,-0.0034755595246542203,0.6127516590942464,-0.8474747265810312,-0.08638711608672996,-0.4866378902485545,0.7664366539877734,-0.8558722866804919,0.5518963958618069,-1.4493528169484584,-1.181792917516517,0.029798315101003215,-1.575068725358138,0.14040999666052406,-0.3050005893359056,0.12591737820846377,-0.3809749321827075,0.0414947413754297,0.5068338168687156,-0.7612509971219631,0.40185348956125294,-0.5474735384799787,0.5279343683841782,-0.5293401565733645,0.016805352160670344,-0.37875764387969607,-0.4225651143714176,-1.211960838924913,-0.4277928430176212,-0.4781033788971042,-0.7804604941298174,0.29750561970716033,0.9249093441128625,0.3914276877102325,0.402051216758335,0.04002392786036779,-0.9446148904466797,-0.3520008069236614,-1.1640309669754052,0.36425714617310617,-0.5485098969304868,0.3013722427875605,-0.16593204182343232,-0.5226497233518519,0.7565922648037803,-0.516583065716548,-0.0029385198255261914,0.3447080210459182,-0.9422256611389844,0.35056500819628056,0.15330929244190927,0.1650354583586636,0.8012619553777284,-0.6262015827589422,-0.1079696686330624,-1.407988587023655,-0.8702128108443995,0.4866374139708078,-0.9567058817349676,-0.6936572350224744,0.047634381049998634,0.7420693652062251,0.724047597275248,-0.38828004713073705,0.9387813368301542,0.5121292692485458,-0.11626257060173413,0.47166869852468174,0.5615346014082813,0.014724780822238768,-0.2623414872063636,0.3819699604566389,-0.3710147013389634,-0.8822993745473088,-1.071954970259963,0.3091519074255602,-0.10997315130967224,-0.175776786766684,-0.3923624352167327,-0.38674596470289585,-0.32951504161278944,0.7837405833848791,0.6282646425287298,-0.42255193104657596,-0.4921590172689369,0.7105766538186706,-0.5712251304392398,0.979671143630551,0.28540938461547116,-0.8682398384725465,0.12256067337958454,-0.12284685464119027,0.2177932630353201,-1.0575124163206064,-0.6426645731235905,0.39818931528760004,-1.0323548150892294,-0.9480611081908036,0.306971912017042,-0.7699526583541854,-0.12445002547665238,0.7446204612736433,-0.16458727292742953,0.6754995691218969,-0.8386819127382595,-0.7163808247310809,-0.11111105437675235,-0.47381927417807573,-0.6737943103601495,-0.3422454891069909,-1.0478562632397246,0.3387191149408812,-0.18121181619627447,0.27168203450460926,0.15598231013477865,-0.4972028454646052,-0.9557922660866645,-0.6562119942775291,-0.5583671760677915,-0.8466893914786802,-0.12383043170731334,-0.19328291266507286,0.09524034920767577,-0.484699387072726,-0.3509438242064824,0.030685509575312325,-1.4763663111480807,-0.21180840983976315,-1.677618500464904,1.0342522250480641,0.30939067806579723,0.5552915174147017,0.16547270190377414,0.874893163756081,1.1267238878021413,1.1218473266555682,1.274780867057515,0.6006427684074835,-0.11361738200743185,-0.28470742114771913,-0.6726285091962819,-0.20269844814015942,-0.5353847716239297,0.5774947159142845,-0.37903631190895437,0.1626769455698689,-0.9789400681174842,-0.9747532688575613,-0.3073609542037281,-0.10029171293980169,-0.21545604948665537,0.5653652710661162,-0.40915127212344865,-0.7218848999776595,0.9745974255700764,0.7715992325102574,0.9218599503854519,0.5995530235769263,-0.6391507095652676,0.8965880133139749,0.14787628214504941,-0.4764579557241229,0.21267668351970467,0.001918880008383979,0.46846241764474017,-0.9628145208995236,-0.6038385283666078,0.7865285302453758,-0.3364405408841221,-0.6430986608122887,0.3344523454924495,0.9158784087031764,0.0857622037360799,0.347507250604679,0.7346647259849504,-0.02477594415393325,-0.7905806361094703,-0.39892249798463775,-0.566831348996069,0.33905086998391754,0.33682273905449067,-0.22171630070069978,-0.5555815026293296,-0.5045109396615857,0.1253778247238977,0.15753680861531907,0.4847397943566491,0.051568004894256676,0.469442051422897,-0.45607923223705576,-0.8216768034465428,-0.8045079589395966,-0.5436728732586718,-0.41615721168038616,0.4099574690726517,-0.12155057148247071,0.8931188234228125,-0.028254485907293514,-0.5523883505490947,0.19342640149418022,-0.07210443604745631,-0.602329837136768],"bias":3.373729834206912,"activity":0.9999999997910547,"zValue":22.28894853567997},{"weights":[0.3174618042847599,-0.16111170288936982,0.5684485236986481,0.3666578662900859,0.12798553093495668,0.025393577956246194,0.7543795282450572,-0.5507836640461274,0.905263042101824,-0.9748991097478688,-0.017076599328238018,0.5620457382506308,-0.4930651298658124,-0.3916497937800698,-0.3885018235488862,0.18521701083391262,-0.22999815123301426,-0.09877737898258276,-0.9409255463100954,0.2813682412374092,0.2388329396984461,-0.610656971035235,0.7614557268858095,0.5957634713802311,0.8546807705545354,0.8869407386485157,0.42846111935360165,0.24944760941553978,-0.4367634330194381,-0.6000488962087189,-0.7547085817402781,0.08766952647246207,-0.7224343519439111,-0.6389287320183228,-0.9104890823024809,-0.5079111270147567,0.7679545088874843,-0.4400591952206901,0.9481976605030711,-1.0903688735056511,-0.9147738229110567,0.3641620965042725,-0.6979358638428603,-0.2558682080009871,-0.35426645983346905,-0.6572127992354578,0.9023075992132294,0.36476517874826014,-0.07228992335911151,-0.7319709501720713,-0.837575074442925,-0.9348171237274415,0.7678430031022772,-0.9245961211316662,0.6804589452803254,-0.9376652951944235,0.6051569782669235,0.17818024286438883,0.5006153178589474,0.11409917405618408,-0.0420818731348391,0.8970059540780937,0.4392110953510195,0.9273141849932937,-0.8858836755974322,0.355049335557792,0.49342284513325135,-0.816042907981702,0.4722493747683656,-0.6043891666698139,-1.083320676657181,0.36972037868247515,0.09329946599779682,0.06659418942340815,-0.724087817648789,-0.3860807778350067,0.7497567225859966,-0.6789812948787389,0.11765263090742265,0.3351227131708683,-0.5975180690425973,-0.5657461221228872,-0.20561536500010025,-0.14234476554653286,-0.06718982682435115,-0.5033371858678817,0.562728166683887,0.77993943611196,-0.9532922301388831,-0.8797712040237285,-0.5576166015532645,-0.2552698857849676,0.7713861680094546,0.1409916633809741,0.376643423876853,-0.9037891524029132,0.6354650042468095,0.3433425881346675,-0.3644320901818555,-1.1337570055094972,-1.2863451974804767,-2.4862353235148014,-0.12124751436449127,-0.2258190442470907,-0.6083845022889859,0.11416989524914851,0.7861750170956702,-0.563146301349756,0.5761724248146999,0.6286597827061637,0.8491708849947743,0.39078433094188014,0.5487980901075704,-0.29487221631696237,-0.9453638856841473,0.6519979975438926,0.5665638432179004,-0.7836081937547373,-0.4737665482123438,-0.9092905657930144,-0.8588877244552153,0.10607377134643567,-0.4307326129272675,0.5898756827711321,0.5115375093289278,0.09726183117950636,-1.5596503684924394,0.2791704079704811,0.11596496599102273,-0.9106206633954487,-1.2926033190753368,-0.9454350251630298,-0.5336728150448581,0.45063946475505073,0.9996634701564115,0.11548774928071404,0.07751435767516264,-0.8683186494748412,0.17377849009605878,-0.5806260039311528,-0.4761058358590451,-0.8585567566823231,0.2746393003967653,-0.3826253487859181,0.5168948145616353,0.8224259122289787,0.4294650782524245,0.32775693514526166,-0.45522840365014494,-1.4937275331675814,-0.5549077040925753,-1.4824036989135156,0.38573986757953893,-1.8097204177757542,-0.009949861146309483,-0.7204965889596875,-0.27877068574978725,-0.23390500650195425,-0.14534268170724987,-1.0835400400622552,-0.6654878451161189,0.7622466691159273,1.3977308819129453,-0.485238375251874,0.6896300200533959,0.9860672606741256,-0.624404163000288,0.8910322973125308,0.21906632728401698,-0.3028725169395581,0.7253645483916634,0.8553682494924332,0.7124925332791229,-0.04993830559997664,-0.5090377538193659,0.044047239529750086,-0.801704590121272,-1.4915609317841865,-0.0396083504228809,-0.09838893132556743,-0.7682623454810008,-0.20298289972877512,0.026501278203601132,-0.6246057025235381,-0.4203655959807886,-1.399821389584559,0.13661034697074614,0.022210536977359533,-0.22314721291717632,0.13952017776875186,-0.707118165930699,1.3390772839704732,-0.02438961846515617,-0.6848994494488829,-0.6173612687450677,-0.7558223541238256,-0.32132980601474537,-0.20033973342839928,0.37739363016081423,-0.1251769789793665,-0.9724537436942451,-0.037259456668947206,-0.15928620853805137,0.02703820214353079,0.22986023689535948,-0.7175392088147577,-0.6025438695134143,-0.917620194673035,-1.401209220660687,-0.7247608049224128,-0.6567466593334762,-1.408937060561265,-0.3538285233095065,-0.2976506253917989,1.335967257310547,1.212526151129652,0.20161022794559125,0.754103685812201,0.03688335603694901,0.7185590231223143,1.0156684286084645,1.403625236737497,-0.2691625879407415,0.5824474739325214,0.581553471275301,0.8512950937114908,0.7720727448295909,-0.635473319619118,0.9359134305044868,-0.9199707673424162,0.2636003948749626,0.7734260391760681,0.5495020819440465,-1.6533687883386794,0.033048544613001794,-0.8048470376036799,-0.165455071900432,0.608429726135118,-0.47009133760443844,-0.682377569431861,1.3031068108648847,-0.07118044541440877,0.8663824073029336,0.9179010218987727,0.3728179308134864,-0.16634890089853863,0.6474582627797878,0.13948970221499296,1.2423709882372564,0.5571929316950152,0.9874403763947893,0.10685261770384566,0.06304706726102567,-0.6662360753199104,0.010521303120609745,-0.8520728118248941,0.9693011462858271,0.1298432796577776,0.7661232820398016,-0.036349680380947276,0.007633826170604891,-0.15969764410600845,-0.8225731683881113,1.0989253021361722,-0.007554799312489086,0.8906985900538161,0.0571819731901051,-0.3307759029150389,-0.1097743049942704,0.675253990390858,0.5985082855839404,-0.2580340848938945,-0.051856057964446645,0.23302296287966667,-0.28725469213151533,-0.007942335911263056,0.4105854121931739,0.20973650108342246,-0.7407352931712468,0.9088556479511115,0.47414381288516916,-0.12338994404497523,-0.46774520037139733,0.46267544901185936,1.149227158575916,-0.11563588579965822,-0.3108564230200288,-0.30070477254079336,0.8336587237607124,0.4996960468449009,0.4537448509049291,0.7014606036698122,0.5347809096006371,-0.9568703741642045,0.6845772253405603,1.7262744176640232,0.10605593159370746,-0.5599416832686589,0.7846498935995575,0.2865952664880508,0.35855013689360854,0.6435385100716796,-0.14714899781738994,0.10929520619190383,1.1273292035141311,1.1558549453162095,-0.5007029617755719,0.9839287476639574,-0.4751139925012495,0.3700961529283948,-0.057737432453429174,0.05422788991809533,1.1221202162856598,1.0666641809510244,0.26031039112241544,0.6984826125407961,1.7256267037705126,0.7370796801500633,0.9923998969878025,0.025845453044252804,-1.1793070975261577,-0.47465450456912317,-0.15010317484885952,-0.7485314306830755,-0.33999598893755245,-0.46436628964323357,0.3753788002361264,-1.8359245091565313,-0.5150234805211286,-0.16685922172694254,0.47689943625626635,